<?xml version="1.0" encoding="utf-8"?>
<Root>
  <ActivationFunctions>
    <Fn id="0" name="SteepenedSigmoid" prob="1" />
  </ActivationFunctions>
  <Networks>
    <Network id="6842" birthGen="84" fitness="6.25">
      <Nodes>
        <Node type="bias" id="0" />
        <Node type="in" id="1" />
        <Node type="in" id="2" />
        <Node type="in" id="3" />
        <Node type="in" id="4" />
        <Node type="in" id="5" />
        <Node type="in" id="6" />
        <Node type="in" id="7" />
        <Node type="in" id="8" />
        <Node type="in" id="9" />
        <Node type="in" id="10" />
        <Node type="in" id="11" />
        <Node type="in" id="12" />
        <Node type="in" id="13" />
        <Node type="in" id="14" />
        <Node type="out" id="15" />
        <Node type="out" id="16" />
        <Node type="out" id="17" />
        <Node type="out" id="18" />
        <Node type="out" id="19" />
        <Node type="out" id="20" />
        <Node type="out" id="21" />
        <Node type="out" id="22" />
        <Node type="out" id="23" />
        <Node type="out" id="24" />
        <Node type="out" id="25" />
        <Node type="out" id="26" />
        <Node type="out" id="27" />
      </Nodes>
      <Connections>
        <Con id="28" src="0" tgt="15" wght="-0.33589884119040248" />
        <Con id="29" src="0" tgt="16" wght="2.2759605842065529" />
        <Con id="34" src="0" tgt="21" wght="-0.30841775755850986" />
        <Con id="37" src="0" tgt="24" wght="-3.0683258164077891" />
        <Con id="38" src="0" tgt="25" wght="0.60466742597779921" />
        <Con id="51" src="1" tgt="25" wght="-1.7746956280719652" />
        <Con id="58" src="2" tgt="19" wght="4.6296497108414769" />
        <Con id="106" src="6" tgt="15" wght="4.9005263205617666" />
        <Con id="130" src="7" tgt="26" wght="-5" />
        <Con id="138" src="8" tgt="21" wght="4.6906002443308674" />
        <Con id="145" src="9" tgt="15" wght="1.6480937886626865" />
        <Con id="161" src="10" tgt="18" wght="0.12618536610934739" />
        <Con id="177" src="11" tgt="21" wght="2.8142848610877991" />
        <Con id="181" src="11" tgt="25" wght="-4.4502195688184205" />
        <Con id="185" src="12" tgt="16" wght="1.3196185458025962" />
        <Con id="193" src="12" tgt="24" wght="0.12553261329366505" />
        <Con id="196" src="12" tgt="27" wght="3.7549156487311031" />
        <Con id="203" src="13" tgt="21" wght="-0.87974825712329063" />
        <Con id="204" src="13" tgt="22" wght="-1.6543770515381719" />
        <Con id="210" src="14" tgt="15" wght="5" />
        <Con id="225" src="5" tgt="26" wght="1.7413650523285666" />
        <Con id="249" src="5" tgt="15" wght="1.2371934852132169" />
        <Con id="258" src="3" tgt="18" wght="0.67358786705881357" />
        <Con id="270" src="10" tgt="19" wght="-0.8594311937928345" />
        <Con id="272" src="0" tgt="23" wght="-1.6889743506908417" />
        <Con id="282" src="2" tgt="25" wght="-0.54426940623670816" />
        <Con id="294" src="7" tgt="20" wght="-4.3839354485589057" />
        <Con id="300" src="12" tgt="19" wght="0.40416513103991747" />
        <Con id="301" src="1" tgt="23" wght="3.748929975554347" />
        <Con id="305" src="6" tgt="16" wght="-0.38542321753975028" />
        <Con id="309" src="3" tgt="23" wght="3.1241407318540748" />
        <Con id="326" src="4" tgt="16" wght="-0.53480322007089853" />
        <Con id="350" src="0" tgt="19" wght="-1.5573327019630918" />
        <Con id="387" src="7" tgt="21" wght="-4.775733140724884" />
        <Con id="432" src="5" tgt="18" wght="4.4385066814720631" />
      </Connections>
    </Network>
  </Networks>
</Root>