<?xml version="1.0" encoding="utf-8"?>
<Root>
  <ActivationFunctions>
    <Fn id="0" name="SteepenedSigmoid" prob="1" />
  </ActivationFunctions>
  <Networks>
    <Network id="6700" birthGen="83" fitness="3.2499997615814209">
      <Nodes>
        <Node type="bias" id="0" />
        <Node type="in" id="1" />
        <Node type="in" id="2" />
        <Node type="in" id="3" />
        <Node type="in" id="4" />
        <Node type="in" id="5" />
        <Node type="in" id="6" />
        <Node type="in" id="7" />
        <Node type="in" id="8" />
        <Node type="in" id="9" />
        <Node type="in" id="10" />
        <Node type="in" id="11" />
        <Node type="in" id="12" />
        <Node type="in" id="13" />
        <Node type="in" id="14" />
        <Node type="out" id="15" />
        <Node type="out" id="16" />
        <Node type="out" id="17" />
        <Node type="out" id="18" />
        <Node type="out" id="19" />
        <Node type="out" id="20" />
        <Node type="out" id="21" />
        <Node type="out" id="22" />
        <Node type="out" id="23" />
        <Node type="out" id="24" />
        <Node type="out" id="25" />
        <Node type="out" id="26" />
        <Node type="out" id="27" />
      </Nodes>
      <Connections>
        <Con id="28" src="0" tgt="15" wght="-1.7015179233025506" />
        <Con id="29" src="0" tgt="16" wght="4.4031146803293195" />
        <Con id="34" src="0" tgt="21" wght="3.9655507456042742" />
        <Con id="37" src="0" tgt="24" wght="0.81226260464937272" />
        <Con id="38" src="0" tgt="25" wght="0.61996680883682054" />
        <Con id="51" src="1" tgt="25" wght="-0.35404375914828656" />
        <Con id="58" src="2" tgt="19" wght="5" />
        <Con id="106" src="6" tgt="15" wght="5" />
        <Con id="130" src="7" tgt="26" wght="-4.8632915799855452" />
        <Con id="138" src="8" tgt="21" wght="4.6906002443308674" />
        <Con id="145" src="9" tgt="15" wght="1.6013463338229921" />
        <Con id="161" src="10" tgt="18" wght="0.12188837084576731" />
        <Con id="177" src="11" tgt="21" wght="-1.7724064416740966" />
        <Con id="181" src="11" tgt="25" wght="-3.7936558663398134" />
        <Con id="185" src="12" tgt="16" wght="1.3125359389435469" />
        <Con id="193" src="12" tgt="24" wght="-4.8094468051567674" />
        <Con id="196" src="12" tgt="27" wght="3.4350477230019378" />
        <Con id="203" src="13" tgt="21" wght="-0.49765240762599672" />
        <Con id="204" src="13" tgt="22" wght="-2.1023526924111815" />
        <Con id="210" src="14" tgt="15" wght="-2.8244285052642226" />
        <Con id="225" src="5" tgt="26" wght="1.7425167795936649" />
        <Con id="249" src="5" tgt="15" wght="0.54336647391245307" />
        <Con id="258" src="3" tgt="18" wght="-0.40415199591876649" />
        <Con id="270" src="10" tgt="19" wght="-2.2101114318342052" />
        <Con id="282" src="2" tgt="25" wght="2.6082143094390631" />
        <Con id="294" src="7" tgt="20" wght="3.4044846609295978" />
        <Con id="300" src="12" tgt="19" wght="-0.58075198575282838" />
        <Con id="301" src="1" tgt="23" wght="3.5310866319589898" />
        <Con id="305" src="6" tgt="16" wght="2.5366593383243878" />
        <Con id="309" src="3" tgt="23" wght="-1.70899550202153" />
        <Con id="326" src="4" tgt="16" wght="-0.53480322007089853" />
        <Con id="350" src="0" tgt="19" wght="2.2419014486528526" />
        <Con id="438" src="14" tgt="26" wght="-2.3725223680958152" />
      </Connections>
    </Network>
    <Network id="6707" birthGen="83" fitness="2.375">
      <Nodes>
        <Node type="bias" id="0" />
        <Node type="in" id="1" />
        <Node type="in" id="2" />
        <Node type="in" id="3" />
        <Node type="in" id="4" />
        <Node type="in" id="5" />
        <Node type="in" id="6" />
        <Node type="in" id="7" />
        <Node type="in" id="8" />
        <Node type="in" id="9" />
        <Node type="in" id="10" />
        <Node type="in" id="11" />
        <Node type="in" id="12" />
        <Node type="in" id="13" />
        <Node type="in" id="14" />
        <Node type="out" id="15" />
        <Node type="out" id="16" />
        <Node type="out" id="17" />
        <Node type="out" id="18" />
        <Node type="out" id="19" />
        <Node type="out" id="20" />
        <Node type="out" id="21" />
        <Node type="out" id="22" />
        <Node type="out" id="23" />
        <Node type="out" id="24" />
        <Node type="out" id="25" />
        <Node type="out" id="26" />
        <Node type="out" id="27" />
      </Nodes>
      <Connections>
        <Con id="28" src="0" tgt="15" wght="-0.4995186003109805" />
        <Con id="29" src="0" tgt="16" wght="4.43645336255809" />
        <Con id="34" src="0" tgt="21" wght="1.5615618906055233" />
        <Con id="37" src="0" tgt="24" wght="-0.27666584271606065" />
        <Con id="38" src="0" tgt="25" wght="0.62574713002400928" />
        <Con id="51" src="1" tgt="25" wght="0.35978509363913042" />
        <Con id="58" src="2" tgt="19" wght="4.6417050989339179" />
        <Con id="106" src="6" tgt="15" wght="-1.8649768363016537" />
        <Con id="130" src="7" tgt="26" wght="-4.8626987574684257" />
        <Con id="138" src="8" tgt="21" wght="4.6600224050016772" />
        <Con id="145" src="9" tgt="15" wght="1.6013463338229921" />
        <Con id="161" src="10" tgt="18" wght="-1.0141192516917581" />
        <Con id="177" src="11" tgt="21" wght="-3.4956321226714628" />
        <Con id="181" src="11" tgt="25" wght="-3.8987805943842355" />
        <Con id="185" src="12" tgt="16" wght="1.3402103855526606" />
        <Con id="193" src="12" tgt="24" wght="-0.46338547737812752" />
        <Con id="196" src="12" tgt="27" wght="3.3781908555162605" />
        <Con id="203" src="13" tgt="21" wght="-3.909457353875041" />
        <Con id="204" src="13" tgt="22" wght="-1.6543770515381719" />
        <Con id="210" src="14" tgt="15" wght="-3.6278353847041669" />
        <Con id="225" src="5" tgt="26" wght="0.24558127765715287" />
        <Con id="249" src="5" tgt="15" wght="-0.051238129803107046" />
        <Con id="258" src="3" tgt="18" wght="-1.4457434302599836" />
        <Con id="270" src="10" tgt="19" wght="-4.47278496291136" />
        <Con id="282" src="2" tgt="25" wght="2.0789094849695195" />
        <Con id="294" src="7" tgt="20" wght="3.0331171028665969" />
        <Con id="300" src="12" tgt="19" wght="0.40416513103991747" />
        <Con id="301" src="1" tgt="23" wght="3.5313501552799753" />
        <Con id="305" src="6" tgt="16" wght="-0.37526372704614341" />
        <Con id="309" src="3" tgt="23" wght="-1.7059052706294393" />
        <Con id="326" src="4" tgt="16" wght="-0.53480322007089853" />
        <Con id="342" src="10" tgt="23" wght="1.5311420476064086" />
        <Con id="350" src="0" tgt="19" wght="2.7670018558528846" />
        <Con id="351" src="11" tgt="24" wght="-1.9993735822311927" />
      </Connections>
    </Network>
    <Network id="6713" birthGen="83" fitness="3">
      <Nodes>
        <Node type="bias" id="0" />
        <Node type="in" id="1" />
        <Node type="in" id="2" />
        <Node type="in" id="3" />
        <Node type="in" id="4" />
        <Node type="in" id="5" />
        <Node type="in" id="6" />
        <Node type="in" id="7" />
        <Node type="in" id="8" />
        <Node type="in" id="9" />
        <Node type="in" id="10" />
        <Node type="in" id="11" />
        <Node type="in" id="12" />
        <Node type="in" id="13" />
        <Node type="in" id="14" />
        <Node type="out" id="15" />
        <Node type="out" id="16" />
        <Node type="out" id="17" />
        <Node type="out" id="18" />
        <Node type="out" id="19" />
        <Node type="out" id="20" />
        <Node type="out" id="21" />
        <Node type="out" id="22" />
        <Node type="out" id="23" />
        <Node type="out" id="24" />
        <Node type="out" id="25" />
        <Node type="out" id="26" />
        <Node type="out" id="27" />
      </Nodes>
      <Connections>
        <Con id="28" src="0" tgt="15" wght="-0.4995186003109805" />
        <Con id="29" src="0" tgt="16" wght="4.43645336255809" />
        <Con id="34" src="0" tgt="21" wght="1.5615618906055233" />
        <Con id="37" src="0" tgt="24" wght="-0.27666584271606065" />
        <Con id="38" src="0" tgt="25" wght="0.62574713002400928" />
        <Con id="51" src="1" tgt="25" wght="-0.14993603434636715" />
        <Con id="58" src="2" tgt="19" wght="4.6417050989339179" />
        <Con id="106" src="6" tgt="15" wght="-1.8649768363016537" />
        <Con id="130" src="7" tgt="26" wght="-4.8626987574684257" />
        <Con id="138" src="8" tgt="21" wght="4.6600224050016772" />
        <Con id="145" src="9" tgt="15" wght="1.607503651130566" />
        <Con id="161" src="10" tgt="18" wght="-1.0141192516917581" />
        <Con id="177" src="11" tgt="21" wght="-3.4956321226714628" />
        <Con id="181" src="11" tgt="25" wght="-3.8987805943842355" />
        <Con id="185" src="12" tgt="16" wght="1.3402103855526606" />
        <Con id="193" src="12" tgt="24" wght="-0.46338547737812752" />
        <Con id="196" src="12" tgt="27" wght="3.3781908555162605" />
        <Con id="203" src="13" tgt="21" wght="-3.909457353875041" />
        <Con id="204" src="13" tgt="22" wght="-1.6543770515381719" />
        <Con id="210" src="14" tgt="15" wght="-3.6370731105065528" />
        <Con id="225" src="5" tgt="26" wght="1.7413650523285666" />
        <Con id="249" src="5" tgt="15" wght="-0.051238129803107046" />
        <Con id="258" src="3" tgt="18" wght="-1.4457434302599836" />
        <Con id="270" src="10" tgt="19" wght="-4.47278496291136" />
        <Con id="282" src="2" tgt="25" wght="2.0789094849695195" />
        <Con id="294" src="7" tgt="20" wght="3.0331171028665969" />
        <Con id="300" src="12" tgt="19" wght="0.40416513103991747" />
        <Con id="301" src="1" tgt="23" wght="3.5313501552799753" />
        <Con id="305" src="6" tgt="16" wght="-0.37526372704614341" />
        <Con id="309" src="3" tgt="23" wght="-1.7059052706294393" />
        <Con id="326" src="4" tgt="16" wght="-0.53480322007089853" />
        <Con id="342" src="10" tgt="23" wght="1.5311420476064086" />
        <Con id="350" src="0" tgt="19" wght="2.7670018558528846" />
        <Con id="351" src="11" tgt="24" wght="-1.9993735822311927" />
      </Connections>
    </Network>
    <Network id="6675" birthGen="82" fitness="3.125">
      <Nodes>
        <Node type="bias" id="0" />
        <Node type="in" id="1" />
        <Node type="in" id="2" />
        <Node type="in" id="3" />
        <Node type="in" id="4" />
        <Node type="in" id="5" />
        <Node type="in" id="6" />
        <Node type="in" id="7" />
        <Node type="in" id="8" />
        <Node type="in" id="9" />
        <Node type="in" id="10" />
        <Node type="in" id="11" />
        <Node type="in" id="12" />
        <Node type="in" id="13" />
        <Node type="in" id="14" />
        <Node type="out" id="15" />
        <Node type="out" id="16" />
        <Node type="out" id="17" />
        <Node type="out" id="18" />
        <Node type="out" id="19" />
        <Node type="out" id="20" />
        <Node type="out" id="21" />
        <Node type="out" id="22" />
        <Node type="out" id="23" />
        <Node type="out" id="24" />
        <Node type="out" id="25" />
        <Node type="out" id="26" />
        <Node type="out" id="27" />
      </Nodes>
      <Connections>
        <Con id="28" src="0" tgt="15" wght="-2.1323103759536552" />
        <Con id="29" src="0" tgt="16" wght="1.496860976330936" />
        <Con id="34" src="0" tgt="21" wght="1.3085559565379932" />
        <Con id="37" src="0" tgt="24" wght="-0.308663717819933" />
        <Con id="38" src="0" tgt="25" wght="0.60686438789162545" />
        <Con id="51" src="1" tgt="25" wght="1.8337161857049851" />
        <Con id="58" src="2" tgt="19" wght="4.6213634124742482" />
        <Con id="106" src="6" tgt="15" wght="3.1093033897260955" />
        <Con id="130" src="7" tgt="26" wght="-2.8237270843237638" />
        <Con id="138" src="8" tgt="21" wght="4.3113834375871134" />
        <Con id="145" src="9" tgt="15" wght="1.6013463338229921" />
        <Con id="161" src="10" tgt="18" wght="-0.089835946153013629" />
        <Con id="177" src="11" tgt="21" wght="-1.4935891637516969" />
        <Con id="181" src="11" tgt="25" wght="-3.5371806567600208" />
        <Con id="185" src="12" tgt="16" wght="1.4381336303689545" />
        <Con id="193" src="12" tgt="24" wght="-1.5542933716034559" />
        <Con id="196" src="12" tgt="27" wght="3.3381234481930733" />
        <Con id="203" src="13" tgt="21" wght="-0.49042929196889573" />
        <Con id="204" src="13" tgt="22" wght="-0.975513853970818" />
        <Con id="210" src="14" tgt="15" wght="3.7855889366098276" />
        <Con id="225" src="5" tgt="26" wght="-1.5969254402443767" />
        <Con id="249" src="5" tgt="15" wght="2.4816066753765851" />
        <Con id="258" src="3" tgt="18" wght="0.49212656467794041" />
        <Con id="270" src="10" tgt="19" wght="-4.60763373581349" />
        <Con id="282" src="2" tgt="25" wght="2.6082143094390631" />
        <Con id="294" src="7" tgt="20" wght="3.0220569203890562" />
        <Con id="300" src="12" tgt="19" wght="0.56711034990104769" />
        <Con id="301" src="1" tgt="23" wght="3.531387132064626" />
        <Con id="305" src="6" tgt="16" wght="-1.0248703108696691" />
        <Con id="309" src="3" tgt="23" wght="-1.7059052706294393" />
        <Con id="326" src="4" tgt="16" wght="0.38880009939947568" />
        <Con id="416" src="8" tgt="22" wght="4.1569569986313581" />
      </Connections>
    </Network>
    <Network id="6717" birthGen="83" fitness="0.59375">
      <Nodes>
        <Node type="bias" id="0" />
        <Node type="in" id="1" />
        <Node type="in" id="2" />
        <Node type="in" id="3" />
        <Node type="in" id="4" />
        <Node type="in" id="5" />
        <Node type="in" id="6" />
        <Node type="in" id="7" />
        <Node type="in" id="8" />
        <Node type="in" id="9" />
        <Node type="in" id="10" />
        <Node type="in" id="11" />
        <Node type="in" id="12" />
        <Node type="in" id="13" />
        <Node type="in" id="14" />
        <Node type="out" id="15" />
        <Node type="out" id="16" />
        <Node type="out" id="17" />
        <Node type="out" id="18" />
        <Node type="out" id="19" />
        <Node type="out" id="20" />
        <Node type="out" id="21" />
        <Node type="out" id="22" />
        <Node type="out" id="23" />
        <Node type="out" id="24" />
        <Node type="out" id="25" />
        <Node type="out" id="26" />
        <Node type="out" id="27" />
      </Nodes>
      <Connections>
        <Con id="28" src="0" tgt="15" wght="-3.7820343302643828" />
        <Con id="37" src="0" tgt="24" wght="-1.9255662946894054" />
        <Con id="58" src="2" tgt="19" wght="-2.1770295396757353" />
        <Con id="106" src="6" tgt="15" wght="-2.2648192512369789" />
        <Con id="145" src="9" tgt="15" wght="2.0771468989071247" />
        <Con id="161" src="10" tgt="18" wght="-0.29295469161966237" />
        <Con id="177" src="11" tgt="21" wght="0.58014773528256192" />
        <Con id="181" src="11" tgt="25" wght="-3.8025847107579276" />
        <Con id="185" src="12" tgt="16" wght="2.0872817578165055" />
        <Con id="204" src="13" tgt="22" wght="1.335523289817468" />
        <Con id="242" src="5" tgt="19" wght="-1.0953037584764171" />
        <Con id="249" src="5" tgt="15" wght="4.8312447080388665" />
        <Con id="270" src="10" tgt="19" wght="-4.9739318695712473" />
        <Con id="315" src="7" tgt="16" wght="-0.98798342049121857" />
        <Con id="328" src="0" tgt="22" wght="-3.360707397023674" />
        <Con id="414" src="6" tgt="26" wght="1.5402119364168005" />
      </Connections>
    </Network>
    <Network id="6734" birthGen="83" fitness="3.125">
      <Nodes>
        <Node type="bias" id="0" />
        <Node type="in" id="1" />
        <Node type="in" id="2" />
        <Node type="in" id="3" />
        <Node type="in" id="4" />
        <Node type="in" id="5" />
        <Node type="in" id="6" />
        <Node type="in" id="7" />
        <Node type="in" id="8" />
        <Node type="in" id="9" />
        <Node type="in" id="10" />
        <Node type="in" id="11" />
        <Node type="in" id="12" />
        <Node type="in" id="13" />
        <Node type="in" id="14" />
        <Node type="out" id="15" />
        <Node type="out" id="16" />
        <Node type="out" id="17" />
        <Node type="out" id="18" />
        <Node type="out" id="19" />
        <Node type="out" id="20" />
        <Node type="out" id="21" />
        <Node type="out" id="22" />
        <Node type="out" id="23" />
        <Node type="out" id="24" />
        <Node type="out" id="25" />
        <Node type="out" id="26" />
        <Node type="out" id="27" />
        <Node type="hid" id="447" />
      </Nodes>
      <Connections>
        <Con id="28" src="0" tgt="15" wght="-0.33485287025232413" />
        <Con id="29" src="0" tgt="16" wght="4.43645336255809" />
        <Con id="34" src="0" tgt="21" wght="1.5690479241303754" />
        <Con id="37" src="0" tgt="24" wght="0.49490001780699711" />
        <Con id="38" src="0" tgt="25" wght="0.63505478302491092" />
        <Con id="51" src="1" tgt="25" wght="-0.75473204745908129" />
        <Con id="58" src="2" tgt="19" wght="4.6168034455153908" />
        <Con id="106" src="6" tgt="15" wght="4.9005263205617666" />
        <Con id="130" src="7" tgt="26" wght="-1.0119626997038722" />
        <Con id="138" src="8" tgt="21" wght="4.6906002443308674" />
        <Con id="145" src="9" tgt="15" wght="2.9210591557621473" />
        <Con id="161" src="10" tgt="18" wght="0.12618536610934739" />
        <Con id="177" src="11" tgt="21" wght="-2.323266667903177" />
        <Con id="181" src="11" tgt="25" wght="-4.1280091824406684" />
        <Con id="185" src="12" tgt="16" wght="1.3125359389435469" />
        <Con id="193" src="12" tgt="24" wght="-0.47677262743047588" />
        <Con id="196" src="12" tgt="27" wght="3.3781908555162605" />
        <Con id="203" src="13" tgt="21" wght="-0.47424227895430809" />
        <Con id="204" src="13" tgt="22" wght="-2.810195886547572" />
        <Con id="210" src="14" tgt="15" wght="3.6663098042368341" />
        <Con id="225" src="5" tgt="26" wght="-1.7687883367360184" />
        <Con id="249" src="5" tgt="15" wght="1.2569986401363902" />
        <Con id="258" src="3" tgt="18" wght="1.5133978049013856" />
        <Con id="270" src="10" tgt="19" wght="-4.4372340912062338" />
        <Con id="277" src="11" tgt="26" wght="-1.3257196010153205" />
        <Con id="282" src="2" tgt="25" wght="2.1733429233333972" />
        <Con id="294" src="7" tgt="20" wght="3.0331171028665969" />
        <Con id="300" src="12" tgt="19" wght="0.42250932905359817" />
        <Con id="301" src="1" tgt="23" wght="3.4896094392439685" />
        <Con id="305" src="6" tgt="16" wght="3.0154641733350247" />
        <Con id="309" src="3" tgt="23" wght="0.059139714576303959" />
        <Con id="327" src="8" tgt="19" wght="-3.0272102309390903" />
        <Con id="350" src="0" tgt="19" wght="2.7670018558528846" />
        <Con id="354" src="0" tgt="20" wght="-2.0238393545150757" />
        <Con id="448" src="4" tgt="447" wght="-0.53480322007089853" />
        <Con id="449" src="447" tgt="16" wght="5" />
        <Con id="463" src="9" tgt="25" wght="2.9287059418857098" />
      </Connections>
    </Network>
    <Network id="6720" birthGen="83" fitness="2.375">
      <Nodes>
        <Node type="bias" id="0" />
        <Node type="in" id="1" />
        <Node type="in" id="2" />
        <Node type="in" id="3" />
        <Node type="in" id="4" />
        <Node type="in" id="5" />
        <Node type="in" id="6" />
        <Node type="in" id="7" />
        <Node type="in" id="8" />
        <Node type="in" id="9" />
        <Node type="in" id="10" />
        <Node type="in" id="11" />
        <Node type="in" id="12" />
        <Node type="in" id="13" />
        <Node type="in" id="14" />
        <Node type="out" id="15" />
        <Node type="out" id="16" />
        <Node type="out" id="17" />
        <Node type="out" id="18" />
        <Node type="out" id="19" />
        <Node type="out" id="20" />
        <Node type="out" id="21" />
        <Node type="out" id="22" />
        <Node type="out" id="23" />
        <Node type="out" id="24" />
        <Node type="out" id="25" />
        <Node type="out" id="26" />
        <Node type="out" id="27" />
        <Node type="hid" id="429" />
      </Nodes>
      <Connections>
        <Con id="28" src="0" tgt="15" wght="-0.31391885206223713" />
        <Con id="34" src="0" tgt="21" wght="1.5615618906055233" />
        <Con id="37" src="0" tgt="24" wght="-3.3798632072284818" />
        <Con id="38" src="0" tgt="25" wght="0.63560009586360422" />
        <Con id="51" src="1" tgt="25" wght="-0.35404375914828656" />
        <Con id="58" src="2" tgt="19" wght="4.6296497108414769" />
        <Con id="106" src="6" tgt="15" wght="4.9005263205617666" />
        <Con id="130" src="7" tgt="26" wght="-4.9005474760880086" />
        <Con id="138" src="8" tgt="21" wght="-4.0958976419642568" />
        <Con id="145" src="9" tgt="15" wght="3.0205572874519682" />
        <Con id="161" src="10" tgt="18" wght="0.15306647627946324" />
        <Con id="177" src="11" tgt="21" wght="-2.324174605606069" />
        <Con id="181" src="11" tgt="25" wght="-3.8244078881136669" />
        <Con id="185" src="12" tgt="16" wght="1.3042492737358806" />
        <Con id="193" src="12" tgt="24" wght="-0.46364599768572307" />
        <Con id="196" src="12" tgt="27" wght="3.3781908555162605" />
        <Con id="203" src="13" tgt="21" wght="-0.47424227895430809" />
        <Con id="204" src="13" tgt="22" wght="-2.5938616013065" />
        <Con id="210" src="14" tgt="15" wght="3.6663098042368341" />
        <Con id="225" src="5" tgt="26" wght="1.7413650523285666" />
        <Con id="238" src="6" tgt="23" wght="-4.3190513737499714" />
        <Con id="249" src="5" tgt="15" wght="1.2545349537811115" />
        <Con id="258" src="3" tgt="18" wght="-2.3420730419456959" />
        <Con id="270" src="10" tgt="19" wght="-5" />
        <Con id="277" src="11" tgt="26" wght="-1.3017195270428557" />
        <Con id="282" src="2" tgt="25" wght="2.1733429233333972" />
        <Con id="294" src="7" tgt="20" wght="3.0331171028665969" />
        <Con id="300" src="12" tgt="19" wght="0.40416513103991747" />
        <Con id="301" src="1" tgt="23" wght="3.4586983449420221" />
        <Con id="305" src="6" tgt="16" wght="3.0154641733350247" />
        <Con id="309" src="3" tgt="23" wght="-1.7073621595031878" />
        <Con id="326" src="4" tgt="16" wght="-0.53480322007089853" />
        <Con id="350" src="0" tgt="19" wght="2.7670018558528846" />
        <Con id="430" src="0" tgt="429" wght="4.43645336255809" />
        <Con id="431" src="429" tgt="16" wght="5" />
      </Connections>
    </Network>
    <Network id="6728" birthGen="83" fitness="3.875">
      <Nodes>
        <Node type="bias" id="0" />
        <Node type="in" id="1" />
        <Node type="in" id="2" />
        <Node type="in" id="3" />
        <Node type="in" id="4" />
        <Node type="in" id="5" />
        <Node type="in" id="6" />
        <Node type="in" id="7" />
        <Node type="in" id="8" />
        <Node type="in" id="9" />
        <Node type="in" id="10" />
        <Node type="in" id="11" />
        <Node type="in" id="12" />
        <Node type="in" id="13" />
        <Node type="in" id="14" />
        <Node type="out" id="15" />
        <Node type="out" id="16" />
        <Node type="out" id="17" />
        <Node type="out" id="18" />
        <Node type="out" id="19" />
        <Node type="out" id="20" />
        <Node type="out" id="21" />
        <Node type="out" id="22" />
        <Node type="out" id="23" />
        <Node type="out" id="24" />
        <Node type="out" id="25" />
        <Node type="out" id="26" />
        <Node type="out" id="27" />
        <Node type="hid" id="429" />
      </Nodes>
      <Connections>
        <Con id="28" src="0" tgt="15" wght="0.27742701859807706" />
        <Con id="34" src="0" tgt="21" wght="1.5615618906055233" />
        <Con id="37" src="0" tgt="24" wght="-0.17132283352159194" />
        <Con id="38" src="0" tgt="25" wght="-1.1991648841649294" />
        <Con id="51" src="1" tgt="25" wght="-0.35404375914828656" />
        <Con id="58" src="2" tgt="19" wght="2.2432816366694284" />
        <Con id="106" src="6" tgt="15" wght="4.9005263205617666" />
        <Con id="130" src="7" tgt="26" wght="3.1867301151645027" />
        <Con id="138" src="8" tgt="21" wght="5" />
        <Con id="145" src="9" tgt="15" wght="1.0122540342555442" />
        <Con id="161" src="10" tgt="18" wght="0.12618536610934739" />
        <Con id="177" src="11" tgt="21" wght="-2.3302767668930056" />
        <Con id="181" src="11" tgt="25" wght="-2.398921218043184" />
        <Con id="185" src="12" tgt="16" wght="1.3125359389435469" />
        <Con id="193" src="12" tgt="24" wght="0.12473182752728462" />
        <Con id="196" src="12" tgt="27" wght="3.3781908555162605" />
        <Con id="203" src="13" tgt="21" wght="-0.47424227895430809" />
        <Con id="204" src="13" tgt="22" wght="-2.5938616013065" />
        <Con id="210" src="14" tgt="15" wght="3.6663098042368341" />
        <Con id="225" src="5" tgt="26" wght="1.7413650523285666" />
        <Con id="249" src="5" tgt="15" wght="1.2467386620119214" />
        <Con id="258" src="3" tgt="18" wght="1.647351343422869" />
        <Con id="270" src="10" tgt="19" wght="-5" />
        <Con id="277" src="11" tgt="26" wght="-1.3062063176786225" />
        <Con id="282" src="2" tgt="25" wght="2.1733429233333972" />
        <Con id="294" src="7" tgt="20" wght="2.9844314320356813" />
        <Con id="300" src="12" tgt="19" wght="-0.024205126902561769" />
        <Con id="301" src="1" tgt="23" wght="4.2807580287311433" />
        <Con id="305" src="6" tgt="16" wght="3.005825986407356" />
        <Con id="309" src="3" tgt="23" wght="-1.6975229279591093" />
        <Con id="326" src="4" tgt="16" wght="0.93273933418560762" />
        <Con id="350" src="0" tgt="19" wght="2.7670018558528846" />
        <Con id="430" src="0" tgt="429" wght="4.43645336255809" />
        <Con id="431" src="429" tgt="16" wght="5" />
      </Connections>
    </Network>
    <Network id="6719" birthGen="83" fitness="2.625">
      <Nodes>
        <Node type="bias" id="0" />
        <Node type="in" id="1" />
        <Node type="in" id="2" />
        <Node type="in" id="3" />
        <Node type="in" id="4" />
        <Node type="in" id="5" />
        <Node type="in" id="6" />
        <Node type="in" id="7" />
        <Node type="in" id="8" />
        <Node type="in" id="9" />
        <Node type="in" id="10" />
        <Node type="in" id="11" />
        <Node type="in" id="12" />
        <Node type="in" id="13" />
        <Node type="in" id="14" />
        <Node type="out" id="15" />
        <Node type="out" id="16" />
        <Node type="out" id="17" />
        <Node type="out" id="18" />
        <Node type="out" id="19" />
        <Node type="out" id="20" />
        <Node type="out" id="21" />
        <Node type="out" id="22" />
        <Node type="out" id="23" />
        <Node type="out" id="24" />
        <Node type="out" id="25" />
        <Node type="out" id="26" />
        <Node type="out" id="27" />
        <Node type="hid" id="429" />
      </Nodes>
      <Connections>
        <Con id="28" src="0" tgt="15" wght="-0.33485287025232413" />
        <Con id="34" src="0" tgt="21" wght="1.5615618906055233" />
        <Con id="37" src="0" tgt="24" wght="-3.3798632072284818" />
        <Con id="38" src="0" tgt="25" wght="0.63560009586360422" />
        <Con id="51" src="1" tgt="25" wght="-0.35404375914828656" />
        <Con id="58" src="2" tgt="19" wght="4.6296497108414769" />
        <Con id="106" src="6" tgt="15" wght="4.9005263205617666" />
        <Con id="130" src="7" tgt="26" wght="-4.9005474760880086" />
        <Con id="138" src="8" tgt="21" wght="-4.0958976419642568" />
        <Con id="145" src="9" tgt="15" wght="3.0205572874519682" />
        <Con id="161" src="10" tgt="18" wght="0.15306647627946324" />
        <Con id="177" src="11" tgt="21" wght="-2.3444334417581558" />
        <Con id="181" src="11" tgt="25" wght="-3.8244078881136669" />
        <Con id="185" src="12" tgt="16" wght="1.3042492737358806" />
        <Con id="193" src="12" tgt="24" wght="-0.46338547737812752" />
        <Con id="196" src="12" tgt="27" wght="3.3781908555162605" />
        <Con id="203" src="13" tgt="21" wght="-0.47424227895430809" />
        <Con id="204" src="13" tgt="22" wght="-2.5938616013065" />
        <Con id="210" src="14" tgt="15" wght="3.6663098042368341" />
        <Con id="225" src="5" tgt="26" wght="1.7413650523285666" />
        <Con id="238" src="6" tgt="23" wght="-4.3190513737499714" />
        <Con id="249" src="5" tgt="15" wght="1.2545349537811115" />
        <Con id="258" src="3" tgt="18" wght="-2.3420730419456959" />
        <Con id="270" src="10" tgt="19" wght="-5" />
        <Con id="277" src="11" tgt="26" wght="-1.3017195270428557" />
        <Con id="282" src="2" tgt="25" wght="2.1733429233333972" />
        <Con id="294" src="7" tgt="20" wght="3.0331171028665969" />
        <Con id="300" src="12" tgt="19" wght="0.40416513103991747" />
        <Con id="301" src="1" tgt="23" wght="3.4586983449420221" />
        <Con id="305" src="6" tgt="16" wght="3.0154641733350247" />
        <Con id="309" src="3" tgt="23" wght="-1.7073621595031878" />
        <Con id="326" src="4" tgt="16" wght="3.0987314926460385" />
        <Con id="350" src="0" tgt="19" wght="2.7670018558528846" />
        <Con id="430" src="0" tgt="429" wght="4.43645336255809" />
        <Con id="431" src="429" tgt="16" wght="5" />
      </Connections>
    </Network>
    <Network id="6678" birthGen="82" fitness="5.123046875">
      <Nodes>
        <Node type="bias" id="0" />
        <Node type="in" id="1" />
        <Node type="in" id="2" />
        <Node type="in" id="3" />
        <Node type="in" id="4" />
        <Node type="in" id="5" />
        <Node type="in" id="6" />
        <Node type="in" id="7" />
        <Node type="in" id="8" />
        <Node type="in" id="9" />
        <Node type="in" id="10" />
        <Node type="in" id="11" />
        <Node type="in" id="12" />
        <Node type="in" id="13" />
        <Node type="in" id="14" />
        <Node type="out" id="15" />
        <Node type="out" id="16" />
        <Node type="out" id="17" />
        <Node type="out" id="18" />
        <Node type="out" id="19" />
        <Node type="out" id="20" />
        <Node type="out" id="21" />
        <Node type="out" id="22" />
        <Node type="out" id="23" />
        <Node type="out" id="24" />
        <Node type="out" id="25" />
        <Node type="out" id="26" />
        <Node type="out" id="27" />
      </Nodes>
      <Connections>
        <Con id="28" src="0" tgt="15" wght="-1.889092534399736" />
        <Con id="29" src="0" tgt="16" wght="4.43645336255809" />
        <Con id="34" src="0" tgt="21" wght="2.65885055673921" />
        <Con id="37" src="0" tgt="24" wght="1.5107350938262738" />
        <Con id="38" src="0" tgt="25" wght="0.63456670633600831" />
        <Con id="51" src="1" tgt="25" wght="-0.35404375914828656" />
        <Con id="58" src="2" tgt="19" wght="5" />
        <Con id="106" src="6" tgt="15" wght="5" />
        <Con id="130" src="7" tgt="26" wght="-4.8523898560365053" />
        <Con id="138" src="8" tgt="21" wght="4.6378738482077972" />
        <Con id="145" src="9" tgt="15" wght="1.6013463338229921" />
        <Con id="161" src="10" tgt="18" wght="0.17960944562269621" />
        <Con id="177" src="11" tgt="21" wght="3.0673866164406092" />
        <Con id="181" src="11" tgt="25" wght="-3.2104253741076496" />
        <Con id="185" src="12" tgt="16" wght="0.76806363004032074" />
        <Con id="193" src="12" tgt="24" wght="-0.46598060230422811" />
        <Con id="196" src="12" tgt="27" wght="3.4325974374025754" />
        <Con id="203" src="13" tgt="21" wght="-0.48230617894412436" />
        <Con id="204" src="13" tgt="22" wght="-1.6673907086405524" />
        <Con id="210" src="14" tgt="15" wght="3.6317544318244459" />
        <Con id="225" src="5" tgt="26" wght="1.6134886750149626" />
        <Con id="233" src="6" tgt="18" wght="2.247829216537701" />
        <Con id="249" src="5" tgt="15" wght="0.066424231933843988" />
        <Con id="258" src="3" tgt="18" wght="-4.8433098383247852" />
        <Con id="270" src="10" tgt="19" wght="-2.2101114318342052" />
        <Con id="282" src="2" tgt="25" wght="2.6082143094390631" />
        <Con id="294" src="7" tgt="20" wght="3.0313434783809994" />
        <Con id="300" src="12" tgt="19" wght="0.40416513103991747" />
        <Con id="301" src="1" tgt="23" wght="3.5313501552799753" />
        <Con id="305" src="6" tgt="16" wght="4.4794888747856021" />
        <Con id="309" src="3" tgt="23" wght="-1.6873730891410517" />
        <Con id="326" src="4" tgt="16" wght="-2.5285252649337053" />
        <Con id="350" src="0" tgt="19" wght="2.6209992792533878" />
        <Con id="355" src="5" tgt="22" wght="-0.59725305531173944" />
      </Connections>
    </Network>
    <Network id="6685" birthGen="82" fitness="3.749755859375">
      <Nodes>
        <Node type="bias" id="0" />
        <Node type="in" id="1" />
        <Node type="in" id="2" />
        <Node type="in" id="3" />
        <Node type="in" id="4" />
        <Node type="in" id="5" />
        <Node type="in" id="6" />
        <Node type="in" id="7" />
        <Node type="in" id="8" />
        <Node type="in" id="9" />
        <Node type="in" id="10" />
        <Node type="in" id="11" />
        <Node type="in" id="12" />
        <Node type="in" id="13" />
        <Node type="in" id="14" />
        <Node type="out" id="15" />
        <Node type="out" id="16" />
        <Node type="out" id="17" />
        <Node type="out" id="18" />
        <Node type="out" id="19" />
        <Node type="out" id="20" />
        <Node type="out" id="21" />
        <Node type="out" id="22" />
        <Node type="out" id="23" />
        <Node type="out" id="24" />
        <Node type="out" id="25" />
        <Node type="out" id="26" />
        <Node type="out" id="27" />
      </Nodes>
      <Connections>
        <Con id="28" src="0" tgt="15" wght="-0.76042695724645" />
        <Con id="29" src="0" tgt="16" wght="5" />
        <Con id="34" src="0" tgt="21" wght="3.9655507456042742" />
        <Con id="37" src="0" tgt="24" wght="0.80254116359403638" />
        <Con id="38" src="0" tgt="25" wght="0.61996680883682054" />
        <Con id="51" src="1" tgt="25" wght="-0.33718614519341744" />
        <Con id="58" src="2" tgt="19" wght="5" />
        <Con id="106" src="6" tgt="15" wght="5" />
        <Con id="130" src="7" tgt="26" wght="-4.8626987574684257" />
        <Con id="138" src="8" tgt="21" wght="4.6906002443308674" />
        <Con id="145" src="9" tgt="15" wght="0.87877827581902945" />
        <Con id="161" src="10" tgt="18" wght="2.0954780877524244" />
        <Con id="177" src="11" tgt="21" wght="-1.7724064416740966" />
        <Con id="181" src="11" tgt="25" wght="-3.8378188019124826" />
        <Con id="185" src="12" tgt="16" wght="1.3125359389435469" />
        <Con id="193" src="12" tgt="24" wght="-4.8094468051567674" />
        <Con id="196" src="12" tgt="27" wght="3.4059237738175696" />
        <Con id="203" src="13" tgt="21" wght="-0.49765240762599672" />
        <Con id="204" src="13" tgt="22" wght="-2.0836821925454641" />
        <Con id="210" src="14" tgt="15" wght="-2.8244285052642226" />
        <Con id="225" src="5" tgt="26" wght="-3.1744530051084512" />
        <Con id="249" src="5" tgt="15" wght="1.2467386620119214" />
        <Con id="258" src="3" tgt="18" wght="1.208023697364315" />
        <Con id="270" src="10" tgt="19" wght="-2.2101114318342052" />
        <Con id="282" src="2" tgt="25" wght="2.5763069803336189" />
        <Con id="294" src="7" tgt="20" wght="3.4044846609295978" />
        <Con id="300" src="12" tgt="19" wght="0.40416513103991747" />
        <Con id="301" src="1" tgt="23" wght="3.5310866319589898" />
        <Con id="305" src="6" tgt="16" wght="2.5366593383243878" />
        <Con id="309" src="3" tgt="23" wght="-1.696819765830097" />
        <Con id="326" src="4" tgt="16" wght="0.54047495034152626" />
        <Con id="350" src="0" tgt="19" wght="2.7670018558528846" />
      </Connections>
    </Network>
    <Network id="6690" birthGen="82" fitness="3.49993896484375">
      <Nodes>
        <Node type="bias" id="0" />
        <Node type="in" id="1" />
        <Node type="in" id="2" />
        <Node type="in" id="3" />
        <Node type="in" id="4" />
        <Node type="in" id="5" />
        <Node type="in" id="6" />
        <Node type="in" id="7" />
        <Node type="in" id="8" />
        <Node type="in" id="9" />
        <Node type="in" id="10" />
        <Node type="in" id="11" />
        <Node type="in" id="12" />
        <Node type="in" id="13" />
        <Node type="in" id="14" />
        <Node type="out" id="15" />
        <Node type="out" id="16" />
        <Node type="out" id="17" />
        <Node type="out" id="18" />
        <Node type="out" id="19" />
        <Node type="out" id="20" />
        <Node type="out" id="21" />
        <Node type="out" id="22" />
        <Node type="out" id="23" />
        <Node type="out" id="24" />
        <Node type="out" id="25" />
        <Node type="out" id="26" />
        <Node type="out" id="27" />
      </Nodes>
      <Connections>
        <Con id="28" src="0" tgt="15" wght="-0.33589884119040248" />
        <Con id="29" src="0" tgt="16" wght="2.2759605842065529" />
        <Con id="34" src="0" tgt="21" wght="-0.30841775755850986" />
        <Con id="37" src="0" tgt="24" wght="-3.0656270492839641" />
        <Con id="38" src="0" tgt="25" wght="0.60466742597779921" />
        <Con id="51" src="1" tgt="25" wght="-1.7414564794447827" />
        <Con id="58" src="2" tgt="19" wght="4.6296497108414769" />
        <Con id="106" src="6" tgt="15" wght="4.9005263205617666" />
        <Con id="130" src="7" tgt="26" wght="-5" />
        <Con id="138" src="8" tgt="21" wght="4.6906002443308674" />
        <Con id="145" src="9" tgt="15" wght="1.6480937886626865" />
        <Con id="161" src="10" tgt="18" wght="0.12618536610934739" />
        <Con id="177" src="11" tgt="21" wght="2.8142848610877991" />
        <Con id="181" src="11" tgt="25" wght="-4.4502195688184205" />
        <Con id="185" src="12" tgt="16" wght="1.3125359389435469" />
        <Con id="193" src="12" tgt="24" wght="0.12553261329366505" />
        <Con id="196" src="12" tgt="27" wght="3.7549156487311031" />
        <Con id="203" src="13" tgt="21" wght="-0.87974825712329063" />
        <Con id="204" src="13" tgt="22" wght="-1.6543770515381719" />
        <Con id="210" src="14" tgt="15" wght="5" />
        <Con id="225" src="5" tgt="26" wght="1.7413650523285666" />
        <Con id="249" src="5" tgt="15" wght="1.2371934852132169" />
        <Con id="258" src="3" tgt="18" wght="0.67358786705881357" />
        <Con id="270" src="10" tgt="19" wght="-0.8594311937928345" />
        <Con id="272" src="0" tgt="23" wght="-1.6889743506908417" />
        <Con id="282" src="2" tgt="25" wght="-0.54426940623670816" />
        <Con id="294" src="7" tgt="20" wght="-4.3839354485589057" />
        <Con id="300" src="12" tgt="19" wght="0.40416513103991747" />
        <Con id="301" src="1" tgt="23" wght="3.748929975554347" />
        <Con id="305" src="6" tgt="16" wght="-0.38542321753975028" />
        <Con id="309" src="3" tgt="23" wght="3.1241407318540748" />
        <Con id="326" src="4" tgt="16" wght="-0.53480322007089853" />
        <Con id="350" src="0" tgt="19" wght="-1.5573327019630918" />
        <Con id="387" src="7" tgt="21" wght="-4.775733140724884" />
        <Con id="432" src="5" tgt="18" wght="4.4385066814720631" />
      </Connections>
    </Network>
    <Network id="6757" birthGen="83" fitness="3.25">
      <Nodes>
        <Node type="bias" id="0" />
        <Node type="in" id="1" />
        <Node type="in" id="2" />
        <Node type="in" id="3" />
        <Node type="in" id="4" />
        <Node type="in" id="5" />
        <Node type="in" id="6" />
        <Node type="in" id="7" />
        <Node type="in" id="8" />
        <Node type="in" id="9" />
        <Node type="in" id="10" />
        <Node type="in" id="11" />
        <Node type="in" id="12" />
        <Node type="in" id="13" />
        <Node type="in" id="14" />
        <Node type="out" id="15" />
        <Node type="out" id="16" />
        <Node type="out" id="17" />
        <Node type="out" id="18" />
        <Node type="out" id="19" />
        <Node type="out" id="20" />
        <Node type="out" id="21" />
        <Node type="out" id="22" />
        <Node type="out" id="23" />
        <Node type="out" id="24" />
        <Node type="out" id="25" />
        <Node type="out" id="26" />
        <Node type="out" id="27" />
      </Nodes>
      <Connections>
        <Con id="28" src="0" tgt="15" wght="-0.33589884119040248" />
        <Con id="29" src="0" tgt="16" wght="2.2945905264100772" />
        <Con id="34" src="0" tgt="21" wght="-0.30841775755850986" />
        <Con id="37" src="0" tgt="24" wght="-3.0736543983221054" />
        <Con id="38" src="0" tgt="25" wght="0.62352193324826821" />
        <Con id="51" src="1" tgt="25" wght="-1.7414564794447827" />
        <Con id="58" src="2" tgt="19" wght="4.6296497108414769" />
        <Con id="106" src="6" tgt="15" wght="4.9005263205617666" />
        <Con id="130" src="7" tgt="26" wght="-5" />
        <Con id="138" src="8" tgt="21" wght="-4.5889294007793069" />
        <Con id="145" src="9" tgt="15" wght="3.9847616385668516" />
        <Con id="161" src="10" tgt="18" wght="0.12618536610934739" />
        <Con id="177" src="11" tgt="21" wght="4.0572693341617772" />
        <Con id="181" src="11" tgt="25" wght="-4.4502195688184205" />
        <Con id="185" src="12" tgt="16" wght="1.3125359389435469" />
        <Con id="193" src="12" tgt="24" wght="0.14507793818858086" />
        <Con id="196" src="12" tgt="27" wght="3.7549156487311031" />
        <Con id="203" src="13" tgt="21" wght="-0.87974825712329063" />
        <Con id="204" src="13" tgt="22" wght="-1.6579828084202097" />
        <Con id="210" src="14" tgt="15" wght="4.5357005491938871" />
        <Con id="225" src="5" tgt="26" wght="1.7413650523285666" />
        <Con id="233" src="6" tgt="18" wght="-1.7107305256649852" />
        <Con id="249" src="5" tgt="15" wght="-0.12415315490216017" />
        <Con id="258" src="3" tgt="18" wght="0.67358786705881357" />
        <Con id="270" src="10" tgt="19" wght="-0.88830800261348486" />
        <Con id="282" src="2" tgt="25" wght="-0.54426940623670816" />
        <Con id="294" src="7" tgt="20" wght="-4.3925716180991508" />
        <Con id="300" src="12" tgt="19" wght="0.39715806146773774" />
        <Con id="301" src="1" tgt="23" wght="3.748929975554347" />
        <Con id="305" src="6" tgt="16" wght="-0.38542321753975028" />
        <Con id="309" src="3" tgt="23" wght="3.1241407318540748" />
        <Con id="326" src="4" tgt="16" wght="-0.53480322007089853" />
        <Con id="350" src="0" tgt="19" wght="-1.5570389126055788" />
        <Con id="387" src="7" tgt="21" wght="3.4982531424611807" />
      </Connections>
    </Network>
    <Network id="6763" birthGen="83" fitness="1.74993896484375">
      <Nodes>
        <Node type="bias" id="0" />
        <Node type="in" id="1" />
        <Node type="in" id="2" />
        <Node type="in" id="3" />
        <Node type="in" id="4" />
        <Node type="in" id="5" />
        <Node type="in" id="6" />
        <Node type="in" id="7" />
        <Node type="in" id="8" />
        <Node type="in" id="9" />
        <Node type="in" id="10" />
        <Node type="in" id="11" />
        <Node type="in" id="12" />
        <Node type="in" id="13" />
        <Node type="in" id="14" />
        <Node type="out" id="15" />
        <Node type="out" id="16" />
        <Node type="out" id="17" />
        <Node type="out" id="18" />
        <Node type="out" id="19" />
        <Node type="out" id="20" />
        <Node type="out" id="21" />
        <Node type="out" id="22" />
        <Node type="out" id="23" />
        <Node type="out" id="24" />
        <Node type="out" id="25" />
        <Node type="out" id="26" />
        <Node type="out" id="27" />
      </Nodes>
      <Connections>
        <Con id="28" src="0" tgt="15" wght="-0.33589884119040248" />
        <Con id="29" src="0" tgt="16" wght="2.2759605842065529" />
        <Con id="34" src="0" tgt="21" wght="-0.30841775755850986" />
        <Con id="37" src="0" tgt="24" wght="-3.0736543983221054" />
        <Con id="38" src="0" tgt="25" wght="0.62352193324826821" />
        <Con id="51" src="1" tgt="25" wght="-1.7414564794447827" />
        <Con id="58" src="2" tgt="19" wght="4.6296497108414769" />
        <Con id="106" src="6" tgt="15" wght="4.9005263205617666" />
        <Con id="130" src="7" tgt="26" wght="-5" />
        <Con id="138" src="8" tgt="21" wght="4.6906002443308674" />
        <Con id="145" src="9" tgt="15" wght="3.9847616385668516" />
        <Con id="161" src="10" tgt="18" wght="0.12618536610934739" />
        <Con id="177" src="11" tgt="21" wght="4.0356949039831242" />
        <Con id="181" src="11" tgt="25" wght="-4.4502195688184205" />
        <Con id="185" src="12" tgt="16" wght="1.3125359389435469" />
        <Con id="193" src="12" tgt="24" wght="0.12553261329366505" />
        <Con id="196" src="12" tgt="27" wght="3.7549156487311031" />
        <Con id="203" src="13" tgt="21" wght="-0.87974825712329063" />
        <Con id="204" src="13" tgt="22" wght="-1.6579828084202097" />
        <Con id="210" src="14" tgt="15" wght="5" />
        <Con id="225" src="5" tgt="26" wght="1.7413650523285666" />
        <Con id="233" src="6" tgt="18" wght="-1.7107305256649852" />
        <Con id="249" src="5" tgt="15" wght="-0.12415315490216017" />
        <Con id="258" src="3" tgt="18" wght="0.67358786705881357" />
        <Con id="270" src="10" tgt="19" wght="-0.88830800261348486" />
        <Con id="282" src="2" tgt="25" wght="-0.54426940623670816" />
        <Con id="294" src="7" tgt="20" wght="-4.3580915292481883" />
        <Con id="300" src="12" tgt="19" wght="0.39715806146773774" />
        <Con id="301" src="1" tgt="23" wght="3.748929975554347" />
        <Con id="305" src="6" tgt="16" wght="-0.38542321753975028" />
        <Con id="309" src="3" tgt="23" wght="3.1241407318540748" />
        <Con id="326" src="4" tgt="16" wght="-0.53480322007089853" />
        <Con id="350" src="0" tgt="19" wght="-1.5570389126055788" />
        <Con id="387" src="7" tgt="21" wght="-4.80519943870604" />
      </Connections>
    </Network>
    <Network id="6758" birthGen="83" fitness="2.14453125">
      <Nodes>
        <Node type="bias" id="0" />
        <Node type="in" id="1" />
        <Node type="in" id="2" />
        <Node type="in" id="3" />
        <Node type="in" id="4" />
        <Node type="in" id="5" />
        <Node type="in" id="6" />
        <Node type="in" id="7" />
        <Node type="in" id="8" />
        <Node type="in" id="9" />
        <Node type="in" id="10" />
        <Node type="in" id="11" />
        <Node type="in" id="12" />
        <Node type="in" id="13" />
        <Node type="in" id="14" />
        <Node type="out" id="15" />
        <Node type="out" id="16" />
        <Node type="out" id="17" />
        <Node type="out" id="18" />
        <Node type="out" id="19" />
        <Node type="out" id="20" />
        <Node type="out" id="21" />
        <Node type="out" id="22" />
        <Node type="out" id="23" />
        <Node type="out" id="24" />
        <Node type="out" id="25" />
        <Node type="out" id="26" />
        <Node type="out" id="27" />
      </Nodes>
      <Connections>
        <Con id="28" src="0" tgt="15" wght="-0.33589884119040248" />
        <Con id="29" src="0" tgt="16" wght="2.2759605842065529" />
        <Con id="34" src="0" tgt="21" wght="-0.30841775755850986" />
        <Con id="37" src="0" tgt="24" wght="-3.0736543983221054" />
        <Con id="38" src="0" tgt="25" wght="0.62352193324826821" />
        <Con id="51" src="1" tgt="25" wght="-1.7414564794447827" />
        <Con id="58" src="2" tgt="19" wght="4.6296497108414769" />
        <Con id="106" src="6" tgt="15" wght="4.9005263205617666" />
        <Con id="130" src="7" tgt="26" wght="-5" />
        <Con id="138" src="8" tgt="21" wght="4.6906002443308674" />
        <Con id="145" src="9" tgt="15" wght="3.9847616385668516" />
        <Con id="161" src="10" tgt="18" wght="0.12618536610934739" />
        <Con id="177" src="11" tgt="21" wght="4.0356949039831242" />
        <Con id="181" src="11" tgt="25" wght="-4.4502195688184205" />
        <Con id="185" src="12" tgt="16" wght="1.3125359389435469" />
        <Con id="193" src="12" tgt="24" wght="0.12553261329366505" />
        <Con id="196" src="12" tgt="27" wght="3.7549156487311031" />
        <Con id="203" src="13" tgt="21" wght="-0.87974825712329063" />
        <Con id="204" src="13" tgt="22" wght="-1.6579828084202097" />
        <Con id="210" src="14" tgt="15" wght="5" />
        <Con id="225" src="5" tgt="26" wght="1.7413650523285666" />
        <Con id="233" src="6" tgt="18" wght="-1.7107305256649852" />
        <Con id="249" src="5" tgt="15" wght="-0.12415315490216017" />
        <Con id="258" src="3" tgt="18" wght="0.67358786705881357" />
        <Con id="270" src="10" tgt="19" wght="-0.88830800261348486" />
        <Con id="282" src="2" tgt="25" wght="-0.54426940623670816" />
        <Con id="294" src="7" tgt="20" wght="-4.8707775546937828" />
        <Con id="300" src="12" tgt="19" wght="0.39715806146773774" />
        <Con id="301" src="1" tgt="23" wght="3.748929975554347" />
        <Con id="305" src="6" tgt="16" wght="-0.38542321753975028" />
        <Con id="309" src="3" tgt="23" wght="3.1241407318540748" />
        <Con id="326" src="4" tgt="16" wght="-0.53480322007089853" />
        <Con id="350" src="0" tgt="19" wght="-1.5570389126055788" />
        <Con id="387" src="7" tgt="21" wght="-4.80519943870604" />
      </Connections>
    </Network>
    <Network id="6772" birthGen="83" fitness="3.2499985694885254">
      <Nodes>
        <Node type="bias" id="0" />
        <Node type="in" id="1" />
        <Node type="in" id="2" />
        <Node type="in" id="3" />
        <Node type="in" id="4" />
        <Node type="in" id="5" />
        <Node type="in" id="6" />
        <Node type="in" id="7" />
        <Node type="in" id="8" />
        <Node type="in" id="9" />
        <Node type="in" id="10" />
        <Node type="in" id="11" />
        <Node type="in" id="12" />
        <Node type="in" id="13" />
        <Node type="in" id="14" />
        <Node type="out" id="15" />
        <Node type="out" id="16" />
        <Node type="out" id="17" />
        <Node type="out" id="18" />
        <Node type="out" id="19" />
        <Node type="out" id="20" />
        <Node type="out" id="21" />
        <Node type="out" id="22" />
        <Node type="out" id="23" />
        <Node type="out" id="24" />
        <Node type="out" id="25" />
        <Node type="out" id="26" />
        <Node type="out" id="27" />
      </Nodes>
      <Connections>
        <Con id="28" src="0" tgt="15" wght="-1.641841716369242" />
        <Con id="29" src="0" tgt="16" wght="4.43645336255809" />
        <Con id="34" src="0" tgt="21" wght="1.5615618906055233" />
        <Con id="37" src="0" tgt="24" wght="0.46833083589548363" />
        <Con id="38" src="0" tgt="25" wght="-0.22983780286464817" />
        <Con id="51" src="1" tgt="25" wght="-1.5217606208733674" />
        <Con id="58" src="2" tgt="19" wght="4.7321489920129913" />
        <Con id="106" src="6" tgt="15" wght="4.9005263205617666" />
        <Con id="130" src="7" tgt="26" wght="-4.9184042907045695" />
        <Con id="138" src="8" tgt="21" wght="4.6906002443308674" />
        <Con id="145" src="9" tgt="15" wght="1.6013463338229921" />
        <Con id="161" src="10" tgt="18" wght="0.12618536610934739" />
        <Con id="177" src="11" tgt="21" wght="-2.3444334417581558" />
        <Con id="181" src="11" tgt="25" wght="-3.1026700108352117" />
        <Con id="185" src="12" tgt="16" wght="1.3125359389435469" />
        <Con id="193" src="12" tgt="24" wght="-0.58519644486535849" />
        <Con id="196" src="12" tgt="27" wght="4.1377948821647017" />
        <Con id="203" src="13" tgt="21" wght="-3.9490798598880335" />
        <Con id="204" src="13" tgt="22" wght="-1.6543770515381719" />
        <Con id="210" src="14" tgt="15" wght="2.6438649157779861" />
        <Con id="225" src="5" tgt="26" wght="1.7088307802473854" />
        <Con id="249" src="5" tgt="15" wght="-1.4343053763828486" />
        <Con id="258" src="3" tgt="18" wght="1.208023697364315" />
        <Con id="270" src="10" tgt="19" wght="-4.1412266973329634" />
        <Con id="282" src="2" tgt="25" wght="2.6082143094390631" />
        <Con id="294" src="7" tgt="20" wght="3.0331171028665969" />
        <Con id="300" src="12" tgt="19" wght="0.40416513103991747" />
        <Con id="301" src="1" tgt="23" wght="4.2677164414806068" />
        <Con id="305" src="6" tgt="16" wght="2.9914550855755806" />
        <Con id="309" src="3" tgt="23" wght="-1.6856393228107167" />
        <Con id="326" src="4" tgt="16" wght="-0.48361333267535866" />
        <Con id="350" src="0" tgt="19" wght="2.07896954874626" />
        <Con id="360" src="7" tgt="25" wght="-0.7026298302784032" />
        <Con id="414" src="6" tgt="26" wght="0.67478956654667854" />
        <Con id="420" src="10" tgt="21" wght="-4.8507403425560449" />
        <Con id="456" src="9" tgt="23" wght="-1.3003276195377111" />
      </Connections>
    </Network>
    <Network id="6766" birthGen="83" fitness="3.5">
      <Nodes>
        <Node type="bias" id="0" />
        <Node type="in" id="1" />
        <Node type="in" id="2" />
        <Node type="in" id="3" />
        <Node type="in" id="4" />
        <Node type="in" id="5" />
        <Node type="in" id="6" />
        <Node type="in" id="7" />
        <Node type="in" id="8" />
        <Node type="in" id="9" />
        <Node type="in" id="10" />
        <Node type="in" id="11" />
        <Node type="in" id="12" />
        <Node type="in" id="13" />
        <Node type="in" id="14" />
        <Node type="out" id="15" />
        <Node type="out" id="16" />
        <Node type="out" id="17" />
        <Node type="out" id="18" />
        <Node type="out" id="19" />
        <Node type="out" id="20" />
        <Node type="out" id="21" />
        <Node type="out" id="22" />
        <Node type="out" id="23" />
        <Node type="out" id="24" />
        <Node type="out" id="25" />
        <Node type="out" id="26" />
        <Node type="out" id="27" />
      </Nodes>
      <Connections>
        <Con id="28" src="0" tgt="15" wght="-1.641841716369242" />
        <Con id="29" src="0" tgt="16" wght="4.43645336255809" />
        <Con id="34" src="0" tgt="21" wght="1.5615618906055233" />
        <Con id="37" src="0" tgt="24" wght="0.46833083589548363" />
        <Con id="38" src="0" tgt="25" wght="-0.22983780286464817" />
        <Con id="51" src="1" tgt="25" wght="-1.5217606208733674" />
        <Con id="58" src="2" tgt="19" wght="4.7321489920129913" />
        <Con id="106" src="6" tgt="15" wght="4.1790849490746984" />
        <Con id="130" src="7" tgt="26" wght="-4.9184042907045695" />
        <Con id="138" src="8" tgt="21" wght="4.6906002443308674" />
        <Con id="145" src="9" tgt="15" wght="1.6013463338229921" />
        <Con id="161" src="10" tgt="18" wght="0.12618536610934739" />
        <Con id="177" src="11" tgt="21" wght="-2.3444334417581558" />
        <Con id="181" src="11" tgt="25" wght="-3.1026700108352117" />
        <Con id="185" src="12" tgt="16" wght="1.3125359389435469" />
        <Con id="193" src="12" tgt="24" wght="-0.58519644486535849" />
        <Con id="196" src="12" tgt="27" wght="4.1377948821647017" />
        <Con id="203" src="13" tgt="21" wght="-3.9256924064829946" />
        <Con id="204" src="13" tgt="22" wght="-1.6543770515381719" />
        <Con id="210" src="14" tgt="15" wght="2.6438649157779861" />
        <Con id="225" src="5" tgt="26" wght="1.7413650523285666" />
        <Con id="249" src="5" tgt="15" wght="-1.4343053763828486" />
        <Con id="258" src="3" tgt="18" wght="1.208023697364315" />
        <Con id="270" src="10" tgt="19" wght="-2.9237997132053319" />
        <Con id="282" src="2" tgt="25" wght="2.6082143094390631" />
        <Con id="294" src="7" tgt="20" wght="3.0331171028665969" />
        <Con id="300" src="12" tgt="19" wght="0.40416513103991747" />
        <Con id="301" src="1" tgt="23" wght="4.2677164414806068" />
        <Con id="305" src="6" tgt="16" wght="2.9914550855755806" />
        <Con id="309" src="3" tgt="23" wght="-1.6856393228107167" />
        <Con id="326" src="4" tgt="16" wght="-0.48361333267535866" />
        <Con id="350" src="0" tgt="19" wght="2.07896954874626" />
        <Con id="360" src="7" tgt="25" wght="-0.7026298302784032" />
        <Con id="420" src="10" tgt="21" wght="-4.8507403425560449" />
        <Con id="456" src="9" tgt="23" wght="-1.3003276195377111" />
      </Connections>
    </Network>
    <Network id="6778" birthGen="84" fitness="4.749755859375">
      <Nodes>
        <Node type="bias" id="0" />
        <Node type="in" id="1" />
        <Node type="in" id="2" />
        <Node type="in" id="3" />
        <Node type="in" id="4" />
        <Node type="in" id="5" />
        <Node type="in" id="6" />
        <Node type="in" id="7" />
        <Node type="in" id="8" />
        <Node type="in" id="9" />
        <Node type="in" id="10" />
        <Node type="in" id="11" />
        <Node type="in" id="12" />
        <Node type="in" id="13" />
        <Node type="in" id="14" />
        <Node type="out" id="15" />
        <Node type="out" id="16" />
        <Node type="out" id="17" />
        <Node type="out" id="18" />
        <Node type="out" id="19" />
        <Node type="out" id="20" />
        <Node type="out" id="21" />
        <Node type="out" id="22" />
        <Node type="out" id="23" />
        <Node type="out" id="24" />
        <Node type="out" id="25" />
        <Node type="out" id="26" />
        <Node type="out" id="27" />
      </Nodes>
      <Connections>
        <Con id="28" src="0" tgt="15" wght="-1.641841716369242" />
        <Con id="29" src="0" tgt="16" wght="4.43645336255809" />
        <Con id="34" src="0" tgt="21" wght="1.5615618906055233" />
        <Con id="37" src="0" tgt="24" wght="0.42301669716835022" />
        <Con id="38" src="0" tgt="25" wght="-3.7953206524252892" />
        <Con id="51" src="1" tgt="25" wght="-0.36376623481718368" />
        <Con id="58" src="2" tgt="19" wght="4.6296497108414769" />
        <Con id="106" src="6" tgt="15" wght="4.9005263205617666" />
        <Con id="130" src="7" tgt="26" wght="-4.9254992625696019" />
        <Con id="138" src="8" tgt="21" wght="4.7083817670774977" />
        <Con id="145" src="9" tgt="15" wght="1.5664368086873626" />
        <Con id="161" src="10" tgt="18" wght="0.12618536610934739" />
        <Con id="177" src="11" tgt="21" wght="-2.3693397132082117" />
        <Con id="181" src="11" tgt="25" wght="-3.818484041839838" />
        <Con id="185" src="12" tgt="16" wght="1.3125359389435469" />
        <Con id="193" src="12" tgt="24" wght="-1.553392906221303" />
        <Con id="196" src="12" tgt="27" wght="4.1377948821647017" />
        <Con id="203" src="13" tgt="21" wght="-0.49042929196889573" />
        <Con id="204" src="13" tgt="22" wght="-1.6713686597346007" />
        <Con id="210" src="14" tgt="15" wght="2.6438649157779861" />
        <Con id="225" src="5" tgt="26" wght="2.8464207096352525" />
        <Con id="244" src="12" tgt="25" wght="3.806933369487524" />
        <Con id="249" src="5" tgt="15" wght="-1.4343053763828486" />
        <Con id="258" src="3" tgt="18" wght="1.7699682467059019" />
        <Con id="270" src="10" tgt="19" wght="-5" />
        <Con id="282" src="2" tgt="25" wght="2.6082143094390631" />
        <Con id="294" src="7" tgt="20" wght="3.0331171028665969" />
        <Con id="300" src="12" tgt="19" wght="0.40416513103991747" />
        <Con id="301" src="1" tgt="23" wght="2.0323845185339451" />
        <Con id="305" src="6" tgt="16" wght="-1.8875029403716326" />
        <Con id="309" src="3" tgt="23" wght="-1.6856393228107167" />
        <Con id="326" src="4" tgt="16" wght="-0.53480322007089853" />
        <Con id="341" src="9" tgt="20" wght="-2.6623533014208078" />
        <Con id="350" src="0" tgt="19" wght="2.6810589011002013" />
        <Con id="360" src="7" tgt="25" wght="-0.7026298302784032" />
        <Con id="420" src="10" tgt="21" wght="-4.8264814188528211" />
      </Connections>
    </Network>
    <Network id="6779" birthGen="84" fitness="3.25">
      <Nodes>
        <Node type="bias" id="0" />
        <Node type="in" id="1" />
        <Node type="in" id="2" />
        <Node type="in" id="3" />
        <Node type="in" id="4" />
        <Node type="in" id="5" />
        <Node type="in" id="6" />
        <Node type="in" id="7" />
        <Node type="in" id="8" />
        <Node type="in" id="9" />
        <Node type="in" id="10" />
        <Node type="in" id="11" />
        <Node type="in" id="12" />
        <Node type="in" id="13" />
        <Node type="in" id="14" />
        <Node type="out" id="15" />
        <Node type="out" id="16" />
        <Node type="out" id="17" />
        <Node type="out" id="18" />
        <Node type="out" id="19" />
        <Node type="out" id="20" />
        <Node type="out" id="21" />
        <Node type="out" id="22" />
        <Node type="out" id="23" />
        <Node type="out" id="24" />
        <Node type="out" id="25" />
        <Node type="out" id="26" />
        <Node type="out" id="27" />
      </Nodes>
      <Connections>
        <Con id="28" src="0" tgt="15" wght="-1.641841716369242" />
        <Con id="29" src="0" tgt="16" wght="4.43645336255809" />
        <Con id="34" src="0" tgt="21" wght="1.5615618906055233" />
        <Con id="37" src="0" tgt="24" wght="0.42301669716835022" />
        <Con id="38" src="0" tgt="25" wght="-3.7953206524252892" />
        <Con id="51" src="1" tgt="25" wght="-0.36376623481718368" />
        <Con id="58" src="2" tgt="19" wght="4.6296497108414769" />
        <Con id="106" src="6" tgt="15" wght="4.9005263205617666" />
        <Con id="130" src="7" tgt="26" wght="-4.9254992625696019" />
        <Con id="138" src="8" tgt="21" wght="4.7083817670774977" />
        <Con id="145" src="9" tgt="15" wght="1.5664368086873626" />
        <Con id="161" src="10" tgt="18" wght="0.12618536610934739" />
        <Con id="177" src="11" tgt="21" wght="-2.3693397132082117" />
        <Con id="181" src="11" tgt="25" wght="-3.818484041839838" />
        <Con id="185" src="12" tgt="16" wght="1.3486224827881033" />
        <Con id="193" src="12" tgt="24" wght="-1.553392906221303" />
        <Con id="196" src="12" tgt="27" wght="4.1377948821647017" />
        <Con id="203" src="13" tgt="21" wght="-0.49042929196889573" />
        <Con id="204" src="13" tgt="22" wght="-1.6713686597346007" />
        <Con id="210" src="14" tgt="15" wght="2.6438649157779861" />
        <Con id="225" src="5" tgt="26" wght="2.8372835496527848" />
        <Con id="244" src="12" tgt="25" wght="3.806933369487524" />
        <Con id="249" src="5" tgt="15" wght="-1.4343053763828486" />
        <Con id="258" src="3" tgt="18" wght="1.7699682467059019" />
        <Con id="270" src="10" tgt="19" wght="-5" />
        <Con id="282" src="2" tgt="25" wght="2.6082143094390631" />
        <Con id="294" src="7" tgt="20" wght="3.0331171028665969" />
        <Con id="300" src="12" tgt="19" wght="0.40416513103991747" />
        <Con id="301" src="1" tgt="23" wght="2.0323845185339451" />
        <Con id="305" src="6" tgt="16" wght="-1.8875029403716326" />
        <Con id="309" src="3" tgt="23" wght="-1.6856393228107167" />
        <Con id="326" src="4" tgt="16" wght="-0.53480322007089853" />
        <Con id="341" src="9" tgt="20" wght="-2.6623533014208078" />
        <Con id="350" src="0" tgt="19" wght="2.6810589011002013" />
        <Con id="360" src="7" tgt="25" wght="-0.7026298302784032" />
        <Con id="420" src="10" tgt="21" wght="-4.8264814188528211" />
      </Connections>
    </Network>
    <Network id="6780" birthGen="84" fitness="3.9999997615814209">
      <Nodes>
        <Node type="bias" id="0" />
        <Node type="in" id="1" />
        <Node type="in" id="2" />
        <Node type="in" id="3" />
        <Node type="in" id="4" />
        <Node type="in" id="5" />
        <Node type="in" id="6" />
        <Node type="in" id="7" />
        <Node type="in" id="8" />
        <Node type="in" id="9" />
        <Node type="in" id="10" />
        <Node type="in" id="11" />
        <Node type="in" id="12" />
        <Node type="in" id="13" />
        <Node type="in" id="14" />
        <Node type="out" id="15" />
        <Node type="out" id="16" />
        <Node type="out" id="17" />
        <Node type="out" id="18" />
        <Node type="out" id="19" />
        <Node type="out" id="20" />
        <Node type="out" id="21" />
        <Node type="out" id="22" />
        <Node type="out" id="23" />
        <Node type="out" id="24" />
        <Node type="out" id="25" />
        <Node type="out" id="26" />
        <Node type="out" id="27" />
      </Nodes>
      <Connections>
        <Con id="28" src="0" tgt="15" wght="-1.641841716369242" />
        <Con id="29" src="0" tgt="16" wght="4.43645336255809" />
        <Con id="34" src="0" tgt="21" wght="1.5615618906055233" />
        <Con id="37" src="0" tgt="24" wght="0.42301669716835022" />
        <Con id="38" src="0" tgt="25" wght="-3.7953206524252892" />
        <Con id="51" src="1" tgt="25" wght="-0.36376623481718368" />
        <Con id="58" src="2" tgt="19" wght="4.6296497108414769" />
        <Con id="106" src="6" tgt="15" wght="4.9005263205617666" />
        <Con id="130" src="7" tgt="26" wght="-4.9254992625696019" />
        <Con id="138" src="8" tgt="21" wght="4.7083817670774977" />
        <Con id="145" src="9" tgt="15" wght="1.5664368086873626" />
        <Con id="161" src="10" tgt="18" wght="0.12618536610934739" />
        <Con id="177" src="11" tgt="21" wght="-2.3693397132082117" />
        <Con id="181" src="11" tgt="25" wght="-1.771087479889927" />
        <Con id="185" src="12" tgt="16" wght="1.3125359389435469" />
        <Con id="193" src="12" tgt="24" wght="-1.553392906221303" />
        <Con id="196" src="12" tgt="27" wght="4.1377948821647017" />
        <Con id="203" src="13" tgt="21" wght="-0.49042929196889573" />
        <Con id="204" src="13" tgt="22" wght="-1.6713686597346007" />
        <Con id="210" src="14" tgt="15" wght="2.6438649157779861" />
        <Con id="225" src="5" tgt="26" wght="2.8372835496527848" />
        <Con id="244" src="12" tgt="25" wght="3.806933369487524" />
        <Con id="249" src="5" tgt="15" wght="-1.4343053763828486" />
        <Con id="258" src="3" tgt="18" wght="1.7699682467059019" />
        <Con id="270" src="10" tgt="19" wght="-5" />
        <Con id="282" src="2" tgt="25" wght="2.6082143094390631" />
        <Con id="294" src="7" tgt="20" wght="3.8112026680805724" />
        <Con id="300" src="12" tgt="19" wght="0.40416513103991747" />
        <Con id="301" src="1" tgt="23" wght="2.0323845185339451" />
        <Con id="305" src="6" tgt="16" wght="-1.8875029403716326" />
        <Con id="309" src="3" tgt="23" wght="-1.6856393228107167" />
        <Con id="326" src="4" tgt="16" wght="-0.53480322007089853" />
        <Con id="341" src="9" tgt="20" wght="-2.6623533014208078" />
        <Con id="350" src="0" tgt="19" wght="2.6810589011002013" />
        <Con id="360" src="7" tgt="25" wght="-0.7026298302784032" />
        <Con id="420" src="10" tgt="21" wght="-4.8264814188528211" />
      </Connections>
    </Network>
    <Network id="6781" birthGen="84" fitness="0">
      <Nodes>
        <Node type="bias" id="0" />
        <Node type="in" id="1" />
        <Node type="in" id="2" />
        <Node type="in" id="3" />
        <Node type="in" id="4" />
        <Node type="in" id="5" />
        <Node type="in" id="6" />
        <Node type="in" id="7" />
        <Node type="in" id="8" />
        <Node type="in" id="9" />
        <Node type="in" id="10" />
        <Node type="in" id="11" />
        <Node type="in" id="12" />
        <Node type="in" id="13" />
        <Node type="in" id="14" />
        <Node type="out" id="15" />
        <Node type="out" id="16" />
        <Node type="out" id="17" />
        <Node type="out" id="18" />
        <Node type="out" id="19" />
        <Node type="out" id="20" />
        <Node type="out" id="21" />
        <Node type="out" id="22" />
        <Node type="out" id="23" />
        <Node type="out" id="24" />
        <Node type="out" id="25" />
        <Node type="out" id="26" />
        <Node type="out" id="27" />
      </Nodes>
      <Connections>
        <Con id="28" src="0" tgt="15" wght="-1.6173312101984192" />
        <Con id="29" src="0" tgt="16" wght="4.43645336255809" />
        <Con id="34" src="0" tgt="21" wght="1.5615618906055233" />
        <Con id="37" src="0" tgt="24" wght="0.43164921632332942" />
        <Con id="38" src="0" tgt="25" wght="-3.7953206524252892" />
        <Con id="51" src="1" tgt="25" wght="-0.36376623481718368" />
        <Con id="58" src="2" tgt="19" wght="4.6296497108414769" />
        <Con id="106" src="6" tgt="15" wght="4.9005263205617666" />
        <Con id="130" src="7" tgt="26" wght="-4.9254992625696019" />
        <Con id="138" src="8" tgt="21" wght="4.7075917727566718" />
        <Con id="145" src="9" tgt="15" wght="1.5664368086873626" />
        <Con id="161" src="10" tgt="18" wght="0.12618536610934739" />
        <Con id="177" src="11" tgt="21" wght="-2.3693397132082117" />
        <Con id="181" src="11" tgt="25" wght="-3.818484041839838" />
        <Con id="185" src="12" tgt="16" wght="1.3125359389435469" />
        <Con id="193" src="12" tgt="24" wght="-1.553392906221303" />
        <Con id="196" src="12" tgt="27" wght="4.1377948821647017" />
        <Con id="203" src="13" tgt="21" wght="-0.49042929196889573" />
        <Con id="204" src="13" tgt="22" wght="-1.6713686597346007" />
        <Con id="210" src="14" tgt="15" wght="2.6438649157779861" />
        <Con id="225" src="5" tgt="26" wght="2.8372835496527848" />
        <Con id="244" src="12" tgt="25" wght="3.806933369487524" />
        <Con id="249" src="5" tgt="15" wght="-1.4343053763828486" />
        <Con id="258" src="3" tgt="18" wght="1.7699682467059019" />
        <Con id="270" src="10" tgt="19" wght="-5" />
        <Con id="282" src="2" tgt="25" wght="2.6082143094390631" />
        <Con id="294" src="7" tgt="20" wght="3.0331171028665969" />
        <Con id="300" src="12" tgt="19" wght="0.40416513103991747" />
        <Con id="301" src="1" tgt="23" wght="2.0323845185339451" />
        <Con id="305" src="6" tgt="16" wght="-1.8875029403716326" />
        <Con id="309" src="3" tgt="23" wght="-1.6856393228107167" />
        <Con id="326" src="4" tgt="16" wght="-0.53480322007089853" />
        <Con id="341" src="9" tgt="20" wght="-2.6623533014208078" />
        <Con id="350" src="0" tgt="19" wght="2.6810589011002013" />
        <Con id="360" src="7" tgt="25" wght="-0.7026298302784032" />
        <Con id="420" src="10" tgt="21" wght="-4.8264814188528211" />
      </Connections>
    </Network>
    <Network id="6782" birthGen="84" fitness="5">
      <Nodes>
        <Node type="bias" id="0" />
        <Node type="in" id="1" />
        <Node type="in" id="2" />
        <Node type="in" id="3" />
        <Node type="in" id="4" />
        <Node type="in" id="5" />
        <Node type="in" id="6" />
        <Node type="in" id="7" />
        <Node type="in" id="8" />
        <Node type="in" id="9" />
        <Node type="in" id="10" />
        <Node type="in" id="11" />
        <Node type="in" id="12" />
        <Node type="in" id="13" />
        <Node type="in" id="14" />
        <Node type="out" id="15" />
        <Node type="out" id="16" />
        <Node type="out" id="17" />
        <Node type="out" id="18" />
        <Node type="out" id="19" />
        <Node type="out" id="20" />
        <Node type="out" id="21" />
        <Node type="out" id="22" />
        <Node type="out" id="23" />
        <Node type="out" id="24" />
        <Node type="out" id="25" />
        <Node type="out" id="26" />
        <Node type="out" id="27" />
      </Nodes>
      <Connections>
        <Con id="28" src="0" tgt="15" wght="-1.641841716369242" />
        <Con id="29" src="0" tgt="16" wght="4.43645336255809" />
        <Con id="34" src="0" tgt="21" wght="1.5615618906055233" />
        <Con id="37" src="0" tgt="24" wght="0.42301669716835022" />
        <Con id="38" src="0" tgt="25" wght="-3.7953206524252892" />
        <Con id="51" src="1" tgt="25" wght="-0.36376623481718368" />
        <Con id="58" src="2" tgt="19" wght="4.6296497108414769" />
        <Con id="106" src="6" tgt="15" wght="4.9005263205617666" />
        <Con id="130" src="7" tgt="26" wght="-4.9254992625696019" />
        <Con id="138" src="8" tgt="21" wght="4.7083817670774977" />
        <Con id="145" src="9" tgt="15" wght="1.5664368086873626" />
        <Con id="161" src="10" tgt="18" wght="0.12618536610934739" />
        <Con id="177" src="11" tgt="21" wght="-2.3693397132082117" />
        <Con id="181" src="11" tgt="25" wght="-3.818484041839838" />
        <Con id="185" src="12" tgt="16" wght="1.3125359389435469" />
        <Con id="193" src="12" tgt="24" wght="-1.553392906221303" />
        <Con id="196" src="12" tgt="27" wght="4.1377948821647017" />
        <Con id="203" src="13" tgt="21" wght="-0.49042929196889573" />
        <Con id="204" src="13" tgt="22" wght="-1.6713686597346007" />
        <Con id="210" src="14" tgt="15" wght="2.6438649157779861" />
        <Con id="225" src="5" tgt="26" wght="2.8372835496527848" />
        <Con id="244" src="12" tgt="25" wght="3.806933369487524" />
        <Con id="249" src="5" tgt="15" wght="4.2820387100800872" />
        <Con id="258" src="3" tgt="18" wght="1.7699682467059019" />
        <Con id="270" src="10" tgt="19" wght="-5" />
        <Con id="282" src="2" tgt="25" wght="2.6082143094390631" />
        <Con id="294" src="7" tgt="20" wght="3.0331171028665969" />
        <Con id="300" src="12" tgt="19" wght="0.40416513103991747" />
        <Con id="301" src="1" tgt="23" wght="2.0323845185339451" />
        <Con id="305" src="6" tgt="16" wght="-1.8875029403716326" />
        <Con id="309" src="3" tgt="23" wght="-1.6856393228107167" />
        <Con id="326" src="4" tgt="16" wght="2.8248577890917659" />
        <Con id="341" src="9" tgt="20" wght="3.9056469639763236" />
        <Con id="350" src="0" tgt="19" wght="2.6810589011002013" />
        <Con id="360" src="7" tgt="25" wght="-0.7026298302784032" />
        <Con id="420" src="10" tgt="21" wght="-4.8264814188528211" />
      </Connections>
    </Network>
    <Network id="6783" birthGen="84" fitness="3.375">
      <Nodes>
        <Node type="bias" id="0" />
        <Node type="in" id="1" />
        <Node type="in" id="2" />
        <Node type="in" id="3" />
        <Node type="in" id="4" />
        <Node type="in" id="5" />
        <Node type="in" id="6" />
        <Node type="in" id="7" />
        <Node type="in" id="8" />
        <Node type="in" id="9" />
        <Node type="in" id="10" />
        <Node type="in" id="11" />
        <Node type="in" id="12" />
        <Node type="in" id="13" />
        <Node type="in" id="14" />
        <Node type="out" id="15" />
        <Node type="out" id="16" />
        <Node type="out" id="17" />
        <Node type="out" id="18" />
        <Node type="out" id="19" />
        <Node type="out" id="20" />
        <Node type="out" id="21" />
        <Node type="out" id="22" />
        <Node type="out" id="23" />
        <Node type="out" id="24" />
        <Node type="out" id="25" />
        <Node type="out" id="26" />
        <Node type="out" id="27" />
      </Nodes>
      <Connections>
        <Con id="28" src="0" tgt="15" wght="-1.641841716369242" />
        <Con id="29" src="0" tgt="16" wght="4.43645336255809" />
        <Con id="34" src="0" tgt="21" wght="1.5615618906055233" />
        <Con id="37" src="0" tgt="24" wght="0.46833083589548363" />
        <Con id="38" src="0" tgt="25" wght="-3.7953206524252892" />
        <Con id="51" src="1" tgt="25" wght="-0.36376623481718368" />
        <Con id="58" src="2" tgt="19" wght="2.40547093878058" />
        <Con id="106" src="6" tgt="15" wght="3.8243519846407521" />
        <Con id="130" src="7" tgt="26" wght="-4.9254992625696019" />
        <Con id="138" src="8" tgt="21" wght="4.7083817670774977" />
        <Con id="145" src="9" tgt="15" wght="1.5664368086873626" />
        <Con id="161" src="10" tgt="18" wght="0.12618536610934739" />
        <Con id="177" src="11" tgt="21" wght="-2.3444334417581558" />
        <Con id="181" src="11" tgt="25" wght="-3.818484041839838" />
        <Con id="185" src="12" tgt="16" wght="1.3125359389435469" />
        <Con id="193" src="12" tgt="24" wght="-1.553392906221303" />
        <Con id="196" src="12" tgt="27" wght="4.1377948821647017" />
        <Con id="203" src="13" tgt="21" wght="-0.49042929196889573" />
        <Con id="204" src="13" tgt="22" wght="-1.6713686597346007" />
        <Con id="210" src="14" tgt="15" wght="2.4707727320492268" />
        <Con id="225" src="5" tgt="26" wght="2.8372835496527848" />
        <Con id="244" src="12" tgt="25" wght="3.806933369487524" />
        <Con id="249" src="5" tgt="15" wght="-1.4343053763828486" />
        <Con id="258" src="3" tgt="18" wght="1.7699682467059019" />
        <Con id="270" src="10" tgt="19" wght="-5" />
        <Con id="282" src="2" tgt="25" wght="2.6082143094390631" />
        <Con id="294" src="7" tgt="20" wght="3.0331171028665969" />
        <Con id="300" src="12" tgt="19" wght="0.40416513103991747" />
        <Con id="301" src="1" tgt="23" wght="2.0323845185339451" />
        <Con id="305" src="6" tgt="16" wght="-1.8875029403716326" />
        <Con id="309" src="3" tgt="23" wght="-1.6856393228107167" />
        <Con id="326" src="4" tgt="16" wght="-0.53480322007089853" />
        <Con id="341" src="9" tgt="20" wght="-2.6623533014208078" />
        <Con id="350" src="0" tgt="19" wght="2.6810589011002013" />
        <Con id="360" src="7" tgt="25" wght="-0.7026298302784032" />
        <Con id="420" src="10" tgt="21" wght="-4.82314822729677" />
      </Connections>
    </Network>
    <Network id="6784" birthGen="84" fitness="2.875">
      <Nodes>
        <Node type="bias" id="0" />
        <Node type="in" id="1" />
        <Node type="in" id="2" />
        <Node type="in" id="3" />
        <Node type="in" id="4" />
        <Node type="in" id="5" />
        <Node type="in" id="6" />
        <Node type="in" id="7" />
        <Node type="in" id="8" />
        <Node type="in" id="9" />
        <Node type="in" id="10" />
        <Node type="in" id="11" />
        <Node type="in" id="12" />
        <Node type="in" id="13" />
        <Node type="in" id="14" />
        <Node type="out" id="15" />
        <Node type="out" id="16" />
        <Node type="out" id="17" />
        <Node type="out" id="18" />
        <Node type="out" id="19" />
        <Node type="out" id="20" />
        <Node type="out" id="21" />
        <Node type="out" id="22" />
        <Node type="out" id="23" />
        <Node type="out" id="24" />
        <Node type="out" id="25" />
        <Node type="out" id="26" />
        <Node type="out" id="27" />
      </Nodes>
      <Connections>
        <Con id="28" src="0" tgt="15" wght="-1.641841716369242" />
        <Con id="29" src="0" tgt="16" wght="4.43645336255809" />
        <Con id="34" src="0" tgt="21" wght="1.5615618906055233" />
        <Con id="37" src="0" tgt="24" wght="0.46833083589548363" />
        <Con id="38" src="0" tgt="25" wght="-3.7953206524252892" />
        <Con id="51" src="1" tgt="25" wght="-0.36376623481718368" />
        <Con id="58" src="2" tgt="19" wght="4.6296497108414769" />
        <Con id="106" src="6" tgt="15" wght="4.9005263205617666" />
        <Con id="130" src="7" tgt="26" wght="-4.9254992625696019" />
        <Con id="138" src="8" tgt="21" wght="4.7083817670774977" />
        <Con id="145" src="9" tgt="15" wght="1.5664368086873626" />
        <Con id="161" src="10" tgt="18" wght="0.12618536610934739" />
        <Con id="177" src="11" tgt="21" wght="-2.3444334417581558" />
        <Con id="181" src="11" tgt="25" wght="-3.818484041839838" />
        <Con id="185" src="12" tgt="16" wght="1.3125359389435469" />
        <Con id="193" src="12" tgt="24" wght="-1.553392906221303" />
        <Con id="196" src="12" tgt="27" wght="4.1377948821647017" />
        <Con id="203" src="13" tgt="21" wght="-0.63841697630381711" />
        <Con id="204" src="13" tgt="22" wght="-1.6713686597346007" />
        <Con id="210" src="14" tgt="15" wght="3.5446336024172651" />
        <Con id="225" src="5" tgt="26" wght="2.8372835496527848" />
        <Con id="244" src="12" tgt="25" wght="3.806933369487524" />
        <Con id="249" src="5" tgt="15" wght="-1.4343053763828486" />
        <Con id="258" src="3" tgt="18" wght="1.7699682467059019" />
        <Con id="270" src="10" tgt="19" wght="-5" />
        <Con id="282" src="2" tgt="25" wght="2.6082143094390631" />
        <Con id="294" src="7" tgt="20" wght="3.0331171028665969" />
        <Con id="300" src="12" tgt="19" wght="0.087153363956974483" />
        <Con id="301" src="1" tgt="23" wght="2.0323845185339451" />
        <Con id="305" src="6" tgt="16" wght="-1.8875029403716326" />
        <Con id="309" src="3" tgt="23" wght="-1.6856393228107167" />
        <Con id="326" src="4" tgt="16" wght="-0.53480322007089853" />
        <Con id="341" src="9" tgt="20" wght="-2.6623533014208078" />
        <Con id="350" src="0" tgt="19" wght="2.6810589011002013" />
        <Con id="360" src="7" tgt="25" wght="-0.7026298302784032" />
        <Con id="420" src="10" tgt="21" wght="-4.82314822729677" />
      </Connections>
    </Network>
    <Network id="6785" birthGen="84" fitness="2.62451171875">
      <Nodes>
        <Node type="bias" id="0" />
        <Node type="in" id="1" />
        <Node type="in" id="2" />
        <Node type="in" id="3" />
        <Node type="in" id="4" />
        <Node type="in" id="5" />
        <Node type="in" id="6" />
        <Node type="in" id="7" />
        <Node type="in" id="8" />
        <Node type="in" id="9" />
        <Node type="in" id="10" />
        <Node type="in" id="11" />
        <Node type="in" id="12" />
        <Node type="in" id="13" />
        <Node type="in" id="14" />
        <Node type="out" id="15" />
        <Node type="out" id="16" />
        <Node type="out" id="17" />
        <Node type="out" id="18" />
        <Node type="out" id="19" />
        <Node type="out" id="20" />
        <Node type="out" id="21" />
        <Node type="out" id="22" />
        <Node type="out" id="23" />
        <Node type="out" id="24" />
        <Node type="out" id="25" />
        <Node type="out" id="26" />
        <Node type="out" id="27" />
      </Nodes>
      <Connections>
        <Con id="28" src="0" tgt="15" wght="-1.641841716369242" />
        <Con id="29" src="0" tgt="16" wght="4.43645336255809" />
        <Con id="34" src="0" tgt="21" wght="1.5615618906055233" />
        <Con id="37" src="0" tgt="24" wght="0.46833083589548363" />
        <Con id="38" src="0" tgt="25" wght="2.833528877235949" />
        <Con id="51" src="1" tgt="25" wght="-0.36376623481718368" />
        <Con id="58" src="2" tgt="19" wght="4.6296497108414769" />
        <Con id="106" src="6" tgt="15" wght="4.9005263205617666" />
        <Con id="130" src="7" tgt="26" wght="-4.9254992625696019" />
        <Con id="138" src="8" tgt="21" wght="4.7083817670774977" />
        <Con id="145" src="9" tgt="15" wght="1.5664368086873626" />
        <Con id="161" src="10" tgt="18" wght="0.12618536610934739" />
        <Con id="177" src="11" tgt="21" wght="-2.3444334417581558" />
        <Con id="181" src="11" tgt="25" wght="-3.818484041839838" />
        <Con id="185" src="12" tgt="16" wght="1.3125359389435469" />
        <Con id="193" src="12" tgt="24" wght="-1.553392906221303" />
        <Con id="196" src="12" tgt="27" wght="4.1377948821647017" />
        <Con id="203" src="13" tgt="21" wght="-0.49042929196889573" />
        <Con id="204" src="13" tgt="22" wght="-1.6713686597346007" />
        <Con id="210" src="14" tgt="15" wght="2.4707727320492268" />
        <Con id="225" src="5" tgt="26" wght="2.8372835496527848" />
        <Con id="244" src="12" tgt="25" wght="3.806933369487524" />
        <Con id="249" src="5" tgt="15" wght="-1.4343053763828486" />
        <Con id="258" src="3" tgt="18" wght="1.7699682467059019" />
        <Con id="270" src="10" tgt="19" wght="-5" />
        <Con id="282" src="2" tgt="25" wght="2.6082143094390631" />
        <Con id="294" src="7" tgt="20" wght="3.0331171028665969" />
        <Con id="300" src="12" tgt="19" wght="0.40416513103991747" />
        <Con id="301" src="1" tgt="23" wght="2.0323845185339451" />
        <Con id="305" src="6" tgt="16" wght="-1.8875029403716326" />
        <Con id="309" src="3" tgt="23" wght="3.6822297936305404" />
        <Con id="326" src="4" tgt="16" wght="-0.53480322007089853" />
        <Con id="341" src="9" tgt="20" wght="-2.6623533014208078" />
        <Con id="350" src="0" tgt="19" wght="2.6810589011002013" />
        <Con id="360" src="7" tgt="25" wght="2.18903296161443" />
        <Con id="420" src="10" tgt="21" wght="-4.82314822729677" />
      </Connections>
    </Network>
    <Network id="6786" birthGen="84" fitness="0">
      <Nodes>
        <Node type="bias" id="0" />
        <Node type="in" id="1" />
        <Node type="in" id="2" />
        <Node type="in" id="3" />
        <Node type="in" id="4" />
        <Node type="in" id="5" />
        <Node type="in" id="6" />
        <Node type="in" id="7" />
        <Node type="in" id="8" />
        <Node type="in" id="9" />
        <Node type="in" id="10" />
        <Node type="in" id="11" />
        <Node type="in" id="12" />
        <Node type="in" id="13" />
        <Node type="in" id="14" />
        <Node type="out" id="15" />
        <Node type="out" id="16" />
        <Node type="out" id="17" />
        <Node type="out" id="18" />
        <Node type="out" id="19" />
        <Node type="out" id="20" />
        <Node type="out" id="21" />
        <Node type="out" id="22" />
        <Node type="out" id="23" />
        <Node type="out" id="24" />
        <Node type="out" id="25" />
        <Node type="out" id="26" />
        <Node type="out" id="27" />
      </Nodes>
      <Connections>
        <Con id="28" src="0" tgt="15" wght="-1.641841716369242" />
        <Con id="29" src="0" tgt="16" wght="4.43645336255809" />
        <Con id="34" src="0" tgt="21" wght="1.5615618906055233" />
        <Con id="37" src="0" tgt="24" wght="0.46833083589548363" />
        <Con id="38" src="0" tgt="25" wght="-3.7953206524252892" />
        <Con id="51" src="1" tgt="25" wght="-1.5985599678369178" />
        <Con id="58" src="2" tgt="19" wght="4.6296497108414769" />
        <Con id="106" src="6" tgt="15" wght="4.9005263205617666" />
        <Con id="130" src="7" tgt="26" wght="-4.9254992625696019" />
        <Con id="138" src="8" tgt="21" wght="4.7083817670774977" />
        <Con id="145" src="9" tgt="15" wght="1.5664368086873626" />
        <Con id="161" src="10" tgt="18" wght="0.12618536610934739" />
        <Con id="177" src="11" tgt="21" wght="-2.3444334417581558" />
        <Con id="181" src="11" tgt="25" wght="-3.818484041839838" />
        <Con id="185" src="12" tgt="16" wght="1.3125359389435469" />
        <Con id="193" src="12" tgt="24" wght="-1.553392906221303" />
        <Con id="196" src="12" tgt="27" wght="4.1377948821647017" />
        <Con id="203" src="13" tgt="21" wght="-0.49042929196889573" />
        <Con id="204" src="13" tgt="22" wght="-1.6713686597346007" />
        <Con id="210" src="14" tgt="15" wght="2.4707727320492268" />
        <Con id="225" src="5" tgt="26" wght="2.8372835496527848" />
        <Con id="244" src="12" tgt="25" wght="3.806933369487524" />
        <Con id="249" src="5" tgt="15" wght="-1.3441670730758364" />
        <Con id="258" src="3" tgt="18" wght="1.7699682467059019" />
        <Con id="270" src="10" tgt="19" wght="-5" />
        <Con id="282" src="2" tgt="25" wght="2.6082143094390631" />
        <Con id="294" src="7" tgt="20" wght="3.0331171028665969" />
        <Con id="300" src="12" tgt="19" wght="0.40416513103991747" />
        <Con id="301" src="1" tgt="23" wght="2.0323845185339451" />
        <Con id="305" src="6" tgt="16" wght="-1.8875029403716326" />
        <Con id="309" src="3" tgt="23" wght="-1.6856393228107167" />
        <Con id="326" src="4" tgt="16" wght="-0.53480322007089853" />
        <Con id="341" src="9" tgt="20" wght="-2.6623533014208078" />
        <Con id="350" src="0" tgt="19" wght="2.6810589011002013" />
        <Con id="360" src="7" tgt="25" wght="-0.7026298302784032" />
        <Con id="420" src="10" tgt="21" wght="-4.82314822729677" />
      </Connections>
    </Network>
    <Network id="6787" birthGen="84" fitness="2.7499980926513672">
      <Nodes>
        <Node type="bias" id="0" />
        <Node type="in" id="1" />
        <Node type="in" id="2" />
        <Node type="in" id="3" />
        <Node type="in" id="4" />
        <Node type="in" id="5" />
        <Node type="in" id="6" />
        <Node type="in" id="7" />
        <Node type="in" id="8" />
        <Node type="in" id="9" />
        <Node type="in" id="10" />
        <Node type="in" id="11" />
        <Node type="in" id="12" />
        <Node type="in" id="13" />
        <Node type="in" id="14" />
        <Node type="out" id="15" />
        <Node type="out" id="16" />
        <Node type="out" id="17" />
        <Node type="out" id="18" />
        <Node type="out" id="19" />
        <Node type="out" id="20" />
        <Node type="out" id="21" />
        <Node type="out" id="22" />
        <Node type="out" id="23" />
        <Node type="out" id="24" />
        <Node type="out" id="25" />
        <Node type="out" id="26" />
        <Node type="out" id="27" />
      </Nodes>
      <Connections>
        <Con id="28" src="0" tgt="15" wght="-1.641841716369242" />
        <Con id="29" src="0" tgt="16" wght="4.43645336255809" />
        <Con id="34" src="0" tgt="21" wght="1.5615618906055233" />
        <Con id="37" src="0" tgt="24" wght="0.46833083589548363" />
        <Con id="38" src="0" tgt="25" wght="-3.7953206524252892" />
        <Con id="51" src="1" tgt="25" wght="-0.36376623481718368" />
        <Con id="58" src="2" tgt="19" wght="4.6296497108414769" />
        <Con id="106" src="6" tgt="15" wght="4.9005263205617666" />
        <Con id="130" src="7" tgt="26" wght="-4.9254992625696019" />
        <Con id="138" src="8" tgt="21" wght="4.7083817670774977" />
        <Con id="145" src="9" tgt="15" wght="1.5664368086873626" />
        <Con id="161" src="10" tgt="18" wght="0.12618536610934739" />
        <Con id="177" src="11" tgt="21" wght="-2.3444334417581558" />
        <Con id="181" src="11" tgt="25" wght="-3.818484041839838" />
        <Con id="185" src="12" tgt="16" wght="1.3125359389435469" />
        <Con id="193" src="12" tgt="24" wght="-1.553392906221303" />
        <Con id="196" src="12" tgt="27" wght="4.1377948821647017" />
        <Con id="203" src="13" tgt="21" wght="-0.49042929196889573" />
        <Con id="204" src="13" tgt="22" wght="-1.6713686597346007" />
        <Con id="210" src="14" tgt="15" wght="2.4707727320492268" />
        <Con id="225" src="5" tgt="26" wght="2.8027766723011509" />
        <Con id="244" src="12" tgt="25" wght="3.806933369487524" />
        <Con id="249" src="5" tgt="15" wght="-1.4343053763828486" />
        <Con id="258" src="3" tgt="18" wght="1.7699682467059019" />
        <Con id="270" src="10" tgt="19" wght="-5" />
        <Con id="282" src="2" tgt="25" wght="2.6082143094390631" />
        <Con id="294" src="7" tgt="20" wght="3.0331171028665969" />
        <Con id="300" src="12" tgt="19" wght="0.40416513103991747" />
        <Con id="301" src="1" tgt="23" wght="2.0323845185339451" />
        <Con id="305" src="6" tgt="16" wght="-1.8875029403716326" />
        <Con id="309" src="3" tgt="23" wght="-1.6856393228107167" />
        <Con id="326" src="4" tgt="16" wght="-0.53480322007089853" />
        <Con id="341" src="9" tgt="20" wght="-2.6623533014208078" />
        <Con id="350" src="0" tgt="19" wght="2.6810589011002013" />
        <Con id="360" src="7" tgt="25" wght="-0.7026298302784032" />
        <Con id="420" src="10" tgt="21" wght="-4.82314822729677" />
      </Connections>
    </Network>
    <Network id="6788" birthGen="84" fitness="2.375">
      <Nodes>
        <Node type="bias" id="0" />
        <Node type="in" id="1" />
        <Node type="in" id="2" />
        <Node type="in" id="3" />
        <Node type="in" id="4" />
        <Node type="in" id="5" />
        <Node type="in" id="6" />
        <Node type="in" id="7" />
        <Node type="in" id="8" />
        <Node type="in" id="9" />
        <Node type="in" id="10" />
        <Node type="in" id="11" />
        <Node type="in" id="12" />
        <Node type="in" id="13" />
        <Node type="in" id="14" />
        <Node type="out" id="15" />
        <Node type="out" id="16" />
        <Node type="out" id="17" />
        <Node type="out" id="18" />
        <Node type="out" id="19" />
        <Node type="out" id="20" />
        <Node type="out" id="21" />
        <Node type="out" id="22" />
        <Node type="out" id="23" />
        <Node type="out" id="24" />
        <Node type="out" id="25" />
        <Node type="out" id="26" />
        <Node type="out" id="27" />
      </Nodes>
      <Connections>
        <Con id="28" src="0" tgt="15" wght="-1.641841716369242" />
        <Con id="29" src="0" tgt="16" wght="4.43645336255809" />
        <Con id="34" src="0" tgt="21" wght="1.5615618906055233" />
        <Con id="37" src="0" tgt="24" wght="0.46833083589548363" />
        <Con id="38" src="0" tgt="25" wght="-3.7953206524252892" />
        <Con id="51" src="1" tgt="25" wght="-0.36376623481718368" />
        <Con id="58" src="2" tgt="19" wght="4.6296497108414769" />
        <Con id="106" src="6" tgt="15" wght="4.9005263205617666" />
        <Con id="130" src="7" tgt="26" wght="-4.9254992625696019" />
        <Con id="138" src="8" tgt="21" wght="5" />
        <Con id="145" src="9" tgt="15" wght="1.5664368086873626" />
        <Con id="161" src="10" tgt="18" wght="0.12618536610934739" />
        <Con id="177" src="11" tgt="21" wght="-2.3444334417581558" />
        <Con id="181" src="11" tgt="25" wght="-3.818484041839838" />
        <Con id="185" src="12" tgt="16" wght="1.3125359389435469" />
        <Con id="193" src="12" tgt="24" wght="-1.553392906221303" />
        <Con id="196" src="12" tgt="27" wght="4.1377948821647017" />
        <Con id="203" src="13" tgt="21" wght="-0.49042929196889573" />
        <Con id="204" src="13" tgt="22" wght="-1.6713686597346007" />
        <Con id="210" src="14" tgt="15" wght="2.4707727320492268" />
        <Con id="225" src="5" tgt="26" wght="2.8372835496527848" />
        <Con id="244" src="12" tgt="25" wght="3.806933369487524" />
        <Con id="249" src="5" tgt="15" wght="-1.4343053763828486" />
        <Con id="258" src="3" tgt="18" wght="1.7699682467059019" />
        <Con id="270" src="10" tgt="19" wght="-5" />
        <Con id="282" src="2" tgt="25" wght="2.6082143094390631" />
        <Con id="294" src="7" tgt="20" wght="3.0331171028665969" />
        <Con id="300" src="12" tgt="19" wght="0.40416513103991747" />
        <Con id="301" src="1" tgt="23" wght="2.0323845185339451" />
        <Con id="305" src="6" tgt="16" wght="-1.8875029403716326" />
        <Con id="309" src="3" tgt="23" wght="-1.6856393228107167" />
        <Con id="326" src="4" tgt="16" wght="-0.53480322007089853" />
        <Con id="341" src="9" tgt="20" wght="-2.6623533014208078" />
        <Con id="350" src="0" tgt="19" wght="2.6810589011002013" />
        <Con id="360" src="7" tgt="25" wght="-0.7026298302784032" />
        <Con id="420" src="10" tgt="21" wght="-4.82314822729677" />
      </Connections>
    </Network>
    <Network id="6789" birthGen="84" fitness="2.1249961853027344">
      <Nodes>
        <Node type="bias" id="0" />
        <Node type="in" id="1" />
        <Node type="in" id="2" />
        <Node type="in" id="3" />
        <Node type="in" id="4" />
        <Node type="in" id="5" />
        <Node type="in" id="6" />
        <Node type="in" id="7" />
        <Node type="in" id="8" />
        <Node type="in" id="9" />
        <Node type="in" id="10" />
        <Node type="in" id="11" />
        <Node type="in" id="12" />
        <Node type="in" id="13" />
        <Node type="in" id="14" />
        <Node type="out" id="15" />
        <Node type="out" id="16" />
        <Node type="out" id="17" />
        <Node type="out" id="18" />
        <Node type="out" id="19" />
        <Node type="out" id="20" />
        <Node type="out" id="21" />
        <Node type="out" id="22" />
        <Node type="out" id="23" />
        <Node type="out" id="24" />
        <Node type="out" id="25" />
        <Node type="out" id="26" />
        <Node type="out" id="27" />
      </Nodes>
      <Connections>
        <Con id="28" src="0" tgt="15" wght="-1.641841716369242" />
        <Con id="29" src="0" tgt="16" wght="4.43645336255809" />
        <Con id="34" src="0" tgt="21" wght="1.5615618906055233" />
        <Con id="37" src="0" tgt="24" wght="0.46833083589548363" />
        <Con id="38" src="0" tgt="25" wght="-3.8182098267973865" />
        <Con id="51" src="1" tgt="25" wght="-0.36376623481718368" />
        <Con id="58" src="2" tgt="19" wght="4.6296497108414769" />
        <Con id="106" src="6" tgt="15" wght="4.9005263205617666" />
        <Con id="130" src="7" tgt="26" wght="-4.9254992625696019" />
        <Con id="138" src="8" tgt="21" wght="4.7083817670774977" />
        <Con id="145" src="9" tgt="15" wght="1.5664368086873626" />
        <Con id="161" src="10" tgt="18" wght="0.12618536610934739" />
        <Con id="177" src="11" tgt="21" wght="-2.3444334417581558" />
        <Con id="181" src="11" tgt="25" wght="-3.818484041839838" />
        <Con id="185" src="12" tgt="16" wght="1.3125359389435469" />
        <Con id="193" src="12" tgt="24" wght="-1.553392906221303" />
        <Con id="196" src="12" tgt="27" wght="4.1377948821647017" />
        <Con id="203" src="13" tgt="21" wght="-0.49042929196889573" />
        <Con id="204" src="13" tgt="22" wght="-1.6713686597346007" />
        <Con id="210" src="14" tgt="15" wght="2.4707727320492268" />
        <Con id="225" src="5" tgt="26" wght="2.8372835496527848" />
        <Con id="244" src="12" tgt="25" wght="3.806933369487524" />
        <Con id="249" src="5" tgt="15" wght="-1.4343053763828486" />
        <Con id="258" src="3" tgt="18" wght="1.7699682467059019" />
