<?xml version="1.0" encoding="utf-8"?>
<Root>
  <ActivationFunctions>
    <Fn id="0" name="SteepenedSigmoid" prob="1" />
  </ActivationFunctions>
  <Networks>
    <Network id="124810" birthGen="166" fitness="2.5">
      <Nodes>
        <Node type="bias" id="0" />
        <Node type="in" id="1" />
        <Node type="in" id="2" />
        <Node type="in" id="3" />
        <Node type="in" id="4" />
        <Node type="in" id="5" />
        <Node type="in" id="6" />
        <Node type="in" id="7" />
        <Node type="in" id="8" />
        <Node type="in" id="9" />
        <Node type="in" id="10" />
        <Node type="in" id="11" />
        <Node type="in" id="12" />
        <Node type="in" id="13" />
        <Node type="in" id="14" />
        <Node type="out" id="15" />
        <Node type="out" id="16" />
        <Node type="out" id="17" />
        <Node type="out" id="18" />
        <Node type="out" id="19" />
        <Node type="out" id="20" />
        <Node type="out" id="21" />
        <Node type="out" id="22" />
        <Node type="out" id="23" />
        <Node type="out" id="24" />
        <Node type="out" id="25" />
        <Node type="out" id="26" />
        <Node type="out" id="27" />
        <Node type="hid" id="408" />
        <Node type="hid" id="559" />
        <Node type="hid" id="682" />
        <Node type="hid" id="819" />
        <Node type="hid" id="1390" />
        <Node type="hid" id="1747" />
        <Node type="hid" id="1788" />
        <Node type="hid" id="1889" />
        <Node type="hid" id="1927" />
        <Node type="hid" id="2072" />
        <Node type="hid" id="2079" />
        <Node type="hid" id="2131" />
        <Node type="hid" id="2276" />
        <Node type="hid" id="2359" />
        <Node type="hid" id="2394" />
        <Node type="hid" id="2692" />
        <Node type="hid" id="2902" />
        <Node type="hid" id="3166" />
        <Node type="hid" id="3237" />
        <Node type="hid" id="3507" />
        <Node type="hid" id="3606" />
        <Node type="hid" id="3651" />
        <Node type="hid" id="3779" />
        <Node type="hid" id="3809" />
        <Node type="hid" id="3881" />
        <Node type="hid" id="3958" />
        <Node type="hid" id="4023" />
        <Node type="hid" id="4111" />
        <Node type="hid" id="4510" />
        <Node type="hid" id="4525" />
        <Node type="hid" id="4568" />
      </Nodes>
      <Connections>
        <Con id="47" src="1" tgt="21" wght="-1.206203419567252" />
        <Con id="89" src="4" tgt="24" wght="2.3817565776277423" />
        <Con id="97" src="5" tgt="19" wght="-0.11997190530383078" />
        <Con id="161" src="10" tgt="18" wght="-3.115193147111027" />
        <Con id="268" src="8" tgt="19" wght="-0.90287724909888745" />
        <Con id="290" src="9" tgt="16" wght="-1.1136023415280474" />
        <Con id="302" src="2" tgt="23" wght="2.366470823746551" />
        <Con id="328" src="3" tgt="15" wght="-5" />
        <Con id="333" src="10" tgt="26" wght="0.5691862816725316" />
        <Con id="337" src="7" tgt="18" wght="1.6750652157825321" />
        <Con id="345" src="10" tgt="20" wght="0.86604156316357406" />
        <Con id="410" src="408" tgt="20" wght="-0.26549259200692177" />
        <Con id="417" src="13" tgt="27" wght="-0.57440454233766136" />
        <Con id="419" src="2" tgt="27" wght="2.3880694728786276" />
        <Con id="457" src="14" tgt="15" wght="2.4386305659661645" />
        <Con id="519" src="6" tgt="19" wght="2.5058197066838015" />
        <Con id="534" src="0" tgt="17" wght="3.0539979151533743" />
        <Con id="560" src="1" tgt="559" wght="-3.0429495320760704" />
        <Con id="604" src="8" tgt="18" wght="-5" />
        <Con id="619" src="10" tgt="15" wght="5" />
        <Con id="628" src="12" tgt="18" wght="3.0043618392452371" />
        <Con id="667" src="7" tgt="24" wght="2.7886826758755374" />
        <Con id="683" src="559" tgt="682" wght="0.91437192390681332" />
        <Con id="684" src="682" tgt="26" wght="4.637039384881569" />
        <Con id="693" src="3" tgt="24" wght="-4.3370845903000825" />
        <Con id="703" src="14" tgt="559" wght="-0.011069432159684478" />
        <Con id="726" src="8" tgt="559" wght="0.72206815745627739" />
        <Con id="815" src="3" tgt="21" wght="-4.3290330386383111" />
        <Con id="821" src="819" tgt="19" wght="5" />
        <Con id="845" src="8" tgt="408" wght="-0.76303278212946213" />
        <Con id="852" src="8" tgt="24" wght="2.4807518077895456" />
        <Con id="856" src="14" tgt="19" wght="-4.3526637824758323" />
        <Con id="872" src="819" tgt="18" wght="-1.43832390872021" />
        <Con id="929" src="12" tgt="21" wght="-3.936938511325895" />
        <Con id="949" src="6" tgt="25" wght="-0.32633505338473784" />
        <Con id="983" src="682" tgt="23" wght="-3.5758226855241309" />
        <Con id="1056" src="7" tgt="19" wght="-4.5499503533232888" />
        <Con id="1095" src="6" tgt="16" wght="0.99326121878866358" />
        <Con id="1107" src="9" tgt="17" wght="0.62436362672642454" />
        <Con id="1151" src="4" tgt="21" wght="3.8228745963472983" />
        <Con id="1160" src="14" tgt="17" wght="3.942431861268048" />
        <Con id="1293" src="8" tgt="682" wght="-3.8896608552650127" />
        <Con id="1373" src="5" tgt="25" wght="4.4710310368942618" />
        <Con id="1391" src="408" tgt="1390" wght="2.3682066637466752" />
        <Con id="1392" src="1390" tgt="23" wght="-1.1351657929367334" />
        <Con id="1422" src="408" tgt="559" wght="-3.6371723301511549" />
        <Con id="1427" src="11" tgt="819" wght="2.0288270153105259" />
        <Con id="1455" src="9" tgt="27" wght="2.7940008625953414" />
        <Con id="1473" src="1390" tgt="682" wght="-0.1811658223734457" />
        <Con id="1475" src="12" tgt="25" wght="1.5098085805577979" />
        <Con id="1479" src="1" tgt="819" wght="5" />
        <Con id="1490" src="3" tgt="20" wght="3.2205613756082538" />
        <Con id="1494" src="8" tgt="27" wght="2.4862533858232005" />
        <Con id="1495" src="559" tgt="15" wght="-1.7350367056954679" />
        <Con id="1499" src="13" tgt="25" wght="5" />
        <Con id="1514" src="6" tgt="682" wght="-4.5477033872157335" />
        <Con id="1515" src="9" tgt="24" wght="-0.69428291479183568" />
        <Con id="1516" src="819" tgt="15" wght="1.9209300739169177" />
        <Con id="1534" src="3" tgt="22" wght="4.9815459789713108" />
        <Con id="1551" src="13" tgt="16" wght="-0.91317383638293492" />
        <Con id="1556" src="11" tgt="15" wght="2.1086064031319096" />
        <Con id="1557" src="6" tgt="23" wght="1.2402226896301849" />
        <Con id="1562" src="8" tgt="23" wght="1.2531481119994508" />
        <Con id="1572" src="4" tgt="408" wght="-0.99595084912978638" />
        <Con id="1574" src="559" tgt="26" wght="1.3205757439805204" />
        <Con id="1577" src="7" tgt="819" wght="3.0724909534211284" />
        <Con id="1579" src="11" tgt="19" wght="1.4457665190445004" />
        <Con id="1581" src="9" tgt="682" wght="0.72437718800489748" />
        <Con id="1582" src="7" tgt="23" wght="0.40076986022899419" />
        <Con id="1595" src="5" tgt="21" wght="3.7218391946806233" />
        <Con id="1604" src="1" tgt="26" wght="4.50497942826084" />
        <Con id="1616" src="408" tgt="16" wght="-0.26163179320401975" />
        <Con id="1618" src="2" tgt="408" wght="-0.6922497999595365" />
        <Con id="1660" src="819" tgt="24" wght="-1.6898334339697878" />
        <Con id="1661" src="7" tgt="682" wght="-0.18970379879140647" />
        <Con id="1691" src="10" tgt="25" wght="2.9391175834462047" />
        <Con id="1718" src="11" tgt="20" wght="2.401098331787372" />
        <Con id="1725" src="7" tgt="408" wght="2.5912039389494339" />
        <Con id="1741" src="5" tgt="1390" wght="5" />
        <Con id="1744" src="1390" tgt="24" wght="-3.236980623402153" />
        <Con id="1748" src="13" tgt="1747" wght="5" />
        <Con id="1749" src="1747" tgt="819" wght="-3.0451281377967243" />
        <Con id="1760" src="408" tgt="15" wght="-0.4195402075526915" />
        <Con id="1767" src="2" tgt="16" wght="-0.77179450839475" />
        <Con id="1768" src="819" tgt="25" wght="-3.75357847962446" />
        <Con id="1789" src="2" tgt="1788" wght="-4.4348608469590545" />
        <Con id="1790" src="1788" tgt="22" wght="-1.2839103780367094" />
        <Con id="1822" src="4" tgt="23" wght="-2.5530717290921321" />
        <Con id="1832" src="9" tgt="1747" wght="0.023784934212859373" />
        <Con id="1833" src="0" tgt="22" wght="4.8389603486863191" />
        <Con id="1840" src="682" tgt="1747" wght="-1.3961967904036008" />
        <Con id="1845" src="9" tgt="408" wght="-2.3900560139302" />
        <Con id="1864" src="1788" tgt="819" wght="0.2614355546941281" />
        <Con id="1865" src="1747" tgt="25" wght="-1.3900162209122005" />
        <Con id="1879" src="1788" tgt="17" wght="0.16386618372052908" />
        <Con id="1890" src="14" tgt="1889" wght="4.9179619597271085" />
        <Con id="1891" src="1889" tgt="408" wght="2.0840183195646418" />
        <Con id="1913" src="1788" tgt="559" wght="0.019814929725876396" />
        <Con id="1928" src="2" tgt="1927" wght="-2.0803166301832547" />
        <Con id="1929" src="1927" tgt="21" wght="1.9806529880279222" />
        <Con id="1942" src="1" tgt="1747" wght="4.9912542989477515" />
        <Con id="1943" src="4" tgt="1747" wght="-3.6415395978838205" />
        <Con id="1976" src="3" tgt="1788" wght="-4.0764708887616354" />
        <Con id="1992" src="1747" tgt="15" wght="-1.0990527133547938" />
        <Con id="2007" src="1889" tgt="1747" wght="-1.1535631747161719" />
        <Con id="2026" src="1747" tgt="1927" wght="-3.9226307445461783" />
        <Con id="2054" src="1788" tgt="16" wght="2.6450389487064663" />
        <Con id="2074" src="2072" tgt="408" wght="-0.060638754426485343" />
        <Con id="2080" src="2" tgt="2079" wght="0.011386885307729244" />
        <Con id="2081" src="2079" tgt="19" wght="5" />
        <Con id="2095" src="13" tgt="17" wght="-2.5687880465211657" />
        <Con id="2103" src="6" tgt="17" wght="-1.8027307963007149" />
        <Con id="2117" src="7" tgt="1889" wght="-1.2861456248395546" />
        <Con id="2132" src="7" tgt="2131" wght="-1.4371449676690715" />
        <Con id="2133" src="2131" tgt="559" wght="2.4510134371890024" />
        <Con id="2157" src="2131" tgt="819" wght="2.4406780069693923" />
        <Con id="2226" src="4" tgt="1927" wght="1.3381332514097382" />
        <Con id="2234" src="7" tgt="1927" wght="2.7852163319664633" />
        <Con id="2237" src="2131" tgt="23" wght="-4.7268896324608045" />
        <Con id="2277" src="2" tgt="2276" wght="-1.7191330127164506" />
        <Con id="2278" src="2276" tgt="18" wght="-5" />
        <Con id="2309" src="8" tgt="1889" wght="-3.9682420410587973" />
        <Con id="2330" src="3" tgt="2079" wght="-1.0286151409030864" />
        <Con id="2343" src="2276" tgt="20" wght="1.6790625919716149" />
        <Con id="2360" src="0" tgt="2359" wght="1.4091335591593197" />
        <Con id="2362" src="2359" tgt="20" wght="-4.9690642338025039" />
        <Con id="2381" src="1889" tgt="21" wght="-0.98664456180900406" />
        <Con id="2384" src="2079" tgt="15" wght="-2.4279280168954069" />
        <Con id="2386" src="1927" tgt="27" wght="-1.7154481938028658" />
        <Con id="2395" src="6" tgt="2394" wght="2.5587261377733457" />
        <Con id="2396" src="2394" tgt="2072" wght="5" />
        <Con id="2406" src="2072" tgt="20" wght="-1.3697711424902081" />
        <Con id="2420" src="1390" tgt="2359" wght="-4.962665744963795" />
        <Con id="2421" src="2359" tgt="1747" wght="0.18422730276720212" />
        <Con id="2436" src="2276" tgt="24" wght="-2.3618346046750887" />
        <Con id="2438" src="2276" tgt="17" wght="-2.60094518261634" />
        <Con id="2445" src="7" tgt="21" wght="4.2535368558410234" />
        <Con id="2472" src="2072" tgt="1889" wght="2.7785513457255711" />
        <Con id="2475" src="1390" tgt="1747" wght="2.5237536834073384" />
        <Con id="2523" src="2079" tgt="2072" wght="-5" />
        <Con id="2527" src="2131" tgt="1747" wght="0.14316972345113754" />
        <Con id="2681" src="5" tgt="2394" wght="-0.63403794906650635" />
        <Con id="2690" src="12" tgt="1788" wght="-4.9837951079829024" />
        <Con id="2693" src="7" tgt="2692" wght="3.9400002260046265" />
        <Con id="2694" src="2692" tgt="22" wght="-5" />
        <Con id="2713" src="1788" tgt="2359" wght="-5" />
        <Con id="2761" src="2072" tgt="2359" wght="2.9967199203359307" />
        <Con id="2804" src="2692" tgt="2359" wght="-5" />
        <Con id="2867" src="2131" tgt="408" wght="-4.0980150538770053" />
        <Con id="2904" src="2902" tgt="408" wght="-0.77131468403648284" />
        <Con id="2938" src="2276" tgt="22" wght="-1.3160622766338852" />
        <Con id="2966" src="1927" tgt="22" wght="4.5810503746597719" />
        <Con id="3033" src="408" tgt="2692" wght="-2.9299598059402592" />
        <Con id="3060" src="2359" tgt="17" wght="-0.73237361577804627" />
        <Con id="3167" src="13" tgt="3166" wght="-0.59373201039820422" />
        <Con id="3168" src="3166" tgt="2902" wght="-4.8205301258713007" />
        <Con id="3176" src="4" tgt="2394" wght="-2.17752477619797" />
        <Con id="3238" src="559" tgt="3237" wght="-2.6814399426802993" />
        <Con id="3239" src="3237" tgt="22" wght="0.27390561517176926" />
        <Con id="3401" src="408" tgt="3237" wght="-2.4585888488218188" />
        <Con id="3425" src="3166" tgt="2692" wght="2.8956492492033159" />
        <Con id="3484" src="2692" tgt="21" wght="0.99353530618362162" />
        <Con id="3508" src="2359" tgt="3507" wght="3.1950006507370317" />
        <Con id="3509" src="3507" tgt="25" wght="-3.1182839907705784" />
        <Con id="3533" src="14" tgt="24" wght="-4.5101589936601805" />
        <Con id="3538" src="6" tgt="18" wght="-3.6031644407472623" />
        <Con id="3548" src="11" tgt="2359" wght="4.8861923458064869" />
        <Con id="3580" src="13" tgt="2692" wght="2.6224643208835641" />
        <Con id="3594" src="5" tgt="2692" wght="0.7110159398334075" />
        <Con id="3607" src="3166" tgt="3606" wght="2.8168348623807993" />
        <Con id="3608" src="3606" tgt="559" wght="4.4713888850556405" />
        <Con id="3612" src="9" tgt="23" wght="-4.4219583957796509" />
        <Con id="3631" src="2079" tgt="25" wght="-2.6167347886621024" />
        <Con id="3652" src="1390" tgt="3651" wght="-0.97913165287799608" />
        <Con id="3653" src="3651" tgt="25" wght="3.0239268129990662" />
        <Con id="3659" src="5" tgt="1927" wght="-0.042009508195421708" />
        <Con id="3660" src="2394" tgt="2692" wght="0.014574006613496573" />
        <Con id="3687" src="3166" tgt="25" wght="-0.06341400992258614" />
        <Con id="3710" src="2359" tgt="18" wght="0.12349671113134442" />
        <Con id="3721" src="2079" tgt="2692" wght="-0.87130101112007086" />
        <Con id="3728" src="1927" tgt="819" wght="2.2858556639028498" />
        <Con id="3742" src="13" tgt="1927" wght="0.22655890798076128" />
        <Con id="3769" src="2079" tgt="17" wght="0.62230491684389333" />
        <Con id="3774" src="682" tgt="18" wght="1.7682841305046297" />
        <Con id="3780" src="14" tgt="3779" wght="4.5467230456814285" />
        <Con id="3781" src="3779" tgt="682" wght="4.2951828008517623" />
        <Con id="3782" src="4" tgt="20" wght="-3.1411183147487907" />
        <Con id="3811" src="3809" tgt="20" wght="-0.062931881287330835" />
        <Con id="3812" src="1" tgt="2902" wght="-4.7914772427524168" />
        <Con id="3855" src="3507" tgt="3809" wght="3.0574016403255833" />
        <Con id="3867" src="3651" tgt="3606" wght="-5" />
        <Con id="3872" src="13" tgt="20" wght="2.8154049334065046" />
        <Con id="3882" src="13" tgt="3881" wght="0.52257609764537383" />
        <Con id="3883" src="3881" tgt="819" wght="2.9605989896290739" />
        <Con id="3904" src="1" tgt="27" wght="-4.8779129695571584" />
        <Con id="3931" src="3881" tgt="2131" wght="1.5796123258769512" />
        <Con id="3933" src="4" tgt="2902" wght="3.6298274729249123" />
        <Con id="3953" src="2276" tgt="2394" wght="0.43368706338093937" />
        <Con id="3959" src="408" tgt="3958" wght="1.6970311128564146" />
        <Con id="3960" src="3958" tgt="22" wght="4.8292175732528309" />
        <Con id="4009" src="7" tgt="25" wght="2.6489898784064256" />
        <Con id="4024" src="8" tgt="4023" wght="2.8081136457368383" />
        <Con id="4025" src="4023" tgt="1747" wght="5" />
        <Con id="4029" src="2359" tgt="4023" wght="-2.443693685046143" />
        <Con id="4112" src="8" tgt="4111" wght="5" />
        <Con id="4113" src="4111" tgt="3809" wght="5" />
        <Con id="4122" src="3958" tgt="559" wght="-5" />
        <Con id="4124" src="7" tgt="3779" wght="2.9732486493197574" />
        <Con id="4129" src="3809" tgt="27" wght="-4.8048342542619267" />
        <Con id="4153" src="3881" tgt="17" wght="1.7210892065372898" />
        <Con id="4188" src="408" tgt="21" wght="3.391912215207137" />
        <Con id="4202" src="3809" tgt="21" wght="-4.4844484886841522" />
        <Con id="4209" src="14" tgt="2359" wght="-0.36800154745870928" />
        <Con id="4226" src="0" tgt="819" wght="1.4167945402911584" />
        <Con id="4240" src="11" tgt="3606" wght="3.785896042632432" />
        <Con id="4337" src="4023" tgt="19" wght="-0.60776580590754747" />
        <Con id="4367" src="1889" tgt="3507" wght="-3.6304043512791395" />
        <Con id="4465" src="1927" tgt="26" wght="-1.0370943960529433" />
        <Con id="4467" src="11" tgt="21" wght="2.9477872972373467" />
        <Con id="4511" src="0" tgt="4510" wght="0.46000117011217057" />
        <Con id="4512" src="4510" tgt="2394" wght="5" />
        <Con id="4526" src="2131" tgt="4525" wght="-2.4527926599784795" />
        <Con id="4527" src="4525" tgt="2276" wght="4.5109997880201336" />
        <Con id="4531" src="9" tgt="25" wght="-1.5216260543093085" />
        <Con id="4554" src="9" tgt="4111" wght="-3.3053621771020358" />
        <Con id="4569" src="12" tgt="4568" wght="2.7504878398030996" />
        <Con id="4570" src="4568" tgt="20" wght="4.776262316136024" />
        <Con id="4588" src="2276" tgt="1889" wght="-2.8620464215055108" />
        <Con id="4591" src="4510" tgt="3809" wght="-3.627125412706862" />
        <Con id="4650" src="819" tgt="4568" wght="-4.7701194789260626" />
        <Con id="4788" src="2072" tgt="3809" wght="-0.26258653495460749" />
        <Con id="4839" src="9" tgt="3237" wght="-0.23256839718669653" />
      </Connections>
    </Network>
  </Networks>
</Root>