<?xml version="1.0" encoding="utf-8"?>
<Root>
  <ActivationFunctions>
    <Fn id="0" name="SteepenedSigmoid" prob="1" />
  </ActivationFunctions>
  <Networks>
    <Network id="12885" birthGen="10" fitness="2.625">
      <Nodes>
        <Node type="bias" id="0" />
        <Node type="in" id="1" />
        <Node type="in" id="2" />
        <Node type="in" id="3" />
        <Node type="in" id="4" />
        <Node type="in" id="5" />
        <Node type="in" id="6" />
        <Node type="in" id="7" />
        <Node type="in" id="8" />
        <Node type="in" id="9" />
        <Node type="in" id="10" />
        <Node type="in" id="11" />
        <Node type="in" id="12" />
        <Node type="in" id="13" />
        <Node type="in" id="14" />
        <Node type="out" id="15" />
        <Node type="out" id="16" />
        <Node type="out" id="17" />
        <Node type="out" id="18" />
        <Node type="out" id="19" />
        <Node type="out" id="20" />
        <Node type="out" id="21" />
        <Node type="out" id="22" />
        <Node type="out" id="23" />
        <Node type="out" id="24" />
        <Node type="out" id="25" />
        <Node type="out" id="26" />
        <Node type="out" id="27" />
        <Node type="hid" id="530" />
      </Nodes>
      <Connections>
        <Con id="33" src="0" tgt="20" wght="-1.9585789003644516" />
        <Con id="34" src="0" tgt="21" wght="-1.5799951620797261" />
        <Con id="36" src="0" tgt="23" wght="-3.7212584586814046" />
        <Con id="89" src="4" tgt="24" wght="-0.12496527217377568" />
        <Con id="94" src="5" tgt="16" wght="2.7326965819468372" />
        <Con id="105" src="5" tgt="27" wght="3.8597564697176887" />
        <Con id="109" src="6" tgt="18" wght="3.3681941172108054" />
        <Con id="126" src="7" tgt="22" wght="1.4974564948836528" />
        <Con id="146" src="9" tgt="16" wght="5" />
        <Con id="160" src="10" tgt="17" wght="1.9705969002097845" />
        <Con id="267" src="14" tgt="26" wght="-2.0592312250792868" />
        <Con id="279" src="7" tgt="18" wght="1.29987631179758" />
        <Con id="308" src="3" tgt="25" wght="5" />
        <Con id="331" src="12" tgt="24" wght="5" />
        <Con id="366" src="12" tgt="23" wght="-3.506306940689683" />
        <Con id="460" src="9" tgt="25" wght="0.955368266440928" />
        <Con id="531" src="0" tgt="530" wght="0.42629345100473104" />
        <Con id="532" src="530" tgt="17" wght="4.9820527427779373" />
        <Con id="538" src="3" tgt="19" wght="-3.5528050691273041" />
      </Connections>
    </Network>
  </Networks>
</Root>