<?xml version="1.0" encoding="utf-8"?>
<Root>
  <ActivationFunctions>
    <Fn id="0" name="SteepenedSigmoid" prob="1" />
  </ActivationFunctions>
  <Networks>
    <Network id="58207" birthGen="510" fitness="4.734375">
      <Nodes>
        <Node type="bias" id="0" />
        <Node type="in" id="1" />
        <Node type="in" id="2" />
        <Node type="in" id="3" />
        <Node type="in" id="4" />
        <Node type="in" id="5" />
        <Node type="in" id="6" />
        <Node type="in" id="7" />
        <Node type="in" id="8" />
        <Node type="in" id="9" />
        <Node type="in" id="10" />
        <Node type="in" id="11" />
        <Node type="in" id="12" />
        <Node type="in" id="13" />
        <Node type="in" id="14" />
        <Node type="out" id="15" />
        <Node type="out" id="16" />
        <Node type="out" id="17" />
        <Node type="out" id="18" />
        <Node type="out" id="19" />
        <Node type="out" id="20" />
        <Node type="out" id="21" />
        <Node type="out" id="22" />
        <Node type="out" id="23" />
        <Node type="out" id="24" />
        <Node type="out" id="25" />
        <Node type="out" id="26" />
        <Node type="out" id="27" />
        <Node type="hid" id="530" />
      </Nodes>
      <Connections>
        <Con id="33" src="0" tgt="20" wght="-3.9403743524248362" />
        <Con id="34" src="0" tgt="21" wght="-4.7759601004327825" />
        <Con id="89" src="4" tgt="24" wght="1.1781693816235603" />
        <Con id="94" src="5" tgt="16" wght="-1.8846236555685261" />
        <Con id="105" src="5" tgt="27" wght="2.1882573511831032" />
        <Con id="109" src="6" tgt="18" wght="3.0384900416954359" />
        <Con id="126" src="7" tgt="22" wght="1.4605579554625581" />
        <Con id="146" src="9" tgt="16" wght="4.8799058750010964" />
        <Con id="160" src="10" tgt="17" wght="2.5413470342755318" />
        <Con id="267" src="14" tgt="26" wght="-0.97426857447224224" />
        <Con id="279" src="7" tgt="18" wght="-1.5347310166311288" />
        <Con id="308" src="3" tgt="25" wght="3.0366843852941483" />
        <Con id="331" src="12" tgt="24" wght="-2.2112090351311045" />
        <Con id="366" src="12" tgt="23" wght="5" />
        <Con id="460" src="9" tgt="25" wght="-1.2867451698571148" />
        <Con id="531" src="0" tgt="530" wght="-0.82572236512790009" />
        <Con id="532" src="530" tgt="17" wght="4.8840143205598" />
        <Con id="591" src="14" tgt="22" wght="-2.1674542005695474" />
        <Con id="592" src="12" tgt="22" wght="-3.7011963734718734" />
        <Con id="598" src="3" tgt="22" wght="1.7549277098003235" />
        <Con id="604" src="4" tgt="16" wght="1.7921045003458858" />
        <Con id="613" src="5" tgt="25" wght="1.6478487410470932" />
        <Con id="624" src="13" tgt="21" wght="3.6724425386637449" />
        <Con id="625" src="1" tgt="24" wght="-3.9168685897989404" />
        <Con id="626" src="5" tgt="17" wght="-4.698535269126296" />
        <Con id="636" src="0" tgt="25" wght="-3.0694026312686" />
        <Con id="649" src="14" tgt="24" wght="-5" />
        <Con id="657" src="13" tgt="26" wght="-4.9931223703698162" />
        <Con id="662" src="13" tgt="17" wght="-0.49848116934299469" />
        <Con id="663" src="5" tgt="21" wght="3.5921142266009372" />
        <Con id="667" src="530" tgt="15" wght="-4.4968021381646395" />
        <Con id="679" src="11" tgt="27" wght="0.91874040406971247" />
        <Con id="685" src="14" tgt="19" wght="-0.11703922177161429" />
        <Con id="687" src="8" tgt="23" wght="3.0341287008475915" />
        <Con id="709" src="5" tgt="22" wght="1.0142576738152942" />
        <Con id="735" src="10" tgt="25" wght="-0.89342460382252531" />
        <Con id="751" src="8" tgt="17" wght="-1.9737312478275653" />
        <Con id="762" src="8" tgt="15" wght="-0.3494988102465868" />
        <Con id="774" src="4" tgt="22" wght="-0.86518761184003889" />
        <Con id="787" src="3" tgt="19" wght="-1.6468946565319045" />
        <Con id="790" src="0" tgt="22" wght="-4.15316539533627" />
        <Con id="809" src="530" tgt="20" wght="-5" />
        <Con id="816" src="2" tgt="21" wght="-1.3312680518443605" />
        <Con id="854" src="7" tgt="19" wght="-0.49804566425350405" />
        <Con id="892" src="14" tgt="27" wght="-2.85879420605139" />
      </Connections>
    </Network>
  </Networks>
</Root>