<?xml version="1.0" encoding="utf-8"?>
<Root>
  <ActivationFunctions>
    <Fn id="0" name="SteepenedSigmoid" prob="1" />
  </ActivationFunctions>
  <Networks>
    <Network id="106197" birthGen="94" fitness="3.75">
      <Nodes>
        <Node type="bias" id="0" />
        <Node type="in" id="1" />
        <Node type="in" id="2" />
        <Node type="in" id="3" />
        <Node type="in" id="4" />
        <Node type="in" id="5" />
        <Node type="in" id="6" />
        <Node type="in" id="7" />
        <Node type="in" id="8" />
        <Node type="in" id="9" />
        <Node type="in" id="10" />
        <Node type="in" id="11" />
        <Node type="in" id="12" />
        <Node type="in" id="13" />
        <Node type="in" id="14" />
        <Node type="out" id="15" />
        <Node type="out" id="16" />
        <Node type="out" id="17" />
        <Node type="out" id="18" />
        <Node type="out" id="19" />
        <Node type="out" id="20" />
        <Node type="out" id="21" />
        <Node type="out" id="22" />
        <Node type="out" id="23" />
        <Node type="out" id="24" />
        <Node type="out" id="25" />
        <Node type="out" id="26" />
        <Node type="out" id="27" />
        <Node type="hid" id="530" />
        <Node type="hid" id="1397" />
        <Node type="hid" id="1941" />
        <Node type="hid" id="2292" />
      </Nodes>
      <Connections>
        <Con id="33" src="0" tgt="20" wght="-1.2197291165652362" />
        <Con id="34" src="0" tgt="21" wght="-0.0038486550285358745" />
        <Con id="89" src="4" tgt="24" wght="0.39133608509155282" />
        <Con id="94" src="5" tgt="16" wght="-3.7000047363001323" />
        <Con id="105" src="5" tgt="27" wght="-0.18035475308154392" />
        <Con id="109" src="6" tgt="18" wght="2.4418878947742835" />
        <Con id="126" src="7" tgt="22" wght="3.00368231045618" />
        <Con id="146" src="9" tgt="16" wght="0.42872715717519205" />
        <Con id="160" src="10" tgt="17" wght="-2.262625670991838" />
        <Con id="279" src="7" tgt="18" wght="4.8950719879940152" />
        <Con id="308" src="3" tgt="25" wght="-5" />
        <Con id="331" src="12" tgt="24" wght="-2.0851108375447112" />
        <Con id="366" src="12" tgt="23" wght="4.3895050479464306" />
        <Con id="531" src="0" tgt="530" wght="-1.0352847585454583" />
        <Con id="532" src="530" tgt="17" wght="-0.552215244836377" />
        <Con id="591" src="14" tgt="22" wght="2.25177028943819" />
        <Con id="592" src="12" tgt="22" wght="-4.2937348884172977" />
        <Con id="598" src="3" tgt="22" wght="-3.6280539477768792" />
        <Con id="604" src="4" tgt="16" wght="0.037251712602648368" />
        <Con id="613" src="5" tgt="25" wght="-2.0091742166087965" />
        <Con id="624" src="13" tgt="21" wght="-3.8794835404559396" />
        <Con id="625" src="1" tgt="24" wght="2.7959960888218314" />
        <Con id="626" src="5" tgt="17" wght="-2.4924105607021732" />
        <Con id="636" src="0" tgt="25" wght="-2.6217279896402519" />
        <Con id="649" src="14" tgt="24" wght="-5" />
        <Con id="657" src="13" tgt="26" wght="-4.5441175417849662" />
        <Con id="662" src="13" tgt="17" wght="3.50907631949933" />
        <Con id="663" src="5" tgt="21" wght="-0.68330715595676084" />
        <Con id="667" src="530" tgt="15" wght="-2.9231247788942376" />
        <Con id="679" src="11" tgt="27" wght="-1.3868659894388038" />
        <Con id="685" src="14" tgt="19" wght="-5" />
        <Con id="687" src="8" tgt="23" wght="-0.37871640175580978" />
        <Con id="709" src="5" tgt="22" wght="2.1695149211021949" />
        <Con id="735" src="10" tgt="25" wght="5" />
        <Con id="751" src="8" tgt="17" wght="-5" />
        <Con id="762" src="8" tgt="15" wght="-4.1918097667342229" />
        <Con id="787" src="3" tgt="19" wght="2.7055085559617815" />
        <Con id="809" src="530" tgt="20" wght="-4.5236750552430749" />
        <Con id="816" src="2" tgt="21" wght="-1.6305127618773618" />
        <Con id="854" src="7" tgt="19" wght="-3.0642585562586291" />
        <Con id="892" src="14" tgt="27" wght="-0.53782812579502925" />
        <Con id="1334" src="1" tgt="27" wght="-5" />
        <Con id="1347" src="9" tgt="24" wght="-1.6746937316371155" />
        <Con id="1356" src="12" tgt="16" wght="-3.1389225877414324" />
        <Con id="1360" src="2" tgt="25" wght="0.28316986172264491" />
        <Con id="1372" src="12" tgt="26" wght="-0.76951441626790684" />
        <Con id="1375" src="11" tgt="17" wght="0.36825348870841085" />
        <Con id="1384" src="11" tgt="21" wght="-0.28051944449543953" />
        <Con id="1385" src="5" tgt="26" wght="0.28190840648855675" />
        <Con id="1390" src="13" tgt="18" wght="-0.48820457394968947" />
        <Con id="1392" src="8" tgt="24" wght="2.9187065482218348" />
        <Con id="1398" src="4" tgt="1397" wght="2.8407392955731594" />
        <Con id="1399" src="1397" tgt="22" wght="3.4643228038182063" />
        <Con id="1400" src="12" tgt="20" wght="0.92421897378825979" />
        <Con id="1412" src="9" tgt="18" wght="-5" />
        <Con id="1418" src="1" tgt="18" wght="4.9031840544193983" />
        <Con id="1420" src="5" tgt="18" wght="4.3896020716056228" />
        <Con id="1427" src="2" tgt="23" wght="-4.8522856071988407" />
        <Con id="1428" src="9" tgt="530" wght="0.13729755394123178" />
        <Con id="1444" src="530" tgt="22" wght="-4.5658713966215689" />
        <Con id="1449" src="10" tgt="24" wght="-2.3255211519192431" />
        <Con id="1452" src="6" tgt="20" wght="4.3233496732851791" />
        <Con id="1455" src="3" tgt="15" wght="3.67383994409257" />
        <Con id="1471" src="6" tgt="22" wght="4.6285143669985347" />
        <Con id="1475" src="2" tgt="19" wght="-1.144459007253396" />
        <Con id="1481" src="6" tgt="24" wght="-0.44553823892282352" />
        <Con id="1482" src="14" tgt="21" wght="1.3157325181844532" />
        <Con id="1498" src="530" tgt="1397" wght="0.31638326918388471" />
        <Con id="1512" src="2" tgt="22" wght="-5" />
        <Con id="1519" src="4" tgt="530" wght="-3.4535087388389991" />
        <Con id="1540" src="2" tgt="26" wght="4.8193904524669051" />
        <Con id="1542" src="6" tgt="27" wght="-4.6780831553041935" />
        <Con id="1548" src="5" tgt="15" wght="-5" />
        <Con id="1565" src="0" tgt="26" wght="-4.5814781441949686" />
        <Con id="1579" src="3" tgt="20" wght="3.5597357247024775" />
        <Con id="1585" src="7" tgt="17" wght="3.6037506417348388" />
        <Con id="1593" src="7" tgt="25" wght="-4.7524632886052132" />
        <Con id="1595" src="10" tgt="16" wght="0.83874777331238337" />
        <Con id="1651" src="8" tgt="26" wght="-2.431953666938107" />
        <Con id="1681" src="14" tgt="530" wght="-0.16526252307310896" />
        <Con id="1942" src="7" tgt="1941" wght="-0.88713005885894314" />
        <Con id="1943" src="1941" tgt="530" wght="4.3162452055389036" />
        <Con id="2060" src="1941" tgt="22" wght="-4.9337861128151417" />
        <Con id="2061" src="9" tgt="25" wght="-1.8617736864836185" />
        <Con id="2135" src="1" tgt="23" wght="1.360807128535547" />
        <Con id="2183" src="14" tgt="17" wght="0.33819603140455712" />
        <Con id="2293" src="0" tgt="2292" wght="-4.3219095562358252" />
        <Con id="2294" src="2292" tgt="22" wght="4.2767624044165284" />
      </Connections>
    </Network>
  </Networks>
</Root>