<?xml version="1.0" encoding="utf-8"?>
<Root>
  <ActivationFunctions>
    <Fn id="0" name="SteepenedSigmoid" prob="1" />
  </ActivationFunctions>
  <Networks>
    <Network id="12867" birthGen="9" fitness="0">
      <Nodes>
        <Node type="bias" id="0" />
        <Node type="in" id="1" />
        <Node type="in" id="2" />
        <Node type="in" id="3" />
        <Node type="in" id="4" />
        <Node type="in" id="5" />
        <Node type="in" id="6" />
        <Node type="in" id="7" />
        <Node type="in" id="8" />
        <Node type="in" id="9" />
        <Node type="in" id="10" />
        <Node type="in" id="11" />
        <Node type="in" id="12" />
        <Node type="in" id="13" />
        <Node type="in" id="14" />
        <Node type="out" id="15" />
        <Node type="out" id="16" />
        <Node type="out" id="17" />
        <Node type="out" id="18" />
        <Node type="out" id="19" />
        <Node type="out" id="20" />
        <Node type="out" id="21" />
        <Node type="out" id="22" />
        <Node type="out" id="23" />
        <Node type="out" id="24" />
        <Node type="out" id="25" />
        <Node type="out" id="26" />
        <Node type="out" id="27" />
        <Node type="hid" id="530" />
      </Nodes>
      <Connections>
        <Con id="33" src="0" tgt="20" wght="-1.9585789003644516" />
        <Con id="34" src="0" tgt="21" wght="-1.5799951620797261" />
        <Con id="36" src="0" tgt="23" wght="-2.8194944360446614" />
        <Con id="89" src="4" tgt="24" wght="0.19216510048412427" />
        <Con id="94" src="5" tgt="16" wght="2.7326965819468372" />
        <Con id="105" src="5" tgt="27" wght="3.8597564697176887" />
        <Con id="109" src="6" tgt="18" wght="3.3681941172108054" />
        <Con id="126" src="7" tgt="22" wght="1.4974564948836528" />
        <Con id="146" src="9" tgt="16" wght="-1.0536968511100955" />
        <Con id="160" src="10" tgt="17" wght="1.9705969002097845" />
        <Con id="267" src="14" tgt="26" wght="-1.1621329700574279" />
        <Con id="279" src="7" tgt="18" wght="1.3656165676096998" />
        <Con id="308" src="3" tgt="25" wght="5" />
        <Con id="331" src="12" tgt="24" wght="4.0434527024626732" />
        <Con id="366" src="12" tgt="23" wght="-3.506306940689683" />
        <Con id="460" src="9" tgt="25" wght="-2.9572290173506692" />
        <Con id="531" src="0" tgt="530" wght="0.79487784765660763" />
        <Con id="532" src="530" tgt="17" wght="-4.48406214825809" />
        <Con id="538" src="3" tgt="19" wght="1.7273870250210166" />
      </Connections>
    </Network>
    <Network id="12868" birthGen="9" fitness="0">
      <Nodes>
        <Node type="bias" id="0" />
        <Node type="in" id="1" />
        <Node type="in" id="2" />
        <Node type="in" id="3" />
        <Node type="in" id="4" />
        <Node type="in" id="5" />
        <Node type="in" id="6" />
        <Node type="in" id="7" />
        <Node type="in" id="8" />
        <Node type="in" id="9" />
        <Node type="in" id="10" />
        <Node type="in" id="11" />
        <Node type="in" id="12" />
        <Node type="in" id="13" />
        <Node type="in" id="14" />
        <Node type="out" id="15" />
        <Node type="out" id="16" />
        <Node type="out" id="17" />
        <Node type="out" id="18" />
        <Node type="out" id="19" />
        <Node type="out" id="20" />
        <Node type="out" id="21" />
        <Node type="out" id="22" />
        <Node type="out" id="23" />
        <Node type="out" id="24" />
        <Node type="out" id="25" />
        <Node type="out" id="26" />
        <Node type="out" id="27" />
        <Node type="hid" id="530" />
      </Nodes>
      <Connections>
        <Con id="33" src="0" tgt="20" wght="-1.9585789003644516" />
        <Con id="34" src="0" tgt="21" wght="-1.5799951620797261" />
        <Con id="36" src="0" tgt="23" wght="-2.8194944360446614" />
        <Con id="89" src="4" tgt="24" wght="0.19216510048412427" />
        <Con id="94" src="5" tgt="16" wght="2.7326965819468372" />
        <Con id="105" src="5" tgt="27" wght="5" />
        <Con id="109" src="6" tgt="18" wght="3.3681941172108054" />
        <Con id="126" src="7" tgt="22" wght="1.4974564948836528" />
        <Con id="146" src="9" tgt="16" wght="-1.0536968511100955" />
        <Con id="160" src="10" tgt="17" wght="1.9705969002097845" />
        <Con id="267" src="14" tgt="26" wght="-2.1009994810447097" />
        <Con id="279" src="7" tgt="18" wght="1.3656165676096998" />
        <Con id="308" src="3" tgt="25" wght="5" />
        <Con id="331" src="12" tgt="24" wght="4.0434527024626732" />
        <Con id="366" src="12" tgt="23" wght="-3.506306940689683" />
        <Con id="460" src="9" tgt="25" wght="-2.9572290173506692" />
        <Con id="531" src="0" tgt="530" wght="0.79487784765660763" />
        <Con id="532" src="530" tgt="17" wght="-4.48406214825809" />
        <Con id="538" src="3" tgt="19" wght="1.7273870250210166" />
      </Connections>
    </Network>
    <Network id="12839" birthGen="9" fitness="0">
      <Nodes>
        <Node type="bias" id="0" />
        <Node type="in" id="1" />
        <Node type="in" id="2" />
        <Node type="in" id="3" />
        <Node type="in" id="4" />
        <Node type="in" id="5" />
        <Node type="in" id="6" />
        <Node type="in" id="7" />
        <Node type="in" id="8" />
        <Node type="in" id="9" />
        <Node type="in" id="10" />
        <Node type="in" id="11" />
        <Node type="in" id="12" />
        <Node type="in" id="13" />
        <Node type="in" id="14" />
        <Node type="out" id="15" />
        <Node type="out" id="16" />
        <Node type="out" id="17" />
        <Node type="out" id="18" />
        <Node type="out" id="19" />
        <Node type="out" id="20" />
        <Node type="out" id="21" />
        <Node type="out" id="22" />
        <Node type="out" id="23" />
        <Node type="out" id="24" />
        <Node type="out" id="25" />
        <Node type="out" id="26" />
        <Node type="out" id="27" />
        <Node type="hid" id="530" />
      </Nodes>
      <Connections>
        <Con id="33" src="0" tgt="20" wght="-1.9585789003644516" />
        <Con id="34" src="0" tgt="21" wght="-1.5799951620797261" />
        <Con id="36" src="0" tgt="23" wght="-2.8194944360446614" />
        <Con id="89" src="4" tgt="24" wght="1.4462189329788089" />
        <Con id="94" src="5" tgt="16" wght="2.7326965819468372" />
        <Con id="105" src="5" tgt="27" wght="3.8597564697176887" />
        <Con id="109" src="6" tgt="18" wght="3.3681941172108054" />
        <Con id="126" src="7" tgt="22" wght="1.4974564948836528" />
        <Con id="146" src="9" tgt="16" wght="5" />
        <Con id="160" src="10" tgt="17" wght="1.9705969002097845" />
        <Con id="267" src="14" tgt="26" wght="-2.1009994810447097" />
        <Con id="279" src="7" tgt="18" wght="2.4300065264105797" />
        <Con id="308" src="3" tgt="25" wght="5" />
        <Con id="331" src="12" tgt="24" wght="5" />
        <Con id="366" src="12" tgt="23" wght="0.16148430295288563" />
        <Con id="460" src="9" tgt="25" wght="-2.9572290173506692" />
        <Con id="531" src="0" tgt="530" wght="0.42629345100473104" />
        <Con id="532" src="530" tgt="17" wght="4.9820527427779373" />
        <Con id="538" src="3" tgt="19" wght="-3.5528050691273041" />
      </Connections>
    </Network>
    <Network id="12786" birthGen="9" fitness="0">
      <Nodes>
        <Node type="bias" id="0" />
        <Node type="in" id="1" />
        <Node type="in" id="2" />
        <Node type="in" id="3" />
        <Node type="in" id="4" />
        <Node type="in" id="5" />
        <Node type="in" id="6" />
        <Node type="in" id="7" />
        <Node type="in" id="8" />
        <Node type="in" id="9" />
        <Node type="in" id="10" />
        <Node type="in" id="11" />
        <Node type="in" id="12" />
        <Node type="in" id="13" />
        <Node type="in" id="14" />
        <Node type="out" id="15" />
        <Node type="out" id="16" />
        <Node type="out" id="17" />
        <Node type="out" id="18" />
        <Node type="out" id="19" />
        <Node type="out" id="20" />
        <Node type="out" id="21" />
        <Node type="out" id="22" />
        <Node type="out" id="23" />
        <Node type="out" id="24" />
        <Node type="out" id="25" />
        <Node type="out" id="26" />
        <Node type="out" id="27" />
        <Node type="hid" id="530" />
      </Nodes>
      <Connections>
        <Con id="33" src="0" tgt="20" wght="-1.9585789003644516" />
        <Con id="34" src="0" tgt="21" wght="-1.5799951620797261" />
        <Con id="36" src="0" tgt="23" wght="-3.7212584586814046" />
        <Con id="89" src="4" tgt="24" wght="-0.12496527217377568" />
        <Con id="94" src="5" tgt="16" wght="2.7326965819468372" />
        <Con id="105" src="5" tgt="27" wght="3.8597564697176887" />
        <Con id="109" src="6" tgt="18" wght="3.3681941172108054" />
        <Con id="126" src="7" tgt="22" wght="1.4974564948836528" />
        <Con id="146" src="9" tgt="16" wght="5" />
        <Con id="160" src="10" tgt="17" wght="1.9705969002097845" />
        <Con id="267" src="14" tgt="26" wght="-2.1009994810447097" />
        <Con id="279" src="7" tgt="18" wght="1.29987631179758" />
        <Con id="308" src="3" tgt="25" wght="5" />
        <Con id="331" src="12" tgt="24" wght="5" />
        <Con id="366" src="12" tgt="23" wght="-3.506306940689683" />
        <Con id="460" src="9" tgt="25" wght="0.955368266440928" />
        <Con id="531" src="0" tgt="530" wght="0.42629345100473104" />
        <Con id="532" src="530" tgt="17" wght="4.9820527427779373" />
        <Con id="538" src="3" tgt="19" wght="-3.5528050691273041" />
      </Connections>
    </Network>
    <Network id="12841" birthGen="9" fitness="0">
      <Nodes>
        <Node type="bias" id="0" />
        <Node type="in" id="1" />
        <Node type="in" id="2" />
        <Node type="in" id="3" />
        <Node type="in" id="4" />
        <Node type="in" id="5" />
        <Node type="in" id="6" />
        <Node type="in" id="7" />
        <Node type="in" id="8" />
        <Node type="in" id="9" />
        <Node type="in" id="10" />
        <Node type="in" id="11" />
        <Node type="in" id="12" />
        <Node type="in" id="13" />
        <Node type="in" id="14" />
        <Node type="out" id="15" />
        <Node type="out" id="16" />
        <Node type="out" id="17" />
        <Node type="out" id="18" />
        <Node type="out" id="19" />
        <Node type="out" id="20" />
        <Node type="out" id="21" />
        <Node type="out" id="22" />
        <Node type="out" id="23" />
        <Node type="out" id="24" />
        <Node type="out" id="25" />
        <Node type="out" id="26" />
        <Node type="out" id="27" />
        <Node type="hid" id="530" />
      </Nodes>
      <Connections>
        <Con id="33" src="0" tgt="20" wght="-1.9585789003644516" />
        <Con id="34" src="0" tgt="21" wght="-1.5799951620797261" />
        <Con id="36" src="0" tgt="23" wght="-2.8194944360446614" />
        <Con id="89" src="4" tgt="24" wght="-0.12496527217377568" />
        <Con id="94" src="5" tgt="16" wght="2.7326965819468372" />
        <Con id="105" src="5" tgt="27" wght="3.8597564697176887" />
        <Con id="109" src="6" tgt="18" wght="3.3681941172108054" />
        <Con id="126" src="7" tgt="22" wght="1.4974564948836528" />
        <Con id="146" src="9" tgt="16" wght="5" />
        <Con id="160" src="10" tgt="17" wght="1.9705969002097845" />
        <Con id="267" src="14" tgt="26" wght="-2.1009994810447097" />
        <Con id="279" src="7" tgt="18" wght="1.29987631179758" />
        <Con id="308" src="3" tgt="25" wght="5" />
        <Con id="331" src="12" tgt="24" wght="5" />
        <Con id="366" src="12" tgt="23" wght="-3.506306940689683" />
        <Con id="460" src="9" tgt="25" wght="-2.9572290173506692" />
        <Con id="531" src="0" tgt="530" wght="0.42629345100473104" />
        <Con id="532" src="530" tgt="17" wght="4.9820527427779373" />
        <Con id="538" src="3" tgt="19" wght="-3.5528050691273041" />
      </Connections>
    </Network>
    <Network id="12793" birthGen="9" fitness="0">
      <Nodes>
        <Node type="bias" id="0" />
        <Node type="in" id="1" />
        <Node type="in" id="2" />
        <Node type="in" id="3" />
        <Node type="in" id="4" />
        <Node type="in" id="5" />
        <Node type="in" id="6" />
        <Node type="in" id="7" />
        <Node type="in" id="8" />
        <Node type="in" id="9" />
        <Node type="in" id="10" />
        <Node type="in" id="11" />
        <Node type="in" id="12" />
        <Node type="in" id="13" />
        <Node type="in" id="14" />
        <Node type="out" id="15" />
        <Node type="out" id="16" />
        <Node type="out" id="17" />
        <Node type="out" id="18" />
        <Node type="out" id="19" />
        <Node type="out" id="20" />
        <Node type="out" id="21" />
        <Node type="out" id="22" />
        <Node type="out" id="23" />
        <Node type="out" id="24" />
        <Node type="out" id="25" />
        <Node type="out" id="26" />
        <Node type="out" id="27" />
        <Node type="hid" id="530" />
      </Nodes>
      <Connections>
        <Con id="33" src="0" tgt="20" wght="-1.9585789003644516" />
        <Con id="34" src="0" tgt="21" wght="-1.5799951620797261" />
        <Con id="36" src="0" tgt="23" wght="-2.8194944360446614" />
        <Con id="89" src="4" tgt="24" wght="-0.12496527217377568" />
        <Con id="94" src="5" tgt="16" wght="2.7326965819468372" />
        <Con id="105" src="5" tgt="27" wght="3.8597564697176887" />
        <Con id="109" src="6" tgt="18" wght="3.3681941172108054" />
        <Con id="126" src="7" tgt="22" wght="1.4974564948836528" />
        <Con id="146" src="9" tgt="16" wght="5" />
        <Con id="160" src="10" tgt="17" wght="1.9705969002097845" />
        <Con id="267" src="14" tgt="26" wght="-2.1009994810447097" />
        <Con id="279" src="7" tgt="18" wght="1.2697398204785064" />
        <Con id="308" src="3" tgt="25" wght="5" />
        <Con id="331" src="12" tgt="24" wght="5" />
        <Con id="366" src="12" tgt="23" wght="-3.506306940689683" />
        <Con id="460" src="9" tgt="25" wght="-2.9572290173506692" />
        <Con id="531" src="0" tgt="530" wght="0.42629345100473104" />
        <Con id="532" src="530" tgt="17" wght="4.9820527427779373" />
        <Con id="538" src="3" tgt="19" wght="-3.5589833266085242" />
      </Connections>
    </Network>
    <Network id="12846" birthGen="9" fitness="0">
      <Nodes>
        <Node type="bias" id="0" />
        <Node type="in" id="1" />
        <Node type="in" id="2" />
        <Node type="in" id="3" />
        <Node type="in" id="4" />
        <Node type="in" id="5" />
        <Node type="in" id="6" />
        <Node type="in" id="7" />
        <Node type="in" id="8" />
        <Node type="in" id="9" />
        <Node type="in" id="10" />
        <Node type="in" id="11" />
        <Node type="in" id="12" />
        <Node type="in" id="13" />
        <Node type="in" id="14" />
        <Node type="out" id="15" />
        <Node type="out" id="16" />
        <Node type="out" id="17" />
        <Node type="out" id="18" />
        <Node type="out" id="19" />
        <Node type="out" id="20" />
        <Node type="out" id="21" />
        <Node type="out" id="22" />
        <Node type="out" id="23" />
        <Node type="out" id="24" />
        <Node type="out" id="25" />
        <Node type="out" id="26" />
        <Node type="out" id="27" />
        <Node type="hid" id="530" />
      </Nodes>
      <Connections>
        <Con id="33" src="0" tgt="20" wght="-1.9585789003644516" />
        <Con id="34" src="0" tgt="21" wght="-1.5799951620797261" />
        <Con id="36" src="0" tgt="23" wght="-2.8194944360446614" />
        <Con id="89" src="4" tgt="24" wght="-1.5278353328122798" />
        <Con id="94" src="5" tgt="16" wght="2.7326965819468372" />
        <Con id="105" src="5" tgt="27" wght="3.6949750115589053" />
        <Con id="109" src="6" tgt="18" wght="3.3681941172108054" />
        <Con id="126" src="7" tgt="22" wght="1.4974564948836528" />
        <Con id="146" src="9" tgt="16" wght="5" />
        <Con id="160" src="10" tgt="17" wght="1.9705969002097845" />
        <Con id="267" src="14" tgt="26" wght="-2.1009994810447097" />
        <Con id="279" src="7" tgt="18" wght="1.29987631179758" />
        <Con id="308" src="3" tgt="25" wght="3.8944964129946364" />
        <Con id="331" src="12" tgt="24" wght="5" />
        <Con id="366" src="12" tgt="23" wght="-3.506306940689683" />
        <Con id="460" src="9" tgt="25" wght="-2.9572290173506692" />
        <Con id="531" src="0" tgt="530" wght="0.42629345100473104" />
        <Con id="532" src="530" tgt="17" wght="4.9820527427779373" />
        <Con id="538" src="3" tgt="19" wght="-3.5528050691273041" />
      </Connections>
    </Network>
    <Network id="12875" birthGen="10" fitness="0">
      <Nodes>
        <Node type="bias" id="0" />
        <Node type="in" id="1" />
        <Node type="in" id="2" />
        <Node type="in" id="3" />
        <Node type="in" id="4" />
        <Node type="in" id="5" />
        <Node type="in" id="6" />
        <Node type="in" id="7" />
        <Node type="in" id="8" />
        <Node type="in" id="9" />
        <Node type="in" id="10" />
        <Node type="in" id="11" />
        <Node type="in" id="12" />
        <Node type="in" id="13" />
        <Node type="in" id="14" />
        <Node type="out" id="15" />
        <Node type="out" id="16" />
        <Node type="out" id="17" />
        <Node type="out" id="18" />
        <Node type="out" id="19" />
        <Node type="out" id="20" />
        <Node type="out" id="21" />
        <Node type="out" id="22" />
        <Node type="out" id="23" />
        <Node type="out" id="24" />
        <Node type="out" id="25" />
        <Node type="out" id="26" />
        <Node type="out" id="27" />
        <Node type="hid" id="530" />
      </Nodes>
      <Connections>
        <Con id="33" src="0" tgt="20" wght="-1.9585789003644516" />
        <Con id="34" src="0" tgt="21" wght="-1.5799951620797261" />
        <Con id="36" src="0" tgt="23" wght="-2.8194944360446614" />
        <Con id="89" src="4" tgt="24" wght="0.19216510048412427" />
        <Con id="94" src="5" tgt="16" wght="2.7326965819468372" />
        <Con id="105" src="5" tgt="27" wght="3.8597564697176887" />
        <Con id="109" src="6" tgt="18" wght="3.3681941172108054" />
        <Con id="126" src="7" tgt="22" wght="1.4974564948836528" />
        <Con id="146" src="9" tgt="16" wght="-1.0536968511100955" />
        <Con id="160" src="10" tgt="17" wght="1.9705969002097845" />
        <Con id="267" src="14" tgt="26" wght="-1.1621329700574279" />
        <Con id="279" src="7" tgt="18" wght="1.3656165676096998" />
        <Con id="308" src="3" tgt="25" wght="5" />
        <Con id="331" src="12" tgt="24" wght="4.0434527024626732" />
        <Con id="366" src="12" tgt="23" wght="-0.80489629319290534" />
        <Con id="460" src="9" tgt="25" wght="-2.9572290173506692" />
        <Con id="531" src="0" tgt="530" wght="0.79487784765660763" />
        <Con id="532" src="530" tgt="17" wght="-4.48406214825809" />
        <Con id="538" src="3" tgt="19" wght="1.7273870250210166" />
      </Connections>
    </Network>
    <Network id="12876" birthGen="10" fitness="0">
      <Nodes>
        <Node type="bias" id="0" />
        <Node type="in" id="1" />
        <Node type="in" id="2" />
        <Node type="in" id="3" />
        <Node type="in" id="4" />
        <Node type="in" id="5" />
        <Node type="in" id="6" />
        <Node type="in" id="7" />
        <Node type="in" id="8" />
        <Node type="in" id="9" />
        <Node type="in" id="10" />
        <Node type="in" id="11" />
        <Node type="in" id="12" />
        <Node type="in" id="13" />
        <Node type="in" id="14" />
        <Node type="out" id="15" />
        <Node type="out" id="16" />
        <Node type="out" id="17" />
        <Node type="out" id="18" />
        <Node type="out" id="19" />
        <Node type="out" id="20" />
        <Node type="out" id="21" />
        <Node type="out" id="22" />
        <Node type="out" id="23" />
        <Node type="out" id="24" />
        <Node type="out" id="25" />
        <Node type="out" id="26" />
        <Node type="out" id="27" />
        <Node type="hid" id="530" />
      </Nodes>
      <Connections>
        <Con id="33" src="0" tgt="20" wght="-1.9585789003644516" />
        <Con id="34" src="0" tgt="21" wght="-1.5799951620797261" />
        <Con id="36" src="0" tgt="23" wght="-2.8194944360446614" />
        <Con id="89" src="4" tgt="24" wght="0.19216510048412427" />
        <Con id="94" src="5" tgt="16" wght="2.7326965819468372" />
        <Con id="105" src="5" tgt="27" wght="3.8597564697176887" />
        <Con id="109" src="6" tgt="18" wght="3.3681941172108054" />
        <Con id="126" src="7" tgt="22" wght="1.4974564948836528" />
        <Con id="146" src="9" tgt="16" wght="-1.0536968511100955" />
        <Con id="160" src="10" tgt="17" wght="1.9705969002097845" />
        <Con id="267" src="14" tgt="26" wght="-1.1621329700574279" />
        <Con id="279" src="7" tgt="18" wght="1.3656165676096998" />
        <Con id="308" src="3" tgt="25" wght="5" />
        <Con id="331" src="12" tgt="24" wght="4.0434527024626732" />
        <Con id="366" src="12" tgt="23" wght="-3.506306940689683" />
        <Con id="460" src="9" tgt="25" wght="-2.9572290173506692" />
        <Con id="531" src="0" tgt="530" wght="0.79487784765660763" />
        <Con id="532" src="530" tgt="17" wght="-4.48406214825809" />
        <Con id="538" src="3" tgt="19" wght="1.7273870250210166" />
      </Connections>
    </Network>
    <Network id="12877" birthGen="10" fitness="0">
      <Nodes>
        <Node type="bias" id="0" />
        <Node type="in" id="1" />
        <Node type="in" id="2" />
        <Node type="in" id="3" />
        <Node type="in" id="4" />
        <Node type="in" id="5" />
        <Node type="in" id="6" />
        <Node type="in" id="7" />
        <Node type="in" id="8" />
        <Node type="in" id="9" />
        <Node type="in" id="10" />
        <Node type="in" id="11" />
        <Node type="in" id="12" />
        <Node type="in" id="13" />
        <Node type="in" id="14" />
        <Node type="out" id="15" />
        <Node type="out" id="16" />
        <Node type="out" id="17" />
        <Node type="out" id="18" />
        <Node type="out" id="19" />
        <Node type="out" id="20" />
        <Node type="out" id="21" />
        <Node type="out" id="22" />
        <Node type="out" id="23" />
        <Node type="out" id="24" />
        <Node type="out" id="25" />
        <Node type="out" id="26" />
        <Node type="out" id="27" />
        <Node type="hid" id="530" />
      </Nodes>
      <Connections>
        <Con id="33" src="0" tgt="20" wght="-1.9585789003644516" />
        <Con id="34" src="0" tgt="21" wght="-1.5799951620797261" />
        <Con id="36" src="0" tgt="23" wght="-2.8194944360446614" />
        <Con id="89" src="4" tgt="24" wght="1.4462189329788089" />
        <Con id="94" src="5" tgt="16" wght="2.7326965819468372" />
        <Con id="105" src="5" tgt="27" wght="3.8591186719747776" />
        <Con id="109" src="6" tgt="18" wght="3.3681941172108054" />
        <Con id="126" src="7" tgt="22" wght="1.4974564948836528" />
        <Con id="146" src="9" tgt="16" wght="5" />
        <Con id="160" src="10" tgt="17" wght="1.9705969002097845" />
        <Con id="267" src="14" tgt="26" wght="-2.1295527368813931" />
        <Con id="279" src="7" tgt="18" wght="2.4300065264105797" />
        <Con id="308" src="3" tgt="25" wght="5" />
        <Con id="331" src="12" tgt="24" wght="5" />
        <Con id="366" src="12" tgt="23" wght="0.16148430295288563" />
        <Con id="460" src="9" tgt="25" wght="-2.9572290173506692" />
        <Con id="531" src="0" tgt="530" wght="0.42629345100473104" />
        <Con id="532" src="530" tgt="17" wght="4.9820527427779373" />
        <Con id="538" src="3" tgt="19" wght="-3.5528050691273041" />
      </Connections>
    </Network>
    <Network id="12878" birthGen="10" fitness="0">
      <Nodes>
        <Node type="bias" id="0" />
        <Node type="in" id="1" />
        <Node type="in" id="2" />
        <Node type="in" id="3" />
        <Node type="in" id="4" />
        <Node type="in" id="5" />
        <Node type="in" id="6" />
        <Node type="in" id="7" />
        <Node type="in" id="8" />
        <Node type="in" id="9" />
        <Node type="in" id="10" />
        <Node type="in" id="11" />
        <Node type="in" id="12" />
        <Node type="in" id="13" />
        <Node type="in" id="14" />
        <Node type="out" id="15" />
        <Node type="out" id="16" />
        <Node type="out" id="17" />
        <Node type="out" id="18" />
        <Node type="out" id="19" />
        <Node type="out" id="20" />
        <Node type="out" id="21" />
        <Node type="out" id="22" />
        <Node type="out" id="23" />
        <Node type="out" id="24" />
        <Node type="out" id="25" />
        <Node type="out" id="26" />
        <Node type="out" id="27" />
        <Node type="hid" id="530" />
      </Nodes>
      <Connections>
        <Con id="33" src="0" tgt="20" wght="-1.9585789003644516" />
        <Con id="34" src="0" tgt="21" wght="-1.5799951620797261" />
        <Con id="36" src="0" tgt="23" wght="-2.8194944360446614" />
        <Con id="89" src="4" tgt="24" wght="1.4462189329788089" />
        <Con id="94" src="5" tgt="16" wght="2.7326965819468372" />
        <Con id="105" src="5" tgt="27" wght="3.8597564697176887" />
        <Con id="109" src="6" tgt="18" wght="3.3681941172108054" />
        <Con id="126" src="7" tgt="22" wght="1.4974564948836528" />
        <Con id="146" src="9" tgt="16" wght="5" />
        <Con id="160" src="10" tgt="17" wght="2.7407762018777779" />
        <Con id="267" src="14" tgt="26" wght="-2.1009994810447097" />
        <Con id="279" src="7" tgt="18" wght="2.4300065264105797" />
        <Con id="308" src="3" tgt="25" wght="5" />
        <Con id="331" src="12" tgt="24" wght="5" />
        <Con id="366" src="12" tgt="23" wght="0.16148430295288563" />
        <Con id="460" src="9" tgt="25" wght="-2.9572290173506692" />
        <Con id="531" src="0" tgt="530" wght="0.42629345100473104" />
        <Con id="532" src="530" tgt="17" wght="4.9820527427779373" />
        <Con id="538" src="3" tgt="19" wght="-3.5528050691273041" />
      </Connections>
    </Network>
    <Network id="12879" birthGen="10" fitness="0">
      <Nodes>
        <Node type="bias" id="0" />
        <Node type="in" id="1" />
        <Node type="in" id="2" />
        <Node type="in" id="3" />
        <Node type="in" id="4" />
        <Node type="in" id="5" />
        <Node type="in" id="6" />
        <Node type="in" id="7" />
        <Node type="in" id="8" />
        <Node type="in" id="9" />
        <Node type="in" id="10" />
        <Node type="in" id="11" />
        <Node type="in" id="12" />
        <Node type="in" id="13" />
        <Node type="in" id="14" />
        <Node type="out" id="15" />
        <Node type="out" id="16" />
        <Node type="out" id="17" />
        <Node type="out" id="18" />
        <Node type="out" id="19" />
        <Node type="out" id="20" />
        <Node type="out" id="21" />
        <Node type="out" id="22" />
        <Node type="out" id="23" />
        <Node type="out" id="24" />
        <Node type="out" id="25" />
        <Node type="out" id="26" />
        <Node type="out" id="27" />
        <Node type="hid" id="530" />
      </Nodes>
      <Connections>
        <Con id="33" src="0" tgt="20" wght="-1.9585789003644516" />
        <Con id="34" src="0" tgt="21" wght="-1.5799951620797261" />
        <Con id="36" src="0" tgt="23" wght="-2.8194944360446614" />
        <Con id="89" src="4" tgt="24" wght="1.4462189329788089" />
        <Con id="94" src="5" tgt="16" wght="2.7326965819468372" />
        <Con id="105" src="5" tgt="27" wght="3.8597564697176887" />
        <Con id="109" src="6" tgt="18" wght="3.3681941172108054" />
        <Con id="126" src="7" tgt="22" wght="1.4974564948836528" />
        <Con id="146" src="9" tgt="16" wght="5" />
        <Con id="160" src="10" tgt="17" wght="1.9705969002097845" />
        <Con id="267" src="14" tgt="26" wght="-2.1009994810447097" />
        <Con id="279" src="7" tgt="18" wght="2.4300065264105797" />
        <Con id="308" src="3" tgt="25" wght="5" />
        <Con id="331" src="12" tgt="24" wght="5" />
        <Con id="366" src="12" tgt="23" wght="0.16148430295288563" />
        <Con id="460" src="9" tgt="25" wght="-2.9572290173506692" />
        <Con id="531" src="0" tgt="530" wght="0.42629345100473104" />
        <Con id="532" src="530" tgt="17" wght="4.9820527427779373" />
        <Con id="538" src="3" tgt="19" wght="-3.5528050691273041" />
        <Con id="580" src="2" tgt="23" wght="4.5110815018415451" />
      </Connections>
    </Network>
    <Network id="12880" birthGen="10" fitness="0">
      <Nodes>
        <Node type="bias" id="0" />
        <Node type="in" id="1" />
        <Node type="in" id="2" />
        <Node type="in" id="3" />
        <Node type="in" id="4" />
        <Node type="in" id="5" />
        <Node type="in" id="6" />
        <Node type="in" id="7" />
        <Node type="in" id="8" />
        <Node type="in" id="9" />
        <Node type="in" id="10" />
        <Node type="in" id="11" />
        <Node type="in" id="12" />
        <Node type="in" id="13" />
        <Node type="in" id="14" />
        <Node type="out" id="15" />
        <Node type="out" id="16" />
        <Node type="out" id="17" />
        <Node type="out" id="18" />
        <Node type="out" id="19" />
        <Node type="out" id="20" />
        <Node type="out" id="21" />
        <Node type="out" id="22" />
        <Node type="out" id="23" />
        <Node type="out" id="24" />
        <Node type="out" id="25" />
        <Node type="out" id="26" />
        <Node type="out" id="27" />
        <Node type="hid" id="530" />
      </Nodes>
      <Connections>
        <Con id="33" src="0" tgt="20" wght="-1.9585789003644516" />
        <Con id="34" src="0" tgt="21" wght="-1.5799951620797261" />
        <Con id="36" src="0" tgt="23" wght="-2.8635685039135925" />
        <Con id="89" src="4" tgt="24" wght="1.0389714933675007" />
        <Con id="94" src="5" tgt="16" wght="2.7326965819468372" />
        <Con id="105" src="5" tgt="27" wght="3.8597564697176887" />
        <Con id="109" src="6" tgt="18" wght="3.3681941172108054" />
        <Con id="126" src="7" tgt="22" wght="1.4974564948836528" />
        <Con id="146" src="9" tgt="16" wght="5" />
        <Con id="160" src="10" tgt="17" wght="1.9705969002097845" />
        <Con id="267" src="14" tgt="26" wght="-2.1009994810447097" />
        <Con id="279" src="7" tgt="18" wght="2.0516863333031616" />
        <Con id="308" src="3" tgt="25" wght="5" />
        <Con id="331" src="12" tgt="24" wght="5" />
        <Con id="366" src="12" tgt="23" wght="0.16148430295288563" />
        <Con id="460" src="9" tgt="25" wght="-2.9572290173506692" />
        <Con id="531" src="0" tgt="530" wght="0.42629345100473104" />
        <Con id="532" src="530" tgt="17" wght="4.9820527427779373" />
        <Con id="538" src="3" tgt="19" wght="-3.5528050691273041" />
      </Connections>
    </Network>
    <Network id="12881" birthGen="10" fitness="0">
      <Nodes>
        <Node type="bias" id="0" />
        <Node type="in" id="1" />
        <Node type="in" id="2" />
        <Node type="in" id="3" />
        <Node type="in" id="4" />
        <Node type="in" id="5" />
        <Node type="in" id="6" />
        <Node type="in" id="7" />
        <Node type="in" id="8" />
        <Node type="in" id="9" />
        <Node type="in" id="10" />
        <Node type="in" id="11" />
        <Node type="in" id="12" />
        <Node type="in" id="13" />
        <Node type="in" id="14" />
        <Node type="out" id="15" />
        <Node type="out" id="16" />
        <Node type="out" id="17" />
        <Node type="out" id="18" />
        <Node type="out" id="19" />
        <Node type="out" id="20" />
        <Node type="out" id="21" />
        <Node type="out" id="22" />
        <Node type="out" id="23" />
        <Node type="out" id="24" />
        <Node type="out" id="25" />
        <Node type="out" id="26" />
        <Node type="out" id="27" />
        <Node type="hid" id="530" />
      </Nodes>
      <Connections>
        <Con id="33" src="0" tgt="20" wght="-1.9585789003644516" />
        <Con id="34" src="0" tgt="21" wght="-1.5799951620797261" />
        <Con id="36" src="0" tgt="23" wght="-2.8194944360446614" />
        <Con id="89" src="4" tgt="24" wght="1.4462189329788089" />
        <Con id="94" src="5" tgt="16" wght="2.7326965819468372" />
        <Con id="105" src="5" tgt="27" wght="3.8500830592285138" />
        <Con id="109" src="6" tgt="18" wght="3.3681941172108054" />
        <Con id="126" src="7" tgt="22" wght="1.5298940399929992" />
        <Con id="146" src="9" tgt="16" wght="5" />
        <Con id="160" src="10" tgt="17" wght="1.9705969002097845" />
        <Con id="267" src="14" tgt="26" wght="-2.1009994810447097" />
        <Con id="279" src="7" tgt="18" wght="2.4300065264105797" />
        <Con id="308" src="3" tgt="25" wght="5" />
        <Con id="331" src="12" tgt="24" wght="5" />
        <Con id="366" src="12" tgt="23" wght="0.13873418674752194" />
        <Con id="460" src="9" tgt="25" wght="-2.9572290173506692" />
        <Con id="531" src="0" tgt="530" wght="0.42629345100473104" />
        <Con id="532" src="530" tgt="17" wght="4.9820527427779373" />
        <Con id="538" src="3" tgt="19" wght="-3.5528050691273041" />
      </Connections>
    </Network>
    <Network id="12882" birthGen="10" fitness="0">
      <Nodes>
        <Node type="bias" id="0" />
        <Node type="in" id="1" />
        <Node type="in" id="2" />
        <Node type="in" id="3" />
        <Node type="in" id="4" />
        <Node type="in" id="5" />
        <Node type="in" id="6" />
        <Node type="in" id="7" />
        <Node type="in" id="8" />
        <Node type="in" id="9" />
        <Node type="in" id="10" />
        <Node type="in" id="11" />
        <Node type="in" id="12" />
        <Node type="in" id="13" />
        <Node type="in" id="14" />
        <Node type="out" id="15" />
        <Node type="out" id="16" />
        <Node type="out" id="17" />
        <Node type="out" id="18" />
        <Node type="out" id="19" />
        <Node type="out" id="20" />
        <Node type="out" id="21" />
        <Node type="out" id="22" />
        <Node type="out" id="23" />
        <Node type="out" id="24" />
        <Node type="out" id="25" />
        <Node type="out" id="26" />
        <Node type="out" id="27" />
        <Node type="hid" id="530" />
      </Nodes>
      <Connections>
        <Con id="33" src="0" tgt="20" wght="-1.9585789003644516" />
        <Con id="34" src="0" tgt="21" wght="-1.5799951620797261" />
        <Con id="36" src="0" tgt="23" wght="-3.7212584586814046" />
        <Con id="89" src="4" tgt="24" wght="-0.12496527217377568" />
        <Con id="94" src="5" tgt="16" wght="2.7326965819468372" />
        <Con id="105" src="5" tgt="27" wght="3.8597564697176887" />
        <Con id="109" src="6" tgt="18" wght="3.3681941172108054" />
        <Con id="126" src="7" tgt="22" wght="1.4974564948836528" />
        <Con id="146" src="9" tgt="16" wght="5" />
        <Con id="160" src="10" tgt="17" wght="1.9705969002097845" />
        <Con id="267" src="14" tgt="26" wght="-2.1009994810447097" />
        <Con id="279" src="7" tgt="18" wght="1.29987631179758" />
        <Con id="308" src="3" tgt="25" wght="5" />
        <Con id="331" src="12" tgt="24" wght="5" />
        <Con id="366" src="12" tgt="23" wght="-3.506306940689683" />
        <Con id="460" src="9" tgt="25" wght="0.955368266440928" />
        <Con id="531" src="0" tgt="530" wght="0.42629345100473104" />
        <Con id="532" src="530" tgt="17" wght="4.9820527427779373" />
        <Con id="538" src="3" tgt="19" wght="-3.5528050691273041" />
      </Connections>
    </Network>
    <Network id="12883" birthGen="10" fitness="0">
      <Nodes>
        <Node type="bias" id="0" />
        <Node type="in" id="1" />
        <Node type="in" id="2" />
        <Node type="in" id="3" />
        <Node type="in" id="4" />
        <Node type="in" id="5" />
        <Node type="in" id="6" />
        <Node type="in" id="7" />
        <Node type="in" id="8" />
        <Node type="in" id="9" />
        <Node type="in" id="10" />
        <Node type="in" id="11" />
        <Node type="in" id="12" />
        <Node type="in" id="13" />
        <Node type="in" id="14" />
        <Node type="out" id="15" />
        <Node type="out" id="16" />
        <Node type="out" id="17" />
        <Node type="out" id="18" />
        <Node type="out" id="19" />
        <Node type="out" id="20" />
        <Node type="out" id="21" />
        <Node type="out" id="22" />
        <Node type="out" id="23" />
        <Node type="out" id="24" />
        <Node type="out" id="25" />
        <Node type="out" id="26" />
        <Node type="out" id="27" />
        <Node type="hid" id="530" />
      </Nodes>
      <Connections>
        <Con id="33" src="0" tgt="20" wght="-1.9585789003644516" />
        <Con id="34" src="0" tgt="21" wght="-1.5799951620797261" />
        <Con id="36" src="0" tgt="23" wght="-3.7212584586814046" />
        <Con id="89" src="4" tgt="24" wght="-0.12496527217377568" />
        <Con id="94" src="5" tgt="16" wght="2.7326965819468372" />
        <Con id="105" src="5" tgt="27" wght="3.8597564697176887" />
        <Con id="109" src="6" tgt="18" wght="3.3681941172108054" />
        <Con id="126" src="7" tgt="22" wght="1.4974564948836528" />
        <Con id="146" src="9" tgt="16" wght="5" />
        <Con id="160" src="10" tgt="17" wght="1.9705969002097845" />
        <Con id="267" src="14" tgt="26" wght="-2.1009994810447097" />
        <Con id="279" src="7" tgt="18" wght="1.29987631179758" />
        <Con id="308" src="3" tgt="25" wght="5" />
        <Con id="331" src="12" tgt="24" wght="5" />
        <Con id="366" src="12" tgt="23" wght="-3.506306940689683" />
        <Con id="460" src="9" tgt="25" wght="0.955368266440928" />
        <Con id="531" src="0" tgt="530" wght="0.11271717230489309" />
        <Con id="532" src="530" tgt="17" wght="4.9820527427779373" />
        <Con id="538" src="3" tgt="19" wght="-3.5528050691273041" />
      </Connections>
    </Network>
    <Network id="12884" birthGen="10" fitness="0">
      <Nodes>
        <Node type="bias" id="0" />
        <Node type="in" id="1" />
        <Node type="in" id="2" />
        <Node type="in" id="3" />
        <Node type="in" id="4" />
        <Node type="in" id="5" />
        <Node type="in" id="6" />
        <Node type="in" id="7" />
        <Node type="in" id="8" />
        <Node type="in" id="9" />
        <Node type="in" id="10" />
        <Node type="in" id="11" />
        <Node type="in" id="12" />
        <Node type="in" id="13" />
        <Node type="in" id="14" />
        <Node type="out" id="15" />
        <Node type="out" id="16" />
        <Node type="out" id="17" />
        <Node type="out" id="18" />
        <Node type="out" id="19" />
        <Node type="out" id="20" />
        <Node type="out" id="21" />
        <Node type="out" id="22" />
        <Node type="out" id="23" />
        <Node type="out" id="24" />
        <Node type="out" id="25" />
        <Node type="out" id="26" />
        <Node type="out" id="27" />
        <Node type="hid" id="530" />
      </Nodes>
      <Connections>
        <Con id="33" src="0" tgt="20" wght="-1.9585789003644516" />
        <Con id="34" src="0" tgt="21" wght="-1.5799951620797261" />
        <Con id="36" src="0" tgt="23" wght="-3.7212584586814046" />
        <Con id="89" src="4" tgt="24" wght="-0.12496527217377568" />
        <Con id="94" src="5" tgt="16" wght="3.396950424235774" />
        <Con id="105" src="5" tgt="27" wght="3.8597564697176887" />
        <Con id="109" src="6" tgt="18" wght="3.3681941172108054" />
        <Con id="126" src="7" tgt="22" wght="1.4974564948836528" />
        <Con id="146" src="9" tgt="16" wght="5" />
        <Con id="160" src="10" tgt="17" wght="1.9705969002097845" />
        <Con id="267" src="14" tgt="26" wght="-2.1009994810447097" />
        <Con id="279" src="7" tgt="18" wght="1.29987631179758" />
        <Con id="308" src="3" tgt="25" wght="5" />
        <Con id="331" src="12" tgt="24" wght="5" />
        <Con id="366" src="12" tgt="23" wght="-3.506306940689683" />
        <Con id="460" src="9" tgt="25" wght="0.955368266440928" />
        <Con id="531" src="0" tgt="530" wght="0.42629345100473104" />
        <Con id="532" src="530" tgt="17" wght="4.9820527427779373" />
        <Con id="538" src="3" tgt="19" wght="-3.5528050691273041" />
      </Connections>
    </Network>
    <Network id="12885" birthGen="10" fitness="2.625">
      <Nodes>
        <Node type="bias" id="0" />
        <Node type="in" id="1" />
        <Node type="in" id="2" />
        <Node type="in" id="3" />
        <Node type="in" id="4" />
        <Node type="in" id="5" />
        <Node type="in" id="6" />
        <Node type="in" id="7" />
        <Node type="in" id="8" />
        <Node type="in" id="9" />
        <Node type="in" id="10" />
        <Node type="in" id="11" />
        <Node type="in" id="12" />
        <Node type="in" id="13" />
        <Node type="in" id="14" />
        <Node type="out" id="15" />
        <Node type="out" id="16" />
        <Node type="out" id="17" />
        <Node type="out" id="18" />
        <Node type="out" id="19" />
        <Node type="out" id="20" />
        <Node type="out" id="21" />
        <Node type="out" id="22" />
        <Node type="out" id="23" />
        <Node type="out" id="24" />
        <Node type="out" id="25" />
        <Node type="out" id="26" />
        <Node type="out" id="27" />
        <Node type="hid" id="530" />
      </Nodes>
      <Connections>
        <Con id="33" src="0" tgt="20" wght="-1.9585789003644516" />
        <Con id="34" src="0" tgt="21" wght="-1.5799951620797261" />
        <Con id="36" src="0" tgt="23" wght="-3.7212584586814046" />
        <Con id="89" src="4" tgt="24" wght="-0.12496527217377568" />
        <Con id="94" src="5" tgt="16" wght="2.7326965819468372" />
        <Con id="105" src="5" tgt="27" wght="3.8597564697176887" />
        <Con id="109" src="6" tgt="18" wght="3.3681941172108054" />
        <Con id="126" src="7" tgt="22" wght="1.4974564948836528" />
        <Con id="146" src="9" tgt="16" wght="5" />
        <Con id="160" src="10" tgt="17" wght="1.9705969002097845" />
        <Con id="267" src="14" tgt="26" wght="-2.0592312250792868" />
        <Con id="279" src="7" tgt="18" wght="1.29987631179758" />
        <Con id="308" src="3" tgt="25" wght="5" />
        <Con id="331" src="12" tgt="24" wght="5" />
        <Con id="366" src="12" tgt="23" wght="-3.506306940689683" />
        <Con id="460" src="9" tgt="25" wght="0.955368266440928" />
        <Con id="531" src="0" tgt="530" wght="0.42629345100473104" />
        <Con id="532" src="530" tgt="17" wght="4.9820527427779373" />
        <Con id="538" src="3" tgt="19" wght="-3.5528050691273041" />
      </Connections>
    </Network>
    <Network id="12886" birthGen="10" fitness="0">
      <Nodes>
        <Node type="bias" id="0" />
        <Node type="in" id="1" />
        <Node type="in" id="2" />
        <Node type="in" id="3" />
        <Node type="in" id="4" />
        <Node type="in" id="5" />
        <Node type="in" id="6" />
        <Node type="in" id="7" />
        <Node type="in" id="8" />
        <Node type="in" id="9" />
        <Node type="in" id="10" />
        <Node type="in" id="11" />
        <Node type="in" id="12" />
        <Node type="in" id="13" />
        <Node type="in" id="14" />
        <Node type="out" id="15" />
        <Node type="out" id="16" />
        <Node type="out" id="17" />
        <Node type="out" id="18" />
        <Node type="out" id="19" />
        <Node type="out" id="20" />
        <Node type="out" id="21" />
        <Node type="out" id="22" />
        <Node type="out" id="23" />
        <Node type="out" id="24" />
        <Node type="out" id="25" />
        <Node type="out" id="26" />
        <Node type="out" id="27" />
        <Node type="hid" id="530" />
      </Nodes>
      <Connections>
        <Con id="33" src="0" tgt="20" wght="-1.9585789003644516" />
        <Con id="34" src="0" tgt="21" wght="-1.5799951620797261" />
        <Con id="36" src="0" tgt="23" wght="-3.7212584586814046" />
        <Con id="89" src="4" tgt="24" wght="-0.12496527217377568" />
        <Con id="94" src="5" tgt="16" wght="3.9201976964250207" />
        <Con id="105" src="5" tgt="27" wght="3.8597564697176887" />
        <Con id="109" src="6" tgt="18" wght="3.6328747775405645" />
        <Con id="126" src="7" tgt="22" wght="1.4974564948836528" />
        <Con id="146" src="9" tgt="16" wght="5" />
        <Con id="160" src="10" tgt="17" wght="1.9705969002097845" />
        <Con id="267" src="14" tgt="26" wght="-0.70861090905964375" />
        <Con id="279" src="7" tgt="18" wght="1.29987631179758" />
        <Con id="308" src="3" tgt="25" wght="5" />
        <Con id="331" src="12" tgt="24" wght="5" />
        <Con id="366" src="12" tgt="23" wght="-3.506306940689683" />
        <Con id="460" src="9" tgt="25" wght="0.955368266440928" />
        <Con id="531" src="0" tgt="530" wght="0.42629345100473104" />
        <Con id="532" src="530" tgt="17" wght="4.9820527427779373" />
        <Con id="538" src="3" tgt="19" wght="-3.5528050691273041" />
      </Connections>
    </Network>
    <Network id="12887" birthGen="10" fitness="0">
      <Nodes>
        <Node type="bias" id="0" />
        <Node type="in" id="1" />
        <Node type="in" id="2" />
        <Node type="in" id="3" />
        <Node type="in" id="4" />
        <Node type="in" id="5" />
        <Node type="in" id="6" />
        <Node type="in" id="7" />
        <Node type="in" id="8" />
        <Node type="in" id="9" />
        <Node type="in" id="10" />
        <Node type="in" id="11" />
        <Node type="in" id="12" />
        <Node type="in" id="13" />
        <Node type="in" id="14" />
        <Node type="out" id="15" />
        <Node type="out" id="16" />
        <Node type="out" id="17" />
        <Node type="out" id="18" />
        <Node type="out" id="19" />
        <Node type="out" id="20" />
        <Node type="out" id="21" />
        <Node type="out" id="22" />
        <Node type="out" id="23" />
        <Node type="out" id="24" />
        <Node type="out" id="25" />
        <Node type="out" id="26" />
        <Node type="out" id="27" />
        <Node type="hid" id="530" />
      </Nodes>
      <Connections>
        <Con id="33" src="0" tgt="20" wght="-1.9585789003644516" />
        <Con id="34" src="0" tgt="21" wght="-1.5799951620797261" />
        <Con id="36" src="0" tgt="23" wght="-3.7212584586814046" />
        <Con id="89" src="4" tgt="24" wght="-0.12496527217377568" />
        <Con id="94" src="5" tgt="16" wght="2.7326965819468372" />
        <Con id="105" src="5" tgt="27" wght="3.8597564697176887" />
        <Con id="109" src="6" tgt="18" wght="3.3681941172108054" />
        <Con id="126" src="7" tgt="22" wght="3.1704045213200525" />
        <Con id="146" src="9" tgt="16" wght="5" />
        <Con id="160" src="10" tgt="17" wght="1.9705969002097845" />
        <Con id="267" src="14" tgt="26" wght="-2.1009994810447097" />
        <Con id="279" src="7" tgt="18" wght="1.29987631179758" />
        <Con id="308" src="3" tgt="25" wght="5" />
        <Con id="331" src="12" tgt="24" wght="5" />
        <Con id="366" src="12" tgt="23" wght="-2.3428308402242135" />
        <Con id="460" src="9" tgt="25" wght="0.955368266440928" />
        <Con id="531" src="0" tgt="530" wght="0.42629345100473104" />
        <Con id="532" src="530" tgt="17" wght="4.9820527427779373" />
        <Con id="538" src="3" tgt="19" wght="-3.5528050691273041" />
      </Connections>
    </Network>
    <Network id="12888" birthGen="10" fitness="0">
      <Nodes>
        <Node type="bias" id="0" />
        <Node type="in" id="1" />
        <Node type="in" id="2" />
        <Node type="in" id="3" />
        <Node type="in" id="4" />
        <Node type="in" id="5" />
        <Node type="in" id="6" />
        <Node type="in" id="7" />
        <Node type="in" id="8" />
        <Node type="in" id="9" />
        <Node type="in" id="10" />
        <Node type="in" id="11" />
        <Node type="in" id="12" />
        <Node type="in" id="13" />
        <Node type="in" id="14" />
        <Node type="out" id="15" />
        <Node type="out" id="16" />
        <Node type="out" id="17" />
        <Node type="out" id="18" />
        <Node type="out" id="19" />
        <Node type="out" id="20" />
        <Node type="out" id="21" />
        <Node type="out" id="22" />
        <Node type="out" id="23" />
        <Node type="out" id="24" />
        <Node type="out" id="25" />
        <Node type="out" id="26" />
        <Node type="out" id="27" />
        <Node type="hid" id="530" />
      </Nodes>
      <Connections>
        <Con id="33" src="0" tgt="20" wght="-1.9585789003644516" />
        <Con id="34" src="0" tgt="21" wght="-1.5799951620797261" />
        <Con id="36" src="0" tgt="23" wght="-3.7212584586814046" />
        <Con id="89" src="4" tgt="24" wght="-0.12496527217377568" />
        <Con id="94" src="5" tgt="16" wght="2.7326965819468372" />
        <Con id="105" src="5" tgt="27" wght="3.8597564697176887" />
        <Con id="109" src="6" tgt="18" wght="4.3624091137670185" />
        <Con id="126" src="7" tgt="22" wght="1.4974564948836528" />
        <Con id="146" src="9" tgt="16" wght="5" />
        <Con id="160" src="10" tgt="17" wght="1.9705969002097845" />
        <Con id="267" src="14" tgt="26" wght="-2.1009994810447097" />
        <Con id="279" src="7" tgt="18" wght="1.29987631179758" />
        <Con id="308" src="3" tgt="25" wght="5" />
        <Con id="331" src="12" tgt="24" wght="5" />
        <Con id="366" src="12" tgt="23" wght="-3.506306940689683" />
        <Con id="460" src="9" tgt="25" wght="0.955368266440928" />
        <Con id="531" src="0" tgt="530" wght="0.42629345100473104" />
        <Con id="532" src="530" tgt="17" wght="4.9820527427779373" />
        <Con id="538" src="3" tgt="19" wght="-5" />
      </Connections>
    </Network>
    <Network id="12889" birthGen="10" fitness="0">
      <Nodes>
        <Node type="bias" id="0" />
        <Node type="in" id="1" />
        <Node type="in" id="2" />
        <Node type="in" id="3" />
        <Node type="in" id="4" />
        <Node type="in" id="5" />
        <Node type="in" id="6" />
        <Node type="in" id="7" />
        <Node type="in" id="8" />
        <Node type="in" id="9" />
        <Node type="in" id="10" />
        <Node type="in" id="11" />
        <Node type="in" id="12" />
        <Node type="in" id="13" />
        <Node type="in" id="14" />
        <Node type="out" id="15" />
        <Node type="out" id="16" />
        <Node type="out" id="17" />
        <Node type="out" id="18" />
        <Node type="out" id="19" />
        <Node type="out" id="20" />
        <Node type="out" id="21" />
        <Node type="out" id="22" />
        <Node type="out" id="23" />
        <Node type="out" id="24" />
        <Node type="out" id="25" />
        <Node type="out" id="26" />
        <Node type="out" id="27" />
        <Node type="hid" id="530" />
      </Nodes>
      <Connections>
        <Con id="33" src="0" tgt="20" wght="-1.9585789003644516" />
        <Con id="34" src="0" tgt="21" wght="-1.5799951620797261" />
        <Con id="36" src="0" tgt="23" wght="-3.7212584586814046" />
        <Con id="89" src="4" tgt="24" wght="-0.12496527217377568" />
        <Con id="94" src="5" tgt="16" wght="2.3700243510163217" />
        <Con id="105" src="5" tgt="27" wght="3.8597564697176887" />
        <Con id="109" src="6" tgt="18" wght="3.3681941172108054" />
        <Con id="126" src="7" tgt="22" wght="1.4974564948836528" />
        <Con id="146" src="9" tgt="16" wght="5" />
        <Con id="160" src="10" tgt="17" wght="1.9705969002097845" />
        <Con id="267" src="14" tgt="26" wght="-2.1009994810447097" />
        <Con id="279" src="7" tgt="18" wght="1.29987631179758" />
        <Con id="308" src="3" tgt="25" wght="5" />
        <Con id="331" src="12" tgt="24" wght="5" />
        <Con id="366" src="12" tgt="23" wght="-3.506306940689683" />
        <Con id="460" src="9" tgt="25" wght="0.955368266440928" />
        <Con id="531" src="0" tgt="530" wght="0.42629345100473104" />
        <Con id="532" src="530" tgt="17" wght="4.9820527427779373" />
        <Con id="538" src="3" tgt="19" wght="-3.5528050691273041" />
      </Connections>
    </Network>
    <Network id="12890" birthGen="10" fitness="0">
      <Nodes>
        <Node type="bias" id="0" />
        <Node type="in" id="1" />
        <Node type="in" id="2" />
        <Node type="in" id="3" />
        <Node type="in" id="4" />
        <Node type="in" id="5" />
        <Node type="in" id="6" />
        <Node type="in" id="7" />
        <Node type="in" id="8" />
        <Node type="in" id="9" />
        <Node type="in" id="10" />
        <Node type="in" id="11" />
        <Node type="in" id="12" />
        <Node type="in" id="13" />
        <Node type="in" id="14" />
        <Node type="out" id="15" />
        <Node type="out" id="16" />
        <Node type="out" id="17" />
        <Node type="out" id="18" />
        <Node type="out" id="19" />
        <Node type="out" id="20" />
        <Node type="out" id="21" />
        <Node type="out" id="22" />
        <Node type="out" id="23" />
        <Node type="out" id="24" />
        <Node type="out" id="25" />
        <Node type="out" id="26" />
        <Node type="out" id="27" />
        <Node type="hid" id="530" />
      </Nodes>
      <Connections>
        <Con id="33" src="0" tgt="20" wght="-1.5372192682451362" />
        <Con id="34" src="0" tgt="21" wght="-1.5799951620797261" />
        <Con id="36" src="0" tgt="23" wght="-3.7212584586814046" />
        <Con id="89" src="4" tgt="24" wght="-0.12496527217377568" />
        <Con id="94" src="5" tgt="16" wght="2.7326965819468372" />
        <Con id="105" src="5" tgt="27" wght="3.8597564697176887" />
        <Con id="109" src="6" tgt="18" wght="3.3681941172108054" />
        <Con id="126" src="7" tgt="22" wght="1.4974564948836528" />
        <Con id="146" src="9" tgt="16" wght="5" />
        <Con id="160" src="10" tgt="17" wght="1.9705969002097845" />
        <Con id="267" src="14" tgt="26" wght="-2.1009994810447097" />
        <Con id="279" src="7" tgt="18" wght="1.29987631179758" />
        <Con id="308" src="3" tgt="25" wght="5" />
        <Con id="331" src="12" tgt="24" wght="5" />
        <Con id="366" src="12" tgt="23" wght="-3.506306940689683" />
        <Con id="460" src="9" tgt="25" wght="0.955368266440928" />
        <Con id="531" src="0" tgt="530" wght="0.42629345100473104" />
        <Con id="532" src="530" tgt="17" wght="4.9820527427779373" />
        <Con id="538" src="3" tgt="19" wght="-3.5528050691273041" />
      </Connections>
    </Network>
    <Network id="12891" birthGen="10" fitness="0">
      <Nodes>
        <Node type="bias" id="0" />
        <Node type="in" id="1" />
        <Node type="in" id="2" />
        <Node type="in" id="3" />
        <Node type="in" id="4" />
        <Node type="in" id="5" />
        <Node type="in" id="6" />
        <Node type="in" id="7" />
        <Node type="in" id="8" />
        <Node type="in" id="9" />
        <Node type="in" id="10" />
        <Node type="in" id="11" />
        <Node type="in" id="12" />
        <Node type="in" id="13" />
        <Node type="in" id="14" />
        <Node type="out" id="15" />
        <Node type="out" id="16" />
        <Node type="out" id="17" />
        <Node type="out" id="18" />
        <Node type="out" id="19" />
        <Node type="out" id="20" />
        <Node type="out" id="21" />
        <Node type="out" id="22" />
        <Node type="out" id="23" />
        <Node type="out" id="24" />
        <Node type="out" id="25" />
        <Node type="out" id="26" />
        <Node type="out" id="27" />
        <Node type="hid" id="530" />
      </Nodes>
      <Connections>
        <Con id="33" src="0" tgt="20" wght="-1.9585789003644516" />
        <Con id="34" src="0" tgt="21" wght="-0.90333237123558952" />
        <Con id="36" src="0" tgt="23" wght="-3.7212584586814046" />
        <Con id="89" src="4" tgt="24" wght="-0.12496527217377568" />
        <Con id="94" src="5" tgt="16" wght="2.7326965819468372" />
        <Con id="105" src="5" tgt="27" wght="4.2156924271319909" />
        <Con id="109" src="6" tgt="18" wght="3.3681941172108054" />
        <Con id="126" src="7" tgt="22" wght="1.4974564948836528" />
        <Con id="146" src="9" tgt="16" wght="5" />
        <Con id="160" src="10" tgt="17" wght="1.9705969002097845" />
        <Con id="267" src="14" tgt="26" wght="-2.1009994810447097" />
        <Con id="279" src="7" tgt="18" wght="1.529157239241389" />
        <Con id="308" src="3" tgt="25" wght="5" />
        <Con id="331" src="12" tgt="24" wght="5" />
        <Con id="366" src="12" tgt="23" wght="-3.506306940689683" />
        <Con id="460" src="9" tgt="25" wght="0.955368266440928" />
        <Con id="531" src="0" tgt="530" wght="0.42629345100473104" />
        <Con id="532" src="530" tgt="17" wght="4.9820527427779373" />
        <Con id="538" src="3" tgt="19" wght="-3.5528050691273041" />
      </Connections>
    </Network>
    <Network id="12892" birthGen="10" fitness="0">
      <Nodes>
        <Node type="bias" id="0" />
        <Node type="in" id="1" />
        <Node type="in" id="2" />
        <Node type="in" id="3" />
        <Node type="in" id="4" />
        <Node type="in" id="5" />
        <Node type="in" id="6" />
        <Node type="in" id="7" />
        <Node type="in" id="8" />
        <Node type="in" id="9" />
        <Node type="in" id="10" />
        <Node type="in" id="11" />
        <Node type="in" id="12" />
        <Node type="in" id="13" />
        <Node type="in" id="14" />
        <Node type="out" id="15" />
        <Node type="out" id="16" />
        <Node type="out" id="17" />
        <Node type="out" id="18" />
        <Node type="out" id="19" />
        <Node type="out" id="20" />
        <Node type="out" id="21" />
        <Node type="out" id="22" />
        <Node type="out" id="23" />
        <Node type="out" id="24" />
        <Node type="out" id="25" />
        <Node type="out" id="26" />
        <Node type="out" id="27" />
        <Node type="hid" id="530" />
      </Nodes>
      <Connections>
        <Con id="33" src="0" tgt="20" wght="-1.9585789003644516" />
        <Con id="34" src="0" tgt="21" wght="-1.5799951620797261" />
        <Con id="36" src="0" tgt="23" wght="-3.7212584586814046" />
        <Con id="89" src="4" tgt="24" wght="-0.12496527217377568" />
        <Con id="94" src="5" tgt="16" wght="2.7326965819468372" />
        <Con id="105" src="5" tgt="27" wght="3.8597564697176887" />
        <Con id="109" src="6" tgt="18" wght="3.3681941172108054" />
        <Con id="126" src="7" tgt="22" wght="0.26090110288548796" />
        <Con id="146" src="9" tgt="16" wght="5" />
        <Con id="160" src="10" tgt="17" wght="1.9705969002097845" />
        <Con id="267" src="14" tgt="26" wght="-0.43395778457798984" />
        <Con id="279" src="7" tgt="18" wght="-1.4844641999894632" />
        <Con id="308" src="3" tgt="25" wght="5" />
        <Con id="331" src="12" tgt="24" wght="5" />
        <Con id="366" src="12" tgt="23" wght="-3.506306940689683" />
        <Con id="460" src="9" tgt="25" wght="0.955368266440928" />
        <Con id="531" src="0" tgt="530" wght="0.42629345100473104" />
        <Con id="532" src="530" tgt="17" wght="4.9820527427779373" />
        <Con id="538" src="3" tgt="19" wght="-3.5528050691273041" />
      </Connections>
    </Network>
    <Network id="12893" birthGen="10" fitness="0">
      <Nodes>
        <Node type="bias" id="0" />
        <Node type="in" id="1" />
        <Node type="in" id="2" />
        <Node type="in" id="3" />
        <Node type="in" id="4" />
        <Node type="in" id="5" />
        <Node type="in" id="6" />
        <Node type="in" id="7" />
        <Node type="in" id="8" />
        <Node type="in" id="9" />
        <Node type="in" id="10" />
        <Node type="in" id="11" />
        <Node type="in" id="12" />
        <Node type="in" id="13" />
        <Node type="in" id="14" />
        <Node type="out" id="15" />
        <Node type="out" id="16" />
        <Node type="out" id="17" />
        <Node type="out" id="18" />
        <Node type="out" id="19" />
        <Node type="out" id="20" />
        <Node type="out" id="21" />
        <Node type="out" id="22" />
        <Node type="out" id="23" />
        <Node type="out" id="24" />
        <Node type="out" id="25" />
        <Node type="out" id="26" />
        <Node type="out" id="27" />
        <Node type="hid" id="530" />
      </Nodes>
      <Connections>
        <Con id="33" src="0" tgt="20" wght="-1.9585789003644516" />
        <Con id="34" src="0" tgt="21" wght="-1.5799951620797261" />
        <Con id="36" src="0" tgt="23" wght="-3.7212584586814046" />
        <Con id="89" src="4" tgt="24" wght="-0.12496527217377568" />
        <Con id="94" src="5" tgt="16" wght="2.7326965819468372" />
        <Con id="105" src="5" tgt="27" wght="3.8597564697176887" />
        <Con id="109" src="6" tgt="18" wght="3.3985616599835544" />
        <Con id="126" src="7" tgt="22" wght="1.4974564948836528" />
        <Con id="146" src="9" tgt="16" wght="5" />
        <Con id="160" src="10" tgt="17" wght="1.9705969002097845" />
        <Con id="267" src="14" tgt="26" wght="-2.1009994810447097" />
        <Con id="279" src="7" tgt="18" wght="1.29987631179758" />
        <Con id="308" src="3" tgt="25" wght="5" />
        <Con id="331" src="12" tgt="24" wght="5" />
        <Con id="366" src="12" tgt="23" wght="-3.506306940689683" />
        <Con id="460" src="9" tgt="25" wght="0.955368266440928" />
        <Con id="531" src="0" tgt="530" wght="0.42629345100473104" />
        <Con id="532" src="530" tgt="17" wght="4.9820527427779373" />
        <Con id="538" src="3" tgt="19" wght="-3.5528050691273041" />
      </Connections>
    </Network>
    <Network id="12894" birthGen="10" fitness="0">
      <Nodes>
        <Node type="bias" id="0" />
        <Node type="in" id="1" />
        <Node type="in" id="2" />
        <Node type="in" id="3" />
        <Node type="in" id="4" />
        <Node type="in" id="5" />
        <Node type="in" id="6" />
        <Node type="in" id="7" />
        <Node type="in" id="8" />
        <Node type="in" id="9" />
        <Node type="in" id="10" />
        <Node type="in" id="11" />
        <Node type="in" id="12" />
        <Node type="in" id="13" />
        <Node type="in" id="14" />
        <Node type="out" id="15" />
        <Node type="out" id="16" />
        <Node type="out" id="17" />
        <Node type="out" id="18" />
        <Node type="out" id="19" />
        <Node type="out" id="20" />
        <Node type="out" id="21" />
        <Node type="out" id="22" />
        <Node type="out" id="23" />
        <Node type="out" id="24" />
        <Node type="out" id="25" />
        <Node type="out" id="26" />
        <Node type="out" id="27" />
        <Node type="hid" id="530" />
      </Nodes>
      <Connections>
        <Con id="33" src="0" tgt="20" wght="-1.9585789003644516" />
        <Con id="34" src="0" tgt="21" wght="-1.5799951620797261" />
        <Con id="36" src="0" tgt="23" wght="-3.7212584586814046" />
        <Con id="89" src="4" tgt="24" wght="-0.12496527217377568" />
        <Con id="94" src="5" tgt="16" wght="2.7326965819468372" />
        <Con id="105" src="5" tgt="27" wght="3.8597564697176887" />
        <Con id="109" src="6" tgt="18" wght="3.3681941172108054" />
        <Con id="126" src="7" tgt="22" wght="2.9415458161801014" />
        <Con id="146" src="9" tgt="16" wght="5" />
        <Con id="160" src="10" tgt="17" wght="1.9705969002097845" />
        <Con id="267" src="14" tgt="26" wght="-2.1009994810447097" />
        <Con id="279" src="7" tgt="18" wght="1.29987631179758" />
        <Con id="308" src="3" tgt="25" wght="3.6210969961458748" />
        <Con id="331" src="12" tgt="24" wght="4.9452855883855547" />
        <Con id="366" src="12" tgt="23" wght="-3.506306940689683" />
        <Con id="460" src="9" tgt="25" wght="0.955368266440928" />
        <Con id="531" src="0" tgt="530" wght="0.42629345100473104" />
        <Con id="532" src="530" tgt="17" wght="4.9820527427779373" />
        <Con id="538" src="3" tgt="19" wght="-3.5528050691273041" />
      </Connections>
    </Network>
    <Network id="12895" birthGen="10" fitness="0">
      <Nodes>
        <Node type="bias" id="0" />
        <Node type="in" id="1" />
        <Node type="in" id="2" />
        <Node type="in" id="3" />
        <Node type="in" id="4" />
        <Node type="in" id="5" />
        <Node type="in" id="6" />
        <Node type="in" id="7" />
        <Node type="in" id="8" />
        <Node type="in" id="9" />
        <Node type="in" id="10" />
        <Node type="in" id="11" />
        <Node type="in" id="12" />
        <Node type="in" id="13" />
        <Node type="in" id="14" />
        <Node type="out" id="15" />
        <Node type="out" id="16" />
        <Node type="out" id="17" />
        <Node type="out" id="18" />
        <Node type="out" id="19" />
        <Node type="out" id="20" />
        <Node type="out" id="21" />
        <Node type="out" id="22" />
        <Node type="out" id="23" />
        <Node type="out" id="24" />
        <Node type="out" id="25" />
        <Node type="out" id="26" />
        <Node type="out" id="27" />
        <Node type="hid" id="530" />
      </Nodes>
      <Connections>
        <Con id="33" src="0" tgt="20" wght="-1.9585789003644516" />
        <Con id="34" src="0" tgt="21" wght="-1.5799951620797261" />
        <Con id="36" src="0" tgt="23" wght="-3.7212584586814046" />
        <Con id="89" src="4" tgt="24" wght="-0.12496527217377568" />
        <Con id="94" src="5" tgt="16" wght="2.7326965819468372" />
        <Con id="105" src="5" tgt="27" wght="3.8597564697176887" />
        <Con id="109" src="6" tgt="18" wght="3.3681941172108054" />
        <Con id="126" src="7" tgt="22" wght="1.4974564948836528" />
        <Con id="146" src="9" tgt="16" wght="5" />
        <Con id="160" src="10" tgt="17" wght="1.9705969002097845" />
        <Con id="267" src="14" tgt="26" wght="-2.1009994810447097" />
        <Con id="279" src="7" tgt="18" wght="1.29987631179758" />
        <Con id="308" src="3" tgt="25" wght="4.986803343943305" />
        <Con id="331" src="12" tgt="24" wght="5" />
        <Con id="366" src="12" tgt="23" wght="-3.506306940689683" />
        <Con id="460" src="9" tgt="25" wght="0.955368266440928" />
        <Con id="531" src="0" tgt="530" wght="0.42629345100473104" />
        <Con id="532" src="530" tgt="17" wght="4.9820527427779373" />
        <Con id="538" src="3" tgt="19" wght="-3.5528050691273041" />
      </Connections>
    </Network>
    <Network id="12896" birthGen="10" fitness="0">
      <Nodes>
        <Node type="bias" id="0" />
        <Node type="in" id="1" />
        <Node type="in" id="2" />
        <Node type="in" id="3" />
        <Node type="in" id="4" />
        <Node type="in" id="5" />
        <Node type="in" id="6" />
        <Node type="in" id="7" />
        <Node type="in" id="8" />
        <Node type="in" id="9" />
        <Node type="in" id="10" />
        <Node type="in" id="11" />
        <Node type="in" id="12" />
        <Node type="in" id="13" />
        <Node type="in" id="14" />
        <Node type="out" id="15" />
        <Node type="out" id="16" />
        <Node type="out" id="17" />
        <Node type="out" id="18" />
        <Node type="out" id="19" />
        <Node type="out" id="20" />
        <Node type="out" id="21" />
        <Node type="out" id="22" />
        <Node type="out" id="23" />
        <Node type="out" id="24" />
        <Node type="out" id="25" />
        <Node type="out" id="26" />
        <Node type="out" id="27" />
        <Node type="hid" id="530" />
      </Nodes>
      <Connections>
        <Con id="33" src="0" tgt="20" wght="-1.9585789003644516" />
        <Con id="34" src="0" tgt="21" wght="-1.5799951620797261" />
        <Con id="36" src="0" tgt="23" wght="-3.7212584586814046" />
        <Con id="89" src="4" tgt="24" wght="-0.12496527217377568" />
        <Con id="94" src="5" tgt="16" wght="2.7326965819468372" />
        <Con id="105" src="5" tgt="27" wght="3.8919360441893227" />
        <Con id="109" src="6" tgt="18" wght="3.3681941172108054" />
        <Con id="126" src="7" tgt="22" wght="1.4974564948836528" />
        <Con id="146" src="9" tgt="16" wght="5" />
        <Con id="160" src="10" tgt="17" wght="1.9705969002097845" />
        <Con id="267" src="14" tgt="26" wght="-2.1009994810447097" />
        <Con id="279" src="7" tgt="18" wght="1.29987631179758" />
        <Con id="308" src="3" tgt="25" wght="5" />
        <Con id="331" src="12" tgt="24" wght="4.99110510972919" />
        <Con id="366" src="12" tgt="23" wght="-3.506306940689683" />
        <Con id="460" src="9" tgt="25" wght="0.955368266440928" />
        <Con id="531" src="0" tgt="530" wght="0.42629345100473104" />
        <Con id="532" src="530" tgt="17" wght="4.9820527427779373" />
        <Con id="538" src="3" tgt="19" wght="-3.5528050691273041" />
      </Connections>
    </Network>
    <Network id="12897" birthGen="10" fitness="0">
      <Nodes>
        <Node type="bias" id="0" />
        <Node type="in" id="1" />
        <Node type="in" id="2" />
        <Node type="in" id="3" />
        <Node type="in" id="4" />
        <Node type="in" id="5" />
        <Node type="in" id="6" />
        <Node type="in" id="7" />
        <Node type="in" id="8" />
        <Node type="in" id="9" />
        <Node type="in" id="10" />
        <Node type="in" id="11" />
        <Node type="in" id="12" />
        <Node type="in" id="13" />
        <Node type="in" id="14" />
        <Node type="out" id="15" />
        <Node type="out" id="16" />
        <Node type="out" id="17" />
        <Node type="out" id="18" />
        <Node type="out" id="19" />
        <Node type="out" id="20" />
        <Node type="out" id="21" />
        <Node type="out" id="22" />
        <Node type="out" id="23" />
        <Node type="out" id="24" />
        <Node type="out" id="25" />
        <Node type="out" id="26" />
        <Node type="out" id="27" />
        <Node type="hid" id="530" />
      </Nodes>
      <Connections>
        <Con id="33" src="0" tgt="20" wght="-1.9585789003644516" />
        <Con id="34" src="0" tgt="21" wght="-1.5799951620797261" />
        <Con id="36" src="0" tgt="23" wght="-3.7212584586814046" />
        <Con id="89" src="4" tgt="24" wght="-0.12496527217377568" />
        <Con id="94" src="5" tgt="16" wght="2.7326965819468372" />
        <Con id="105" src="5" tgt="27" wght="3.8597564697176887" />
        <Con id="109" src="6" tgt="18" wght="3.3681941172108054" />
        <Con id="126" src="7" tgt="22" wght="1.4974564948836528" />
        <Con id="146" src="9" tgt="16" wght="5" />
        <Con id="160" src="10" tgt="17" wght="1.9705969002097845" />
        <Con id="267" src="14" tgt="26" wght="-2.1009994810447097" />
        <Con id="279" src="7" tgt="18" wght="1.29987631179758" />
        <Con id="308" src="3" tgt="25" wght="5" />
        <Con id="331" src="12" tgt="24" wght="5" />
        <Con id="366" src="12" tgt="23" wght="-3.5339373817570694" />
        <Con id="460" src="9" tgt="25" wght="0.955368266440928" />
        <Con id="531" src="0" tgt="530" wght="0.42629345100473104" />
        <Con id="532" src="530" tgt="17" wght="4.9820527427779373" />
        <Con id="538" src="3" tgt="19" wght="-3.5528050691273041" />
      </Connections>
    </Network>
    <Network id="12898" birthGen="10" fitness="0">
      <Nodes>
        <Node type="bias" id="0" />
        <Node type="in" id="1" />
        <Node type="in" id="2" />
        <Node type="in" id="3" />
        <Node type="in" id="4" />
        <Node type="in" id="5" />
        <Node type="in" id="6" />
        <Node type="in" id="7" />
        <Node type="in" id="8" />
        <Node type="in" id="9" />
        <Node type="in" id="10" />
        <Node type="in" id="11" />
        <Node type="in" id="12" />
        <Node type="in" id="13" />
        <Node type="in" id="14" />
        <Node type="out" id="15" />
        <Node type="out" id="16" />
        <Node type="out" id="17" />
        <Node type="out" id="18" />
        <Node type="out" id="19" />
        <Node type="out" id="20" />
        <Node type="out" id="21" />
        <Node type="out" id="22" />
        <Node type="out" id="23" />
        <Node type="out" id="24" />
        <Node type="out" id="25" />
        <Node type="out" id="26" />
        <Node type="out" id="27" />
        <Node type="hid" id="530" />
      </Nodes>
      <Connections>
        <Con id="33" src="0" tgt="20" wght="-1.9585789003644516" />
        <Con id="34" src="0" tgt="21" wght="-1.5799951620797261" />
        <Con id="36" src="0" tgt="23" wght="-3.7212584586814046" />
        <Con id="89" src="4" tgt="24" wght="-0.12496527217377568" />
        <Con id="94" src="5" tgt="16" wght="2.7326965819468372" />
        <Con id="105" src="5" tgt="27" wght="3.8597564697176887" />
        <Con id="109" src="6" tgt="18" wght="3.3681941172108054" />
        <Con id="126" src="7" tgt="22" wght="1.4974564948836528" />
        <Con id="146" src="9" tgt="16" wght="5" />
        <Con id="160" src="10" tgt="17" wght="1.9705969002097845" />
        <Con id="267" src="14" tgt="26" wght="-2.1009994810447097" />
        <Con id="279" src="7" tgt="18" wght="1.29987631179758" />
        <Con id="308" src="3" tgt="25" wght="5" />
        <Con id="331" src="12" tgt="24" wght="5" />
        <Con id="366" src="12" tgt="23" wght="-3.506306940689683" />
        <Con id="460" src="9" tgt="25" wght="0.955368266440928" />
        <Con id="531" src="0" tgt="530" wght="0.42629345100473104" />
        <Con id="532" src="530" tgt="17" wght="4.9820527427779373" />
        <Con id="538" src="3" tgt="19" wght="-3.5528050691273041" />
        <Con id="581" src="12" tgt="26" wght="-1.3328534690663218" />
      </Connections>
    </Network>
    <Network id="12899" birthGen="10" fitness="0">
      <Nodes>
        <Node type="bias" id="0" />
        <Node type="in" id="1" />
        <Node type="in" id="2" />
        <Node type="in" id="3" />
        <Node type="in" id="4" />
        <Node type="in" id="5" />
        <Node type="in" id="6" />
        <Node type="in" id="7" />
        <Node type="in" id="8" />
        <Node type="in" id="9" />
        <Node type="in" id="10" />
        <Node type="in" id="11" />
        <Node type="in" id="12" />
        <Node type="in" id="13" />
        <Node type="in" id="14" />
        <Node type="out" id="15" />
        <Node type="out" id="16" />
        <Node type="out" id="17" />
        <Node type="out" id="18" />
        <Node type="out" id="19" />
        <Node type="out" id="20" />
        <Node type="out" id="21" />
        <Node type="out" id="22" />
        <Node type="out" id="23" />
        <Node type="out" id="24" />
        <Node type="out" id="25" />
        <Node type="out" id="26" />
        <Node type="out" id="27" />
        <Node type="hid" id="530" />
      </Nodes>
      <Connections>
        <Con id="33" src="0" tgt="20" wght="-1.9585789003644516" />
        <Con id="34" src="0" tgt="21" wght="-1.5799951620797261" />
        <Con id="36" src="0" tgt="23" wght="-3.7212584586814046" />
        <Con id="89" src="4" tgt="24" wght="-0.12496527217377568" />
        <Con id="94" src="5" tgt="16" wght="2.7326965819468372" />
        <Con id="105" src="5" tgt="27" wght="3.8597564697176887" />
        <Con id="109" src="6" tgt="18" wght="3.3681941172108054" />
        <Con id="126" src="7" tgt="22" wght="1.4974564948836528" />
        <Con id="146" src="9" tgt="16" wght="5" />
        <Con id="160" src="10" tgt="17" wght="1.9705969002097845" />
        <Con id="267" src="14" tgt="26" wght="-2.1009994810447097" />
        <Con id="279" src="7" tgt="18" wght="1.29987631179758" />
        <Con id="308" src="3" tgt="25" wght="5" />
        <Con id="331" src="12" tgt="24" wght="5" />
        <Con id="366" src="12" tgt="23" wght="-3.506306940689683" />
        <Con id="460" src="9" tgt="25" wght="0.91721811841362622" />
        <Con id="531" src="0" tgt="530" wght="0.42629345100473104" />
        <Con id="532" src="530" tgt="17" wght="4.9820527427779373" />
        <Con id="538" src="3" tgt="19" wght="-3.5528050691273041" />
      </Connections>
    </Network>
    <Network id="12900" birthGen="10" fitness="0">
      <Nodes>
        <Node type="bias" id="0" />
        <Node type="in" id="1" />
        <Node type="in" id="2" />
        <Node type="in" id="3" />
        <Node type="in" id="4" />
        <Node type="in" id="5" />
        <Node type="in" id="6" />
        <Node type="in" id="7" />
        <Node type="in" id="8" />
        <Node type="in" id="9" />
        <Node type="in" id="10" />
        <Node type="in" id="11" />
        <Node type="in" id="12" />
        <Node type="in" id="13" />
        <Node type="in" id="14" />
        <Node type="out" id="15" />
        <Node type="out" id="16" />
        <Node type="out" id="17" />
        <Node type="out" id="18" />
        <Node type="out" id="19" />
        <Node type="out" id="20" />
        <Node type="out" id="21" />
        <Node type="out" id="22" />
        <Node type="out" id="23" />
        <Node type="out" id="24" />
        <Node type="out" id="25" />
        <Node type="out" id="26" />
        <Node type="out" id="27" />
        <Node type="hid" id="530" />
      </Nodes>
      <Connections>
        <Con id="33" src="0" tgt="20" wght="-1.9585789003644516" />
        <Con id="34" src="0" tgt="21" wght="-1.5799951620797261" />
        <Con id="36" src="0" tgt="23" wght="-3.7212584586814046" />
        <Con id="89" src="4" tgt="24" wght="-0.12496527217377568" />
        <Con id="94" src="5" tgt="16" wght="2.7326965819468372" />
        <Con id="105" src="5" tgt="27" wght="3.8597564697176887" />
        <Con id="109" src="6" tgt="18" wght="3.3681941172108054" />
        <Con id="126" src="7" tgt="22" wght="1.4974564948836528" />
        <Con id="146" src="9" tgt="16" wght="5" />
        <Con id="160" src="10" tgt="17" wght="1.9705969002097845" />
        <Con id="267" src="14" tgt="26" wght="-2.1009994810447097" />
        <Con id="279" src="7" tgt="18" wght="1.29987631179758" />
        <Con id="308" src="3" tgt="25" wght="5" />
        <Con id="331" src="12" tgt="24" wght="4.9582008215945512" />
        <Con id="366" src="12" tgt="23" wght="-3.506306940689683" />
        <Con id="460" src="9" tgt="25" wght="0.955368266440928" />
        <Con id="531" src="0" tgt="530" wght="1.1735202012736619" />
        <Con id="532" src="530" tgt="17" wght="4.9820527427779373" />
        <Con id="538" src="3" tgt="19" wght="-3.5528050691273041" />
      </Connections>
    </Network>
    <Network id="12901" birthGen="10" fitness="0">
      <Nodes>
        <Node type="bias" id="0" />
        <Node type="in" id="1" />
        <Node type="in" id="2" />
        <Node type="in" id="3" />
        <Node type="in" id="4" />
        <Node type="in" id="5" />
        <Node type="in" id="6" />
        <Node type="in" id="7" />
        <Node type="in" id="8" />
        <Node type="in" id="9" />
        <Node type="in" id="10" />
        <Node type="in" id="11" />
        <Node type="in" id="12" />
        <Node type="in" id="13" />
        <Node type="in" id="14" />
        <Node type="out" id="15" />
        <Node type="out" id="16" />
        <Node type="out" id="17" />
        <Node type="out" id="18" />
        <Node type="out" id="19" />
        <Node type="out" id="20" />
        <Node type="out" id="21" />
        <Node type="out" id="22" />
        <Node type="out" id="23" />
        <Node type="out" id="24" />
        <Node type="out" id="25" />
        <Node type="out" id="26" />
        <Node type="out" id="27" />
        <Node type="hid" id="530" />
      </Nodes>
      <Connections>
        <Con id="33" src="0" tgt="20" wght="-1.9585789003644516" />
        <Con id="34" src="0" tgt="21" wght="-1.5799951620797261" />
        <Con id="36" src="0" tgt="23" wght="-3.7212584586814046" />
        <Con id="89" src="4" tgt="24" wght="-0.12496527217377568" />
        <Con id="94" src="5" tgt="16" wght="2.7326965819468372" />
        <Con id="105" src="5" tgt="27" wght="3.8597564697176887" />
        <Con id="109" src="6" tgt="18" wght="3.3681941172108054" />
        <Con id="126" src="7" tgt="22" wght="1.4974564948836528" />
        <Con id="146" src="9" tgt="16" wght="5" />
        <Con id="160" src="10" tgt="17" wght="1.9705969002097845" />
        <Con id="267" src="14" tgt="26" wght="-2.1009994810447097" />
        <Con id="279" src="7" tgt="18" wght="1.29987631179758" />
        <Con id="308" src="3" tgt="25" wght="5" />
        <Con id="331" src="12" tgt="24" wght="-4.4685186585411429" />
        <Con id="366" src="12" tgt="23" wght="-3.506306940689683" />
        <Con id="460" src="9" tgt="25" wght="0.955368266440928" />
        <Con id="531" src="0" tgt="530" wght="0.42629345100473104" />
        <Con id="532" src="530" tgt="17" wght="4.9820527427779373" />
        <Con id="538" src="3" tgt="19" wght="-3.5528050691273041" />
      </Connections>
    </Network>
    <Network id="12902" birthGen="10" fitness="0">
      <Nodes>
        <Node type="bias" id="0" />
        <Node type="in" id="1" />
        <Node type="in" id="2" />
        <Node type="in" id="3" />
        <Node type="in" id="4" />
        <Node type="in" id="5" />
        <Node type="in" id="6" />
        <Node type="in" id="7" />
        <Node type="in" id="8" />
        <Node type="in" id="9" />
        <Node type="in" id="10" />
        <Node type="in" id="11" />
        <Node type="in" id="12" />
        <Node type="in" id="13" />
        <Node type="in" id="14" />
        <Node type="out" id="15" />
        <Node type="out" id="16" />
        <Node type="out" id="17" />
        <Node type="out" id="18" />
        <Node type="out" id="19" />
        <Node type="out" id="20" />
        <Node type="out" id="21" />
        <Node type="out" id="22" />
        <Node type="out" id="23" />
        <Node type="out" id="24" />
        <Node type="out" id="25" />
        <Node type="out" id="26" />
        <Node type="out" id="27" />
        <Node type="hid" id="530" />
      </Nodes>
      <Connections>
        <Con id="33" src="0" tgt="20" wght="-1.9585789003644516" />
        <Con id="34" src="0" tgt="21" wght="-1.5799951620797261" />
        <Con id="36" src="0" tgt="23" wght="-3.7212584586814046" />
        <Con id="89" src="4" tgt="24" wght="-0.12496527217377568" />
        <Con id="94" src="5" tgt="16" wght="2.7088407790970637" />
        <Con id="105" src="5" tgt="27" wght="3.8597564697176887" />
        <Con id="109" src="6" tgt="18" wght="3.3681941172108054" />
        <Con id="126" src="7" tgt="22" wght="1.4974564948836528" />
        <Con id="146" src="9" tgt="16" wght="5" />
        <Con id="160" src="10" tgt="17" wght="1.9705969002097845" />
        <Con id="267" src="14" tgt="26" wght="-2.1009994810447097" />
        <Con id="279" src="7" tgt="18" wght="1.29987631179758" />
        <Con id="308" src="3" tgt="25" wght="5" />
        <Con id="331" src="12" tgt="24" wght="5" />
        <Con id="366" src="12" tgt="23" wght="-3.506306940689683" />
        <Con id="460" src="9" tgt="25" wght="0.955368266440928" />
        <Con id="531" src="0" tgt="530" wght="0.42629345100473104" />
        <Con id="532" src="530" tgt="17" wght="4.9802540404942794" />
        <Con id="538" src="3" tgt="19" wght="-3.5528050691273041" />
      </Connections>
    </Network>
    <Network id="12903" birthGen="10" fitness="0">
      <Nodes>
        <Node type="bias" id="0" />
        <Node type="in" id="1" />
        <Node type="in" id="2" />
        <Node type="in" id="3" />
        <Node type="in" id="4" />
        <Node type="in" id="5" />
        <Node type="in" id="6" />
        <Node type="in" id="7" />
        <Node type="in" id="8" />
        <Node type="in" id="9" />
        <Node type="in" id="10" />
        <Node type="in" id="11" />
        <Node type="in" id="12" />
        <Node type="in" id="13" />
        <Node type="in" id="14" />
        <Node type="out" id="15" />
        <Node type="out" id="16" />
        <Node type="out" id="17" />
        <Node type="out" id="18" />
        <Node type="out" id="19" />
        <Node type="out" id="20" />
        <Node type="out" id="21" />
        <Node type="out" id="22" />
        <Node type="out" id="23" />
        <Node type="out" id="24" />
        <Node type="out" id="25" />
        <Node type="out" id="26" />
        <Node type="out" id="27" />
        <Node type="hid" id="530" />
      </Nodes>
      <Connections>
        <Con id="33" src="0" tgt="20" wght="-1.9585789003644516" />
        <Con id="34" src="0" tgt="21" wght="-1.5799951620797261" />
        <Con id="36" src="0" tgt="23" wght="-3.7212584586814046" />
        <Con id="89" src="4" tgt="24" wght="-0.12496527217377568" />
        <Con id="94" src="5" tgt="16" wght="2.7326965819468372" />
        <Con id="105" src="5" tgt="27" wght="3.8597564697176887" />
        <Con id="109" src="6" tgt="18" wght="3.3681941172108054" />
        <Con id="126" src="7" tgt="22" wght="1.4731591855271315" />
        <Con id="146" src="9" tgt="16" wght="5" />
        <Con id="160" src="10" tgt="17" wght="1.9705969002097845" />
        <Con id="267" src="14" tgt="26" wght="-2.1009994810447097" />
        <Con id="279" src="7" tgt="18" wght="1.29987631179758" />
        <Con id="308" src="3" tgt="25" wght="5" />
        <Con id="331" src="12" tgt="24" wght="5" />
        <Con id="366" src="12" tgt="23" wght="-3.506306940689683" />
        <Con id="460" src="9" tgt="25" wght="0.955368266440928" />
        <Con id="531" src="0" tgt="530" wght="0.42629345100473104" />
        <Con id="532" src="530" tgt="17" wght="4.9820527427779373" />
        <Con id="538" src="3" tgt="19" wght="-3.5528050691273041" />
      </Connections>
    </Network>
    <Network id="12904" birthGen="10" fitness="0">
      <Nodes>
        <Node type="bias" id="0" />
        <Node type="in" id="1" />
        <Node type="in" id="2" />
        <Node type="in" id="3" />
        <Node type="in" id="4" />
        <Node type="in" id="5" />
        <Node type="in" id="6" />
        <Node type="in" id="7" />
        <Node type="in" id="8" />
        <Node type="in" id="9" />
        <Node type="in" id="10" />
        <Node type="in" id="11" />
        <Node type="in" id="12" />
        <Node type="in" id="13" />
        <Node type="in" id="14" />
        <Node type="out" id="15" />
        <Node type="out" id="16" />
        <Node type="out" id="17" />
        <Node type="out" id="18" />
        <Node type="out" id="19" />
        <Node type="out" id="20" />
        <Node type="out" id="21" />
        <Node type="out" id="22" />
        <Node type="out" id="23" />
        <Node type="out" id="24" />
        <Node type="out" id="25" />
        <Node type="out" id="26" />
        <Node type="out" id="27" />
        <Node type="hid" id="530" />
      </Nodes>
      <Connections>
        <Con id="33" src="0" tgt="20" wght="1.7295314744114876" />
        <Con id="34" src="0" tgt="21" wght="-1.5799951620797261" />
        <Con id="36" src="0" tgt="23" wght="-3.7212584586814046" />
        <Con id="89" src="4" tgt="24" wght="-0.12496527217377568" />
        <Con id="94" src="5" tgt="16" wght="2.7326965819468372" />
        <Con id="105" src="5" tgt="27" wght="3.8597564697176887" />
        <Con id="109" src="6" tgt="18" wght="3.3681941172108054" />
        <Con id="126" src="7" tgt="22" wght="1.4974564948836528" />
        <Con id="146" src="9" tgt="16" wght="5" />
        <Con id="160" src="10" tgt="17" wght="1.9705969002097845" />
        <Con id="267" src="14" tgt="26" wght="-2.1009994810447097" />
        <Con id="279" src="7" tgt="18" wght="1.29987631179758" />
        <Con id="308" src="3" tgt="25" wght="5" />
        <Con id="331" src="12" tgt="24" wght="5" />
        <Con id="366" src="12" tgt="23" wght="-1.357742864638567" />
        <Con id="460" src="9" tgt="25" wght="0.955368266440928" />
        <Con id="531" src="0" tgt="530" wght="0.42629345100473104" />
        <Con id="532" src="530" tgt="17" wght="4.9820527427779373" />
        <Con id="538" src="3" tgt="19" wght="-3.5528050691273041" />
      </Connections>
    </Network>
    <Network id="12905" birthGen="10" fitness="0">
      <Nodes>
        <Node type="bias" id="0" />
        <Node type="in" id="1" />
        <Node type="in" id="2" />
        <Node type="in" id="3" />
        <Node type="in" id="4" />
        <Node type="in" id="5" />
        <Node type="in" id="6" />
        <Node type="in" id="7" />
        <Node type="in" id="8" />
        <Node type="in" id="9" />
        <Node type="in" id="10" />
        <Node type="in" id="11" />
        <Node type="in" id="12" />
        <Node type="in" id="13" />
        <Node type="in" id="14" />
        <Node type="out" id="15" />
        <Node type="out" id="16" />
        <Node type="out" id="17" />
        <Node type="out" id="18" />
        <Node type="out" id="19" />
        <Node type="out" id="20" />
        <Node type="out" id="21" />
        <Node type="out" id="22" />
        <Node type="out" id="23" />
        <Node type="out" id="24" />
        <Node type="out" id="25" />
        <Node type="out" id="26" />
        <Node type="out" id="27" />
        <Node type="hid" id="530" />
      </Nodes>
      <Connections>
        <Con id="33" src="0" tgt="20" wght="-1.9585789003644516" />
        <Con id="34" src="0" tgt="21" wght="-1.5799951620797261" />
        <Con id="36" src="0" tgt="23" wght="-3.7212584586814046" />
        <Con id="89" src="4" tgt="24" wght="-0.12496527217377568" />
        <Con id="94" src="5" tgt="16" wght="2.7326965819468372" />
        <Con id="105" src="5" tgt="27" wght="3.8597564697176887" />
        <Con id="109" src="6" tgt="18" wght="3.3681941172108054" />
        <Con id="126" src="7" tgt="22" wght="1.4974564948836528" />
        <Con id="146" src="9" tgt="16" wght="5" />
        <Con id="160" src="10" tgt="17" wght="1.9705969002097845" />
        <Con id="267" src="14" tgt="26" wght="-2.1009994810447097" />
        <Con id="279" src="7" tgt="18" wght="1.29987631179758" />
        <Con id="308" src="3" tgt="25" wght="5" />
        <Con id="331" src="12" tgt="24" wght="2.8732691192741124" />
        <Con id="366" src="12" tgt="23" wght="-3.506306940689683" />
        <Con id="460" src="9" tgt="25" wght="0.955368266440928" />
        <Con id="531" src="0" tgt="530" wght="0.42629345100473104" />
        <Con id="532" src="530" tgt="17" wght="4.9820527427779373" />
        <Con id="538" src="3" tgt="19" wght="-3.5528050691273041" />
      </Connections>
    </Network>
    <Network id="12906" birthGen="10" fitness="0">
      <Nodes>
        <Node type="bias" id="0" />
        <Node type="in" id="1" />
        <Node type="in" id="2" />
        <Node type="in" id="3" />
        <Node type="in" id="4" />
        <Node type="in" id="5" />
        <Node type="in" id="6" />
        <Node type="in" id="7" />
        <Node type="in" id="8" />
        <Node type="in" id="9" />
        <Node type="in" id="10" />
        <Node type="in" id="11" />
        <Node type="in" id="12" />
        <Node type="in" id="13" />
        <Node type="in" id="14" />
        <Node type="out" id="15" />
        <Node type="out" id="16" />
        <Node type="out" id="17" />
        <Node type="out" id="18" />
        <Node type="out" id="19" />
        <Node type="out" id="20" />
        <Node type="out" id="21" />
        <Node type="out" id="22" />
        <Node type="out" id="23" />
        <Node type="out" id="24" />
        <Node type="out" id="25" />
        <Node type="out" id="26" />
        <Node type="out" id="27" />
        <Node type="hid" id="530" />
      </Nodes>
      <Connections>
        <Con id="33" src="0" tgt="20" wght="-1.9585789003644516" />
        <Con id="34" src="0" tgt="21" wght="-1.5799951620797261" />
        <Con id="36" src="0" tgt="23" wght="-3.7212584586814046" />
        <Con id="89" src="4" tgt="24" wght="-0.12496527217377568" />
        <Con id="94" src="5" tgt="16" wght="2.7326965819468372" />
        <Con id="105" src="5" tgt="27" wght="3.8597564697176887" />
        <Con id="109" src="6" tgt="18" wght="3.3681941172108054" />
        <Con id="126" src="7" tgt="22" wght="1.4974564948836528" />
        <Con id="146" src="9" tgt="16" wght="5" />
        <Con id="160" src="10" tgt="17" wght="1.9705969002097845" />
        <Con id="267" src="14" tgt="26" wght="-2.1009994810447097" />
        <Con id="279" src="7" tgt="18" wght="1.29987631179758" />
        <Con id="308" src="3" tgt="25" wght="4.9990561844855481" />
        <Con id="331" src="12" tgt="24" wght="5" />
        <Con id="366" src="12" tgt="23" wght="-3.506306940689683" />
        <Con id="460" src="9" tgt="25" wght="0.955368266440928" />
        <Con id="531" src="0" tgt="530" wght="0.42629345100473104" />
        <Con id="532" src="530" tgt="17" wght="4.9820527427779373" />
        <Con id="538" src="3" tgt="19" wght="-3.5528050691273041" />
      </Connections>
    </Network>
    <Network id="12907" birthGen="10" fitness="0">
      <Nodes>
        <Node type="bias" id="0" />
        <Node type="in" id="1" />
        <Node type="in" id="2" />
        <Node type="in" id="3" />
        <Node type="in" id="4" />
        <Node type="in" id="5" />
        <Node type="in" id="6" />
        <Node type="in" id="7" />
        <Node type="in" id="8" />
        <Node type="in" id="9" />
        <Node type="in" id="10" />
        <Node type="in" id="11" />
        <Node type="in" id="12" />
        <Node type="in" id="13" />
        <Node type="in" id="14" />
        <Node type="out" id="15" />
        <Node type="out" id="16" />
        <Node type="out" id="17" />
        <Node type="out" id="18" />
        <Node type="out" id="19" />
        <Node type="out" id="20" />
        <Node type="out" id="21" />
        <Node type="out" id="22" />
        <Node type="out" id="23" />
        <Node type="out" id="24" />
        <Node type="out" id="25" />
        <Node type="out" id="26" />
        <Node type="out" id="27" />
        <Node type="hid" id="530" />
      </Nodes>
      <Connections>
        <Con id="33" src="0" tgt="20" wght="-1.9585789003644516" />
        <Con id="34" src="0" tgt="21" wght="-1.5799951620797261" />
        <Con id="36" src="0" tgt="23" wght="-3.7212584586814046" />
        <Con id="89" src="4" tgt="24" wght="-0.12496527217377568" />
        <Con id="94" src="5" tgt="16" wght="2.7326965819468372" />
        <Con id="105" src="5" tgt="27" wght="3.8597564697176887" />
        <Con id="109" src="6" tgt="18" wght="3.3681941172108054" />
        <Con id="126" src="7" tgt="22" wght="1.4710145798865424" />
        <Con id="146" src="9" tgt="16" wght="5" />
        <Con id="160" src="10" tgt="17" wght="1.9705969002097845" />
        <Con id="267" src="14" tgt="26" wght="-2.1009994810447097" />
        <Con id="279" src="7" tgt="18" wght="1.29987631179758" />
        <Con id="308" src="3" tgt="25" wght="5" />
        <Con id="331" src="12" tgt="24" wght="5" />
        <Con id="366" src="12" tgt="23" wght="-3.506306940689683" />
        <Con id="460" src="9" tgt="25" wght="0.955368266440928" />
        <Con id="531" src="0" tgt="530" wght="0.42629345100473104" />
        <Con id="532" src="530" tgt="17" wght="4.9820527427779373" />
        <Con id="538" src="3" tgt="19" wght="-3.5528050691273041" />
      </Connections>
    </Network>
    <Network id="12908" birthGen="10" fitness="2">
      <Nodes>
        <Node type="bias" id="0" />
        <Node type="in" id="1" />
        <Node type="in" id="2" />
        <Node type="in" id="3" />
        <Node type="in" id="4" />
        <Node type="in" id="5" />
        <Node type="in" id="6" />
        <Node type="in" id="7" />
        <Node type="in" id="8" />
        <Node type="in" id="9" />
        <Node type="in" id="10" />
        <Node type="in" id="11" />
        <Node type="in" id="12" />
        <Node type="in" id="13" />
        <Node type="in" id="14" />
        <Node type="out" id="15" />
        <Node type="out" id="16" />
        <Node type="out" id="17" />
        <Node type="out" id="18" />
        <Node type="out" id="19" />
        <Node type="out" id="20" />
        <Node type="out" id="21" />
        <Node type="out" id="22" />
        <Node type="out" id="23" />
        <Node type="out" id="24" />
        <Node type="out" id="25" />
        <Node type="out" id="26" />
        <Node type="out" id="27" />
        <Node type="hid" id="530" />
      </Nodes>
      <Connections>
        <Con id="33" src="0" tgt="20" wght="-1.9585789003644516" />
        <Con id="34" src="0" tgt="21" wght="-1.5799951620797261" />
        <Con id="36" src="0" tgt="23" wght="-3.7212584586814046" />
        <Con id="89" src="4" tgt="24" wght="-0.12496527217377568" />
        <Con id="94" src="5" tgt="16" wght="2.7326965819468372" />
        <Con id="105" src="5" tgt="27" wght="3.8597564697176887" />
        <Con id="109" src="6" tgt="18" wght="3.3681941172108054" />
        <Con id="126" src="7" tgt="22" wght="1.4974564948836528" />
        <Con id="146" src="9" tgt="16" wght="5" />
        <Con id="160" src="10" tgt="17" wght="1.9705969002097845" />
        <Con id="267" src="14" tgt="26" wght="-2.1009994810447097" />
        <Con id="279" src="7" tgt="18" wght="1.29987631179758" />
        <Con id="308" src="3" tgt="25" wght="5" />
        <Con id="331" src="12" tgt="24" wght="5" />
        <Con id="366" src="12" tgt="23" wght="-3.506306940689683" />
        <Con id="460" src="9" tgt="25" wght="0.955368266440928" />
        <Con id="531" src="0" tgt="530" wght="0.42629345100473104" />
        <Con id="532" src="530" tgt="17" wght="4.9820527427779373" />
        <Con id="538" src="3" tgt="19" wght="-3.5261560200488549" />
      </Connections>
    </Network>
    <Network id="12909" birthGen="10" fitness="0">
      <Nodes>
        <Node type="bias" id="0" />
        <Node type="in" id="1" />
        <Node type="in" id="2" />
        <Node type="in" id="3" />
        <Node type="in" id="4" />
        <Node type="in" id="5" />
        <Node type="in" id="6" />
        <Node type="in" id="7" />
        <Node type="in" id="8" />
        <Node type="in" id="9" />
        <Node type="in" id="10" />
        <Node type="in" id="11" />
        <Node type="in" id="12" />
        <Node type="in" id="13" />
        <Node type="in" id="14" />
        <Node type="out" id="15" />
        <Node type="out" id="16" />
        <Node type="out" id="17" />
        <Node type="out" id="18" />
        <Node type="out" id="19" />
