<?xml version="1.0" encoding="utf-8"?>
<Root>
  <ActivationFunctions>
    <Fn id="0" name="SteepenedSigmoid" prob="1" />
  </ActivationFunctions>
  <Networks>
    <Network id="46909" birthGen="19" fitness="4.744140625">
      <Nodes>
        <Node type="bias" id="0" />
        <Node type="in" id="1" />
        <Node type="in" id="2" />
        <Node type="in" id="3" />
        <Node type="in" id="4" />
        <Node type="in" id="5" />
        <Node type="in" id="6" />
        <Node type="in" id="7" />
        <Node type="in" id="8" />
        <Node type="in" id="9" />
        <Node type="in" id="10" />
        <Node type="in" id="11" />
        <Node type="in" id="12" />
        <Node type="in" id="13" />
        <Node type="in" id="14" />
        <Node type="out" id="15" />
        <Node type="out" id="16" />
        <Node type="out" id="17" />
        <Node type="out" id="18" />
        <Node type="out" id="19" />
        <Node type="out" id="20" />
        <Node type="out" id="21" />
        <Node type="out" id="22" />
        <Node type="out" id="23" />
        <Node type="out" id="24" />
        <Node type="out" id="25" />
        <Node type="out" id="26" />
        <Node type="out" id="27" />
        <Node type="hid" id="695" />
        <Node type="hid" id="705" />
        <Node type="hid" id="1051" />
      </Nodes>
      <Connections>
        <Con id="42" src="1" tgt="16" wght="3.3368900575182505" />
        <Con id="55" src="2" tgt="16" wght="2.6151840156228414" />
        <Con id="57" src="2" tgt="18" wght="3.3287024274416082" />
        <Con id="67" src="3" tgt="15" wght="2.2253446843469424" />
        <Con id="126" src="7" tgt="22" wght="-4.184682145206442" />
        <Con id="134" src="8" tgt="17" wght="0.081897272242576785" />
        <Con id="189" src="12" tgt="20" wght="3.2718120362507852" />
        <Con id="201" src="13" tgt="19" wght="-1.4826324141853844" />
        <Con id="232" src="1" tgt="23" wght="5" />
        <Con id="234" src="8" tgt="26" wght="0.84427300113912684" />
        <Con id="238" src="1" tgt="25" wght="-2.5691556021057118" />
        <Con id="241" src="5" tgt="16" wght="-1.9858404989880829" />
        <Con id="242" src="7" tgt="25" wght="2.1713332994489729" />
        <Con id="252" src="0" tgt="26" wght="-0.61112965922802687" />
        <Con id="253" src="1" tgt="22" wght="4.8666219089478737" />
        <Con id="254" src="10" tgt="24" wght="-3.0065624475749586" />
        <Con id="257" src="3" tgt="26" wght="-0.39237049969835414" />
        <Con id="258" src="9" tgt="17" wght="3.4365330025146785" />
        <Con id="260" src="14" tgt="18" wght="-3.7790622475544118" />
        <Con id="264" src="1" tgt="15" wght="-1.4722959813004843" />
        <Con id="265" src="5" tgt="21" wght="0.8272720180788864" />
        <Con id="279" src="11" tgt="17" wght="0.3750811716244225" />
        <Con id="289" src="4" tgt="17" wght="-4.5063780828388422" />
        <Con id="290" src="1" tgt="17" wght="2.4625922358899262" />
        <Con id="292" src="6" tgt="21" wght="0.89725528988330161" />
        <Con id="296" src="7" tgt="17" wght="0.74310108061469737" />
        <Con id="308" src="10" tgt="16" wght="0.18564684234218209" />
        <Con id="309" src="2" tgt="17" wght="1.6095033741738654" />
        <Con id="311" src="10" tgt="25" wght="-0.94875826122728135" />
        <Con id="312" src="9" tgt="22" wght="-2.8673794449317622" />
        <Con id="315" src="11" tgt="21" wght="4.6915590945730532" />
        <Con id="316" src="8" tgt="23" wght="-3.4926379940112433" />
        <Con id="317" src="5" tgt="18" wght="3.5391434058268332" />
        <Con id="319" src="9" tgt="19" wght="2.9506256629266914" />
        <Con id="324" src="1" tgt="20" wght="4.2065307936487519" />
        <Con id="326" src="14" tgt="17" wght="4.1948268108179132" />
        <Con id="331" src="6" tgt="23" wght="-4.0623342897742987" />
        <Con id="337" src="10" tgt="19" wght="-3.1557172294761804" />
        <Con id="347" src="9" tgt="20" wght="2.2129700743369458" />
        <Con id="351" src="0" tgt="24" wght="-2.5934046707064042" />
        <Con id="363" src="12" tgt="26" wght="4.5500402020555777" />
        <Con id="371" src="3" tgt="16" wght="4.6975933287745049" />
        <Con id="385" src="4" tgt="26" wght="-2.0549034314406223" />
        <Con id="386" src="5" tgt="22" wght="1.6596379558045129" />
        <Con id="387" src="3" tgt="24" wght="4.5627028219722892" />
        <Con id="404" src="0" tgt="15" wght="-3.0246758639797893" />
        <Con id="407" src="2" tgt="24" wght="-4.5512411761362976" />
        <Con id="429" src="7" tgt="20" wght="1.1556640685670094" />
        <Con id="434" src="3" tgt="23" wght="-4.2889517061672" />
        <Con id="435" src="6" tgt="22" wght="1.7972393480008162" />
        <Con id="441" src="0" tgt="20" wght="-3.6161081411128926" />
        <Con id="475" src="6" tgt="26" wght="2.6399405440315604" />
        <Con id="476" src="10" tgt="17" wght="-2.399172062262644" />
        <Con id="510" src="4" tgt="22" wght="0.70550407853798491" />
        <Con id="514" src="5" tgt="25" wght="1.9289283698743858" />
        <Con id="696" src="6" tgt="695" wght="3.9837842424626486" />
        <Con id="697" src="695" tgt="20" wght="5" />
        <Con id="698" src="3" tgt="27" wght="-2.7495806566587273" />
        <Con id="706" src="5" tgt="705" wght="-5" />
        <Con id="707" src="705" tgt="15" wght="5" />
        <Con id="776" src="10" tgt="695" wght="0.036820045277894384" />
        <Con id="839" src="705" tgt="19" wght="0.47096939098775725" />
        <Con id="1045" src="695" tgt="27" wght="-3.7420671619474888" />
        <Con id="1052" src="4" tgt="1051" wght="-1.2744666961953044" />
        <Con id="1053" src="1051" tgt="24" wght="5" />
        <Con id="1117" src="3" tgt="17" wght="1.2864445196464658" />
      </Connections>
    </Network>
    <Network id="46983" birthGen="20" fitness="7.249755859375">
      <Nodes>
        <Node type="bias" id="0" />
        <Node type="in" id="1" />
        <Node type="in" id="2" />
        <Node type="in" id="3" />
        <Node type="in" id="4" />
        <Node type="in" id="5" />
        <Node type="in" id="6" />
        <Node type="in" id="7" />
        <Node type="in" id="8" />
        <Node type="in" id="9" />
        <Node type="in" id="10" />
        <Node type="in" id="11" />
        <Node type="in" id="12" />
        <Node type="in" id="13" />
        <Node type="in" id="14" />
        <Node type="out" id="15" />
        <Node type="out" id="16" />
        <Node type="out" id="17" />
        <Node type="out" id="18" />
        <Node type="out" id="19" />
        <Node type="out" id="20" />
        <Node type="out" id="21" />
        <Node type="out" id="22" />
        <Node type="out" id="23" />
        <Node type="out" id="24" />
        <Node type="out" id="25" />
        <Node type="out" id="26" />
        <Node type="out" id="27" />
        <Node type="hid" id="695" />
        <Node type="hid" id="705" />
        <Node type="hid" id="1051" />
      </Nodes>
      <Connections>
        <Con id="42" src="1" tgt="16" wght="3.3368900575182505" />
        <Con id="55" src="2" tgt="16" wght="2.6151840156228414" />
        <Con id="57" src="2" tgt="18" wght="3.3287024274416082" />
        <Con id="67" src="3" tgt="15" wght="2.2253446843469424" />
        <Con id="126" src="7" tgt="22" wght="-4.184682145206442" />
        <Con id="134" src="8" tgt="17" wght="0.081897272242576785" />
        <Con id="189" src="12" tgt="20" wght="3.2718120362507852" />
        <Con id="201" src="13" tgt="19" wght="-1.4826324141853844" />
        <Con id="232" src="1" tgt="23" wght="5" />
        <Con id="234" src="8" tgt="26" wght="0.84427300113912684" />
        <Con id="238" src="1" tgt="25" wght="-2.5691556021057118" />
        <Con id="241" src="5" tgt="16" wght="-1.9858404989880829" />
        <Con id="242" src="7" tgt="25" wght="2.8620538608769213" />
        <Con id="252" src="0" tgt="26" wght="-0.61112965922802687" />
        <Con id="253" src="1" tgt="22" wght="4.8666219089478737" />
        <Con id="254" src="10" tgt="24" wght="-3.0065624475749586" />
        <Con id="257" src="3" tgt="26" wght="-0.39237049969835414" />
        <Con id="258" src="9" tgt="17" wght="3.4365330025146785" />
        <Con id="260" src="14" tgt="18" wght="-3.7790622475544118" />
        <Con id="264" src="1" tgt="15" wght="-1.4722959813004843" />
        <Con id="265" src="5" tgt="21" wght="0.8272720180788864" />
        <Con id="279" src="11" tgt="17" wght="0.3750811716244225" />
        <Con id="289" src="4" tgt="17" wght="-4.5063780828388422" />
        <Con id="290" src="1" tgt="17" wght="2.4625922358899262" />
        <Con id="292" src="6" tgt="21" wght="0.89725528988330161" />
        <Con id="296" src="7" tgt="17" wght="0.74310108061469737" />
        <Con id="308" src="10" tgt="16" wght="0.18564684234218209" />
        <Con id="309" src="2" tgt="17" wght="1.6095033741738654" />
        <Con id="311" src="10" tgt="25" wght="-0.94875826122728135" />
        <Con id="312" src="9" tgt="22" wght="-2.8673794449317622" />
        <Con id="315" src="11" tgt="21" wght="4.6915590945730532" />
        <Con id="316" src="8" tgt="23" wght="-3.4926379940112433" />
        <Con id="317" src="5" tgt="18" wght="3.5391434058268332" />
        <Con id="319" src="9" tgt="19" wght="2.9506256629266914" />
        <Con id="324" src="1" tgt="20" wght="4.2065307936487519" />
        <Con id="326" src="14" tgt="17" wght="4.1948268108179132" />
        <Con id="331" src="6" tgt="23" wght="-4.0623342897742987" />
        <Con id="337" src="10" tgt="19" wght="-3.1557172294761804" />
        <Con id="347" src="9" tgt="20" wght="2.2129700743369458" />
        <Con id="351" src="0" tgt="24" wght="-2.5934046707064042" />
        <Con id="363" src="12" tgt="26" wght="4.5500402020555777" />
        <Con id="371" src="3" tgt="16" wght="4.6975933287745049" />
        <Con id="385" src="4" tgt="26" wght="-2.0549034314406223" />
        <Con id="386" src="5" tgt="22" wght="1.6596379558045129" />
        <Con id="387" src="3" tgt="24" wght="4.5627028219722892" />
        <Con id="404" src="0" tgt="15" wght="-3.0246758639797893" />
        <Con id="407" src="2" tgt="24" wght="-4.5512411761362976" />
        <Con id="429" src="7" tgt="20" wght="1.1556640685670094" />
        <Con id="434" src="3" tgt="23" wght="-4.2889517061672" />
        <Con id="435" src="6" tgt="22" wght="1.7972393480008162" />
        <Con id="441" src="0" tgt="20" wght="-3.6161081411128926" />
        <Con id="475" src="6" tgt="26" wght="2.6399405440315604" />
        <Con id="476" src="10" tgt="17" wght="-2.399172062262644" />
        <Con id="510" src="4" tgt="22" wght="0.70550407853798491" />
        <Con id="514" src="5" tgt="25" wght="1.9289283698743858" />
        <Con id="696" src="6" tgt="695" wght="3.9837842424626486" />
        <Con id="697" src="695" tgt="20" wght="5" />
        <Con id="698" src="3" tgt="27" wght="-2.7495806566587273" />
        <Con id="706" src="5" tgt="705" wght="-5" />
        <Con id="707" src="705" tgt="15" wght="5" />
        <Con id="776" src="10" tgt="695" wght="0.036820045277894384" />
        <Con id="839" src="705" tgt="19" wght="0.47096939098775725" />
        <Con id="1045" src="695" tgt="27" wght="-3.7420671619474888" />
        <Con id="1052" src="4" tgt="1051" wght="-1.2744666961953044" />
        <Con id="1053" src="1051" tgt="24" wght="5" />
        <Con id="1117" src="3" tgt="17" wght="1.2864445196464658" />
      </Connections>
    </Network>
    <Network id="46827" birthGen="18" fitness="4.373046875">
      <Nodes>
        <Node type="bias" id="0" />
        <Node type="in" id="1" />
        <Node type="in" id="2" />
        <Node type="in" id="3" />
        <Node type="in" id="4" />
        <Node type="in" id="5" />
        <Node type="in" id="6" />
        <Node type="in" id="7" />
        <Node type="in" id="8" />
        <Node type="in" id="9" />
        <Node type="in" id="10" />
        <Node type="in" id="11" />
        <Node type="in" id="12" />
        <Node type="in" id="13" />
        <Node type="in" id="14" />
        <Node type="out" id="15" />
        <Node type="out" id="16" />
        <Node type="out" id="17" />
        <Node type="out" id="18" />
        <Node type="out" id="19" />
        <Node type="out" id="20" />
        <Node type="out" id="21" />
        <Node type="out" id="22" />
        <Node type="out" id="23" />
        <Node type="out" id="24" />
        <Node type="out" id="25" />
        <Node type="out" id="26" />
        <Node type="out" id="27" />
        <Node type="hid" id="695" />
        <Node type="hid" id="705" />
        <Node type="hid" id="1051" />
      </Nodes>
      <Connections>
        <Con id="42" src="1" tgt="16" wght="3.3368900575182505" />
        <Con id="55" src="2" tgt="16" wght="2.6151840156228414" />
        <Con id="57" src="2" tgt="18" wght="3.3287024274416082" />
        <Con id="67" src="3" tgt="15" wght="2.2253446843469424" />
        <Con id="126" src="7" tgt="22" wght="-4.184682145206442" />
        <Con id="134" src="8" tgt="17" wght="0.081897272242576785" />
        <Con id="189" src="12" tgt="20" wght="3.2718120362507852" />
        <Con id="201" src="13" tgt="19" wght="-1.4826324141853844" />
        <Con id="232" src="1" tgt="23" wght="5" />
        <Con id="234" src="8" tgt="26" wght="0.84427300113912684" />
        <Con id="238" src="1" tgt="25" wght="-2.5691556021057118" />
        <Con id="241" src="5" tgt="16" wght="-1.9858404989880829" />
        <Con id="242" src="7" tgt="25" wght="2.1713332994489729" />
        <Con id="252" src="0" tgt="26" wght="-0.61112965922802687" />
        <Con id="253" src="1" tgt="22" wght="4.8666219089478737" />
        <Con id="254" src="10" tgt="24" wght="-3.0065624475749586" />
        <Con id="257" src="3" tgt="26" wght="-0.39237049969835414" />
        <Con id="258" src="9" tgt="17" wght="3.4365330025146785" />
        <Con id="260" src="14" tgt="18" wght="-3.7790622475544118" />
        <Con id="264" src="1" tgt="15" wght="-1.4722959813004843" />
        <Con id="265" src="5" tgt="21" wght="0.8272720180788864" />
        <Con id="279" src="11" tgt="17" wght="0.3750811716244225" />
        <Con id="289" src="4" tgt="17" wght="-4.5063780828388422" />
        <Con id="290" src="1" tgt="17" wght="2.4625922358899262" />
        <Con id="292" src="6" tgt="21" wght="0.89725528988330161" />
        <Con id="296" src="7" tgt="17" wght="0.74310108061469737" />
        <Con id="308" src="10" tgt="16" wght="0.18564684234218209" />
        <Con id="309" src="2" tgt="17" wght="1.6095033741738654" />
        <Con id="311" src="10" tgt="25" wght="-0.94875826122728135" />
        <Con id="312" src="9" tgt="22" wght="-2.8673794449317622" />
        <Con id="315" src="11" tgt="21" wght="4.6915590945730532" />
        <Con id="316" src="8" tgt="23" wght="-3.4926379940112433" />
        <Con id="317" src="5" tgt="18" wght="3.5391434058268332" />
        <Con id="319" src="9" tgt="19" wght="2.9506256629266914" />
        <Con id="324" src="1" tgt="20" wght="4.2065307936487519" />
        <Con id="326" src="14" tgt="17" wght="4.1948268108179132" />
        <Con id="331" src="6" tgt="23" wght="-4.0623342897742987" />
        <Con id="337" src="10" tgt="19" wght="-3.1557172294761804" />
        <Con id="347" src="9" tgt="20" wght="2.2129700743369458" />
        <Con id="351" src="0" tgt="24" wght="-2.5934046707064042" />
        <Con id="363" src="12" tgt="26" wght="4.5675418292891834" />
        <Con id="371" src="3" tgt="16" wght="4.6975933287745049" />
        <Con id="385" src="4" tgt="26" wght="-2.0549034314406223" />
        <Con id="386" src="5" tgt="22" wght="1.6596379558045129" />
        <Con id="387" src="3" tgt="24" wght="4.5627028219722892" />
        <Con id="404" src="0" tgt="15" wght="-3.0246758639797893" />
        <Con id="407" src="2" tgt="24" wght="-4.5512411761362976" />
        <Con id="429" src="7" tgt="20" wght="1.1556640685670094" />
        <Con id="434" src="3" tgt="23" wght="-4.2889517061672" />
        <Con id="435" src="6" tgt="22" wght="1.7972393480008162" />
        <Con id="441" src="0" tgt="20" wght="-3.6161081411128926" />
        <Con id="475" src="6" tgt="26" wght="2.6399405440315604" />
        <Con id="476" src="10" tgt="17" wght="-2.399172062262644" />
        <Con id="510" src="4" tgt="22" wght="0.70550407853798491" />
        <Con id="514" src="5" tgt="25" wght="1.9289283698743858" />
        <Con id="696" src="6" tgt="695" wght="3.9837842424626486" />
        <Con id="697" src="695" tgt="20" wght="5" />
        <Con id="698" src="3" tgt="27" wght="-2.7495806566587273" />
        <Con id="706" src="5" tgt="705" wght="-5" />
        <Con id="707" src="705" tgt="15" wght="5" />
        <Con id="776" src="10" tgt="695" wght="0.036820045277894384" />
        <Con id="839" src="705" tgt="19" wght="0.47096939098775725" />
        <Con id="1045" src="695" tgt="27" wght="-3.7420671619474888" />
        <Con id="1052" src="4" tgt="1051" wght="-1.2744666961953044" />
        <Con id="1053" src="1051" tgt="24" wght="5" />
        <Con id="1117" src="3" tgt="17" wght="1.2864445196464658" />
        <Con id="1123" src="695" tgt="24" wght="4.2233379976823926" />
      </Connections>
    </Network>
    <Network id="46911" birthGen="19" fitness="2.999755859375">
      <Nodes>
        <Node type="bias" id="0" />
        <Node type="in" id="1" />
        <Node type="in" id="2" />
        <Node type="in" id="3" />
        <Node type="in" id="4" />
        <Node type="in" id="5" />
        <Node type="in" id="6" />
        <Node type="in" id="7" />
        <Node type="in" id="8" />
        <Node type="in" id="9" />
        <Node type="in" id="10" />
        <Node type="in" id="11" />
        <Node type="in" id="12" />
        <Node type="in" id="13" />
        <Node type="in" id="14" />
        <Node type="out" id="15" />
        <Node type="out" id="16" />
        <Node type="out" id="17" />
        <Node type="out" id="18" />
        <Node type="out" id="19" />
        <Node type="out" id="20" />
        <Node type="out" id="21" />
        <Node type="out" id="22" />
        <Node type="out" id="23" />
        <Node type="out" id="24" />
        <Node type="out" id="25" />
        <Node type="out" id="26" />
        <Node type="out" id="27" />
        <Node type="hid" id="695" />
        <Node type="hid" id="705" />
      </Nodes>
      <Connections>
        <Con id="42" src="1" tgt="16" wght="2.578491243244164" />
        <Con id="55" src="2" tgt="16" wght="2.5519504444673657" />
        <Con id="57" src="2" tgt="18" wght="3.1890489667018005" />
        <Con id="67" src="3" tgt="15" wght="2.0894995274020354" />
        <Con id="126" src="7" tgt="22" wght="-4.230233315599663" />
        <Con id="134" src="8" tgt="17" wght="0.95513209555197431" />
        <Con id="189" src="12" tgt="20" wght="-0.66996484994888306" />
        <Con id="201" src="13" tgt="19" wght="-1.2148246041833171" />
        <Con id="232" src="1" tgt="23" wght="4.9803124976651212" />
        <Con id="234" src="8" tgt="26" wght="0.22939962534617628" />
        <Con id="238" src="1" tgt="25" wght="-3.3048630027173127" />
        <Con id="241" src="5" tgt="16" wght="-1.9288789020283459" />
        <Con id="242" src="7" tgt="25" wght="1.9919706872241121" />
        <Con id="252" src="0" tgt="26" wght="-0.62881836476945208" />
        <Con id="254" src="10" tgt="24" wght="-3.5133020197965235" />
        <Con id="258" src="9" tgt="17" wght="3.4365330025146785" />
        <Con id="260" src="14" tgt="18" wght="-3.7741724386838431" />
        <Con id="264" src="1" tgt="15" wght="-1.4722959813004843" />
        <Con id="265" src="5" tgt="21" wght="-0.36917955310150918" />
        <Con id="279" src="11" tgt="17" wght="0.3750811716244225" />
        <Con id="289" src="4" tgt="17" wght="-4.5063780828388422" />
        <Con id="290" src="1" tgt="17" wght="-0.69224578533258041" />
        <Con id="292" src="6" tgt="21" wght="0.85241940760880264" />
        <Con id="296" src="7" tgt="17" wght="0.76095021337399038" />
        <Con id="308" src="10" tgt="16" wght="0.21706058247854007" />
        <Con id="309" src="2" tgt="17" wght="1.6095033741738654" />
        <Con id="311" src="10" tgt="25" wght="3.9992706244811416" />
        <Con id="312" src="9" tgt="22" wght="-2.8673794449317622" />
        <Con id="315" src="11" tgt="21" wght="4.6999559636317949" />
        <Con id="316" src="8" tgt="23" wght="-3.5302020006147115" />
        <Con id="317" src="5" tgt="18" wght="3.5391434058268332" />
        <Con id="319" src="9" tgt="19" wght="4.5556889940053225" />
        <Con id="324" src="1" tgt="20" wght="4.2065307936487519" />
        <Con id="326" src="14" tgt="17" wght="3.5029317997160097" />
        <Con id="331" src="6" tgt="23" wght="-4.0645968372052295" />
        <Con id="337" src="10" tgt="19" wght="-3.05962423729829" />
        <Con id="347" src="9" tgt="20" wght="0.36918472151381243" />
        <Con id="351" src="0" tgt="24" wght="-3.3596518589183688" />
        <Con id="354" src="13" tgt="16" wght="3.7618424603715539" />
        <Con id="363" src="12" tgt="26" wght="2.075195191643318" />
        <Con id="371" src="3" tgt="16" wght="4.6772125912798614" />
        <Con id="385" src="4" tgt="26" wght="-2.0399956683776987" />
        <Con id="386" src="5" tgt="22" wght="1.6596379558045129" />
        <Con id="387" src="3" tgt="24" wght="4.1859939600518663" />
        <Con id="404" src="0" tgt="15" wght="-3.0246758639797893" />
        <Con id="407" src="2" tgt="24" wght="-4.9807327305802431" />
        <Con id="429" src="7" tgt="20" wght="1.1556640685670094" />
        <Con id="434" src="3" tgt="23" wght="-4.2889517061672" />
        <Con id="435" src="6" tgt="22" wght="3.0454381137667621" />
        <Con id="441" src="0" tgt="20" wght="-3.815015209838748" />
        <Con id="475" src="6" tgt="26" wght="2.632370088552213" />
        <Con id="476" src="10" tgt="17" wght="-2.3726604340725324" />
        <Con id="480" src="4" tgt="24" wght="-1.2744666961953044" />
        <Con id="510" src="4" tgt="22" wght="0.66608552224257611" />
        <Con id="514" src="5" tgt="25" wght="1.9324687526431514" />
        <Con id="696" src="6" tgt="695" wght="3.9901912274221014" />
        <Con id="697" src="695" tgt="20" wght="4.99053130458785" />
        <Con id="698" src="3" tgt="27" wght="-2.7617054098351876" />
        <Con id="706" src="5" tgt="705" wght="-5" />
        <Con id="707" src="705" tgt="15" wght="5" />
        <Con id="776" src="10" tgt="695" wght="-1.3236787088016433" />
        <Con id="839" src="705" tgt="19" wght="0.44741776573962805" />
        <Con id="1045" src="695" tgt="27" wght="-3.7420671619474888" />
        <Con id="1058" src="705" tgt="23" wght="2.062894469127059" />
        <Con id="1072" src="11" tgt="16" wght="1.4932058658450842" />
      </Connections>
    </Network>
    <Network id="46998" birthGen="20" fitness="2.748046875">
      <Nodes>
        <Node type="bias" id="0" />
        <Node type="in" id="1" />
        <Node type="in" id="2" />
        <Node type="in" id="3" />
        <Node type="in" id="4" />
        <Node type="in" id="5" />
        <Node type="in" id="6" />
        <Node type="in" id="7" />
        <Node type="in" id="8" />
        <Node type="in" id="9" />
        <Node type="in" id="10" />
        <Node type="in" id="11" />
        <Node type="in" id="12" />
        <Node type="in" id="13" />
        <Node type="in" id="14" />
        <Node type="out" id="15" />
        <Node type="out" id="16" />
        <Node type="out" id="17" />
        <Node type="out" id="18" />
        <Node type="out" id="19" />
        <Node type="out" id="20" />
        <Node type="out" id="21" />
        <Node type="out" id="22" />
        <Node type="out" id="23" />
        <Node type="out" id="24" />
        <Node type="out" id="25" />
        <Node type="out" id="26" />
        <Node type="out" id="27" />
        <Node type="hid" id="695" />
        <Node type="hid" id="705" />
      </Nodes>
      <Connections>
        <Con id="42" src="1" tgt="16" wght="2.578491243244164" />
        <Con id="55" src="2" tgt="16" wght="2.6151840156228414" />
        <Con id="57" src="2" tgt="18" wght="3.3287024274416082" />
        <Con id="67" src="3" tgt="15" wght="0.36745015531778336" />
        <Con id="126" src="7" tgt="22" wght="-4.1815976502217627" />
        <Con id="134" src="8" tgt="17" wght="0.962227613565695" />
        <Con id="189" src="12" tgt="20" wght="3.9293862925842404" />
        <Con id="201" src="13" tgt="19" wght="-1.1897507724468799" />
        <Con id="232" src="1" tgt="23" wght="5" />
        <Con id="234" src="8" tgt="26" wght="0.22939962534617628" />
        <Con id="238" src="1" tgt="25" wght="-4.32346701156348" />
        <Con id="241" src="5" tgt="16" wght="-1.9470060077375324" />
        <Con id="242" src="7" tgt="25" wght="2.1851097971897873" />
        <Con id="252" src="0" tgt="26" wght="-0.61112965922802687" />
        <Con id="254" src="10" tgt="24" wght="-3.3362493329460996" />
        <Con id="258" src="9" tgt="17" wght="1.009169495664537" />
        <Con id="260" src="14" tgt="18" wght="-3.7741724386838431" />
        <Con id="264" src="1" tgt="15" wght="-1.4722959813004843" />
        <Con id="265" src="5" tgt="21" wght="-0.36917955310150918" />
        <Con id="279" src="11" tgt="17" wght="-0.32019442130417036" />
        <Con id="289" src="4" tgt="17" wght="-4.4942763739737224" />
        <Con id="290" src="1" tgt="17" wght="-0.24352131563793056" />
        <Con id="292" src="6" tgt="21" wght="0.86345265326608667" />
        <Con id="296" src="7" tgt="17" wght="0.76095021337399038" />
        <Con id="304" src="6" tgt="25" wght="3.928439120003381" />
        <Con id="308" src="10" tgt="16" wght="0.54163248002764375" />
        <Con id="309" src="2" tgt="17" wght="1.6095033741738654" />
        <Con id="311" src="10" tgt="25" wght="-1.7424057274928779" />
        <Con id="312" src="9" tgt="22" wght="-1.709808918172232" />
        <Con id="315" src="11" tgt="21" wght="4.9090482864263212" />
        <Con id="316" src="8" tgt="23" wght="-3.4926379940112433" />
        <Con id="317" src="5" tgt="18" wght="3.5391434058268332" />
        <Con id="319" src="9" tgt="19" wght="3.7099640706647383" />
        <Con id="324" src="1" tgt="20" wght="4.2065307936487519" />
        <Con id="326" src="14" tgt="17" wght="3.5029317997160097" />
        <Con id="331" src="6" tgt="23" wght="-4.0623342897742987" />
        <Con id="337" src="10" tgt="19" wght="-3.0543360476201182" />
        <Con id="347" src="9" tgt="20" wght="2.1698653025795296" />
        <Con id="351" src="0" tgt="24" wght="-2.5856473700710341" />
        <Con id="363" src="12" tgt="26" wght="3.541639070455211" />
        <Con id="364" src="3" tgt="18" wght="2.6539409443016475" />
        <Con id="371" src="3" tgt="16" wght="3.3572897358998395" />
        <Con id="377" src="9" tgt="25" wght="5" />
        <Con id="385" src="4" tgt="26" wght="-2.0399956683776987" />
        <Con id="386" src="5" tgt="22" wght="1.6596379558045129" />
        <Con id="387" src="3" tgt="24" wght="5" />
        <Con id="404" src="0" tgt="15" wght="-3.0246758639797893" />
        <Con id="407" src="2" tgt="24" wght="-5" />
        <Con id="429" src="7" tgt="20" wght="1.1461767565456904" />
        <Con id="434" src="3" tgt="23" wght="-3.0848443946163329" />
        <Con id="435" src="6" tgt="22" wght="2.289563129796846" />
        <Con id="441" src="0" tgt="20" wght="-4.136989197527531" />
        <Con id="475" src="6" tgt="26" wght="2.6451886065451689" />
        <Con id="476" src="10" tgt="17" wght="-2.4161242998952184" />
        <Con id="480" src="4" tgt="24" wght="-1.2744666961953044" />
        <Con id="510" src="4" tgt="22" wght="0.66608552224257611" />
        <Con id="514" src="5" tgt="25" wght="1.9324687526431514" />
        <Con id="696" src="6" tgt="695" wght="3.9901912274221014" />
        <Con id="697" src="695" tgt="20" wght="4.99053130458785" />
        <Con id="698" src="3" tgt="27" wght="-2.7495806566587273" />
        <Con id="706" src="5" tgt="705" wght="-2.8928595643806272" />
        <Con id="707" src="705" tgt="15" wght="5" />
        <Con id="776" src="10" tgt="695" wght="-1.3236787088016433" />
        <Con id="839" src="705" tgt="19" wght="0.44741776573962805" />
        <Con id="1045" src="695" tgt="27" wght="-1.132197231054306" />
        <Con id="1124" src="7" tgt="27" wght="2.2121787257492542" />
      </Connections>
    </Network>
    <Network id="47003" birthGen="20" fitness="0.62109375">
      <Nodes>
        <Node type="bias" id="0" />
        <Node type="in" id="1" />
        <Node type="in" id="2" />
        <Node type="in" id="3" />
        <Node type="in" id="4" />
        <Node type="in" id="5" />
        <Node type="in" id="6" />
        <Node type="in" id="7" />
        <Node type="in" id="8" />
        <Node type="in" id="9" />
        <Node type="in" id="10" />
        <Node type="in" id="11" />
        <Node type="in" id="12" />
        <Node type="in" id="13" />
        <Node type="in" id="14" />
        <Node type="out" id="15" />
        <Node type="out" id="16" />
        <Node type="out" id="17" />
        <Node type="out" id="18" />
        <Node type="out" id="19" />
        <Node type="out" id="20" />
        <Node type="out" id="21" />
        <Node type="out" id="22" />
        <Node type="out" id="23" />
        <Node type="out" id="24" />
        <Node type="out" id="25" />
        <Node type="out" id="26" />
        <Node type="out" id="27" />
        <Node type="hid" id="695" />
        <Node type="hid" id="705" />
      </Nodes>
      <Connections>
        <Con id="42" src="1" tgt="16" wght="2.4942513942938818" />
        <Con id="55" src="2" tgt="16" wght="2.6333858584985137" />
        <Con id="57" src="2" tgt="18" wght="3.3287024274416082" />
        <Con id="67" src="3" tgt="15" wght="-1.2612213334068656" />
        <Con id="126" src="7" tgt="22" wght="-5" />
        <Con id="134" src="8" tgt="17" wght="-0.33730434107509988" />
        <Con id="189" src="12" tgt="20" wght="4.02669069877566" />
        <Con id="201" src="13" tgt="19" wght="-1.1897507724468799" />
        <Con id="232" src="1" tgt="23" wght="5" />
        <Con id="234" src="8" tgt="26" wght="0.22939962534617628" />
        <Con id="238" src="1" tgt="25" wght="-3.3048630027173127" />
        <Con id="241" src="5" tgt="16" wght="-3.3839058643206954" />
        <Con id="242" src="7" tgt="25" wght="2.1851097971897873" />
        <Con id="252" src="0" tgt="26" wght="-0.61112965922802687" />
        <Con id="254" src="10" tgt="24" wght="-3.3362493329460996" />
        <Con id="258" src="9" tgt="17" wght="3.4365330025146785" />
        <Con id="260" src="14" tgt="18" wght="-3.7741724386838431" />
        <Con id="264" src="1" tgt="15" wght="-1.4722959813004843" />
        <Con id="265" src="5" tgt="21" wght="-0.36917955310150918" />
        <Con id="279" src="11" tgt="17" wght="-0.32019442130417036" />
        <Con id="289" src="4" tgt="17" wght="-4.4942763739737224" />
        <Con id="290" src="1" tgt="17" wght="-0.69224578533258041" />
        <Con id="292" src="6" tgt="21" wght="0.86345265326608667" />
        <Con id="296" src="7" tgt="17" wght="0.76095021337399038" />
        <Con id="304" src="6" tgt="25" wght="3.9195725414901972" />
        <Con id="308" src="10" tgt="16" wght="0.54163248002764375" />
        <Con id="309" src="2" tgt="17" wght="1.6095033741738654" />
        <Con id="311" src="10" tgt="25" wght="-0.92970592154636589" />
        <Con id="312" src="9" tgt="22" wght="4.7521303873509169" />
        <Con id="315" src="11" tgt="21" wght="4.6915590945730532" />
        <Con id="316" src="8" tgt="23" wght="-3.4926379940112433" />
        <Con id="317" src="5" tgt="18" wght="3.5649555102667212" />
        <Con id="319" src="9" tgt="19" wght="3.7099640706647383" />
        <Con id="324" src="1" tgt="20" wght="4.2065307936487519" />
        <Con id="326" src="14" tgt="17" wght="3.5029317997160097" />
        <Con id="331" src="6" tgt="23" wght="-4.0623342897742987" />
        <Con id="337" src="10" tgt="19" wght="-3.0543360476201182" />
        <Con id="347" src="9" tgt="20" wght="2.1698653025795296" />
        <Con id="351" src="0" tgt="24" wght="-2.5856473700710341" />
        <Con id="363" src="12" tgt="26" wght="3.541639070455211" />
        <Con id="364" src="3" tgt="18" wght="1.1882669851183891" />
        <Con id="371" src="3" tgt="16" wght="4.6772125912798614" />
        <Con id="377" src="9" tgt="25" wght="5" />
        <Con id="385" src="4" tgt="26" wght="-2.0399956683776987" />
        <Con id="386" src="5" tgt="22" wght="1.6596379558045129" />
        <Con id="387" src="3" tgt="24" wght="5" />
        <Con id="404" src="0" tgt="15" wght="-3.0246758639797893" />
        <Con id="407" src="2" tgt="24" wght="-5" />
        <Con id="429" src="7" tgt="20" wght="-0.184362200088799" />
        <Con id="434" src="3" tgt="23" wght="-3.0848443946163329" />
        <Con id="435" src="6" tgt="22" wght="2.2844788874205824" />
        <Con id="441" src="0" tgt="20" wght="-4.136989197527531" />
        <Con id="475" src="6" tgt="26" wght="2.6451886065451689" />
        <Con id="476" src="10" tgt="17" wght="-2.4161242998952184" />
        <Con id="480" src="4" tgt="24" wght="-1.2744666961953044" />
        <Con id="510" src="4" tgt="22" wght="0.66608552224257611" />
        <Con id="514" src="5" tgt="25" wght="1.9324687526431514" />
        <Con id="696" src="6" tgt="695" wght="3.9901912274221014" />
        <Con id="697" src="695" tgt="20" wght="4.99053130458785" />
        <Con id="698" src="3" tgt="27" wght="-2.7495806566587273" />
        <Con id="706" src="5" tgt="705" wght="-2.9857850890869888" />
        <Con id="707" src="705" tgt="15" wght="5" />
        <Con id="776" src="10" tgt="695" wght="-1.3236787088016433" />
        <Con id="839" src="705" tgt="19" wght="-4.1367864701896906" />
        <Con id="1045" src="695" tgt="27" wght="-3.7420671619474888" />
      </Connections>
    </Network>
    <Network id="47010" birthGen="20" fitness="0">
      <Nodes>
        <Node type="bias" id="0" />
        <Node type="in" id="1" />
        <Node type="in" id="2" />
        <Node type="in" id="3" />
        <Node type="in" id="4" />
        <Node type="in" id="5" />
        <Node type="in" id="6" />
        <Node type="in" id="7" />
        <Node type="in" id="8" />
        <Node type="in" id="9" />
        <Node type="in" id="10" />
        <Node type="in" id="11" />
        <Node type="in" id="12" />
        <Node type="in" id="13" />
        <Node type="in" id="14" />
        <Node type="out" id="15" />
        <Node type="out" id="16" />
        <Node type="out" id="17" />
        <Node type="out" id="18" />
        <Node type="out" id="19" />
        <Node type="out" id="20" />
        <Node type="out" id="21" />
        <Node type="out" id="22" />
        <Node type="out" id="23" />
        <Node type="out" id="24" />
        <Node type="out" id="25" />
        <Node type="out" id="26" />
        <Node type="out" id="27" />
        <Node type="hid" id="695" />
        <Node type="hid" id="705" />
      </Nodes>
      <Connections>
        <Con id="42" src="1" tgt="16" wght="1.6232853667382521" />
        <Con id="55" src="2" tgt="16" wght="2.6151840156228414" />
        <Con id="57" src="2" tgt="18" wght="1.2986530731380026" />
        <Con id="67" src="3" tgt="15" wght="3.4339466337572646" />
        <Con id="126" src="7" tgt="22" wght="-4.184682145206442" />
        <Con id="134" src="8" tgt="17" wght="0.082853280132518942" />
        <Con id="189" src="12" tgt="20" wght="1.3626968543079541" />
        <Con id="201" src="13" tgt="19" wght="-1.1897507724468799" />
        <Con id="232" src="1" tgt="23" wght="5" />
        <Con id="234" src="8" tgt="26" wght="0.22939962534617628" />
        <Con id="238" src="1" tgt="25" wght="-3.3048630027173127" />
        <Con id="241" src="5" tgt="16" wght="-1.9288789020283459" />
        <Con id="242" src="7" tgt="25" wght="2.1673619425506963" />
        <Con id="252" src="0" tgt="26" wght="-0.57251873821095312" />
        <Con id="254" src="10" tgt="24" wght="-2.9248219796113877" />
        <Con id="258" src="9" tgt="17" wght="3.4635944456158057" />
        <Con id="260" src="14" tgt="18" wght="-3.7741724386838431" />
        <Con id="264" src="1" tgt="15" wght="-1.4722959813004843" />
        <Con id="265" src="5" tgt="21" wght="-0.36917955310150918" />
        <Con id="279" src="11" tgt="17" wght="0.6394886467375992" />
        <Con id="289" src="4" tgt="17" wght="-4.3327800026270173" />
        <Con id="290" src="1" tgt="17" wght="-0.69224578533258041" />
        <Con id="292" src="6" tgt="21" wght="-0.42363316940215834" />
        <Con id="296" src="7" tgt="17" wght="0.77312780561327832" />
        <Con id="308" src="10" tgt="16" wght="0.18564684234218209" />
        <Con id="309" src="2" tgt="17" wght="2.2639344846333431" />
        <Con id="311" src="10" tgt="25" wght="-0.94875826122728135" />
        <Con id="312" src="9" tgt="22" wght="-4.9956082469143475" />
        <Con id="315" src="11" tgt="21" wght="4.6915590945730532" />
        <Con id="316" src="8" tgt="23" wght="-3.4926379940112433" />
        <Con id="317" src="5" tgt="18" wght="3.8585582896848876" />
        <Con id="319" src="9" tgt="19" wght="4.1471515302414517" />
        <Con id="324" src="1" tgt="20" wght="4.24126926885689" />
        <Con id="326" src="14" tgt="17" wght="3.5029317997160097" />
        <Con id="331" src="6" tgt="23" wght="-3.2670637908006972" />
        <Con id="337" src="10" tgt="19" wght="-3.0443872382141537" />
        <Con id="347" src="9" tgt="20" wght="2.2129700743369458" />
        <Con id="351" src="0" tgt="24" wght="-2.5856473700710341" />
        <Con id="363" src="12" tgt="26" wght="3.5742802808778125" />
        <Con id="371" src="3" tgt="16" wght="4.6772125912798614" />
        <Con id="377" src="9" tgt="25" wght="4.4617847818881273" />
        <Con id="385" src="4" tgt="26" wght="-2.0399956683776987" />
        <Con id="386" src="5" tgt="22" wght="1.7027543365158651" />
        <Con id="387" src="3" tgt="24" wght="4.60725787251177" />
        <Con id="404" src="0" tgt="15" wght="-3.0246758639797893" />
        <Con id="407" src="2" tgt="24" wght="-5" />
        <Con id="429" src="7" tgt="20" wght="1.1556640685670094" />
        <Con id="434" src="3" tgt="23" wght="-3.0848443946163329" />
        <Con id="435" src="6" tgt="22" wght="1.6031928943432225" />
        <Con id="441" src="0" tgt="20" wght="-4.1142246951317558" />
        <Con id="475" src="6" tgt="26" wght="2.6451886065451689" />
        <Con id="476" src="10" tgt="17" wght="-0.34109624907028974" />
        <Con id="480" src="4" tgt="24" wght="-1.2744666961953044" />
        <Con id="510" src="4" tgt="22" wght="0.66608552224257611" />
        <Con id="514" src="5" tgt="25" wght="4.9801981296606126" />
        <Con id="696" src="6" tgt="695" wght="3.4335031068529513" />
        <Con id="697" src="695" tgt="20" wght="3.4330317944202484" />
        <Con id="698" src="3" tgt="27" wght="-2.7495806566587273" />
        <Con id="706" src="5" tgt="705" wght="-5" />
        <Con id="707" src="705" tgt="15" wght="5" />
        <Con id="776" src="10" tgt="695" wght="0.08158447315354822" />
        <Con id="839" src="705" tgt="19" wght="0.43925986941504358" />
        <Con id="1045" src="695" tgt="27" wght="-3.7134584102812855" />
      </Connections>
    </Network>
    <Network id="47021" birthGen="20" fitness="0.875">
      <Nodes>
        <Node type="bias" id="0" />
        <Node type="in" id="1" />
        <Node type="in" id="2" />
        <Node type="in" id="3" />
        <Node type="in" id="4" />
        <Node type="in" id="5" />
        <Node type="in" id="6" />
        <Node type="in" id="7" />
        <Node type="in" id="8" />
        <Node type="in" id="9" />
        <Node type="in" id="10" />
        <Node type="in" id="11" />
        <Node type="in" id="12" />
        <Node type="in" id="13" />
        <Node type="in" id="14" />
        <Node type="out" id="15" />
        <Node type="out" id="16" />
        <Node type="out" id="17" />
        <Node type="out" id="18" />
        <Node type="out" id="19" />
        <Node type="out" id="20" />
        <Node type="out" id="21" />
        <Node type="out" id="22" />
        <Node type="out" id="23" />
        <Node type="out" id="24" />
        <Node type="out" id="25" />
        <Node type="out" id="26" />
        <Node type="out" id="27" />
        <Node type="hid" id="695" />
        <Node type="hid" id="705" />
        <Node type="hid" id="1039" />
      </Nodes>
      <Connections>
        <Con id="42" src="1" tgt="16" wght="2.567138262268172" />
        <Con id="55" src="2" tgt="16" wght="2.6151840156228414" />
        <Con id="57" src="2" tgt="18" wght="3.8295471761216979" />
        <Con id="67" src="3" tgt="15" wght="3.4339466337572646" />
        <Con id="126" src="7" tgt="22" wght="-2.4206653190776706" />
        <Con id="134" src="8" tgt="17" wght="-1.9086734498026214" />
        <Con id="189" src="12" tgt="20" wght="-1.9730516828046407" />
        <Con id="201" src="13" tgt="19" wght="-1.1899137659549592" />
        <Con id="232" src="1" tgt="23" wght="3.8469217531383038" />
        <Con id="234" src="8" tgt="26" wght="0.20821081707337247" />
        <Con id="238" src="1" tgt="25" wght="-3.3048630027173127" />
        <Con id="241" src="5" tgt="16" wght="-2.7163491338047163" />
        <Con id="242" src="7" tgt="25" wght="2.8087617689743638" />
        <Con id="246" src="9" tgt="16" wght="-2.3439189147367179" />
        <Con id="248" src="10" tgt="26" wght="-1.6226758994162083" />
        <Con id="252" src="0" tgt="26" wght="-0.60356159102619011" />
        <Con id="254" src="10" tgt="24" wght="1.0039202542975545" />
        <Con id="258" src="9" tgt="17" wght="3.4365330025146785" />
        <Con id="260" src="14" tgt="18" wght="-2.4898920241974922" />
        <Con id="264" src="1" tgt="15" wght="3.915901060033566" />
        <Con id="265" src="5" tgt="21" wght="2.0648044216694981" />
        <Con id="279" src="11" tgt="17" wght="0.3750811716244225" />
        <Con id="289" src="4" tgt="17" wght="-0.10595811065286398" />
        <Con id="290" src="1" tgt="17" wght="-3.7942042495582315" />
        <Con id="292" src="6" tgt="21" wght="1.9214913288708066" />
        <Con id="296" src="7" tgt="17" wght="1.3565645367184587" />
        <Con id="308" src="10" tgt="16" wght="0.37833248331660729" />
        <Con id="309" src="2" tgt="17" wght="1.0779469898897032" />
        <Con id="311" src="10" tgt="25" wght="-1.0197323691508966" />
        <Con id="312" src="9" tgt="22" wght="-0.0069162826541606659" />
        <Con id="315" src="11" tgt="21" wght="2.7882543923104923" />
        <Con id="316" src="8" tgt="23" wght="-2.7889902076376818" />
        <Con id="317" src="5" tgt="18" wght="4.1838799188850837" />
        <Con id="319" src="9" tgt="19" wght="5" />
        <Con id="324" src="1" tgt="20" wght="4.3949119653552771" />
        <Con id="326" src="14" tgt="17" wght="3.5029317997160097" />
        <Con id="331" src="6" tgt="23" wght="0.35949331466543477" />
        <Con id="337" src="10" tgt="19" wght="-1.5527150855588334" />
        <Con id="347" src="9" tgt="20" wght="0.845190051000089" />
        <Con id="351" src="0" tgt="24" wght="-2.6132606750147698" />
        <Con id="363" src="12" tgt="26" wght="5" />
        <Con id="371" src="3" tgt="16" wght="-0.39538488062824639" />
        <Con id="385" src="4" tgt="26" wght="-4.5456775300022159" />
        <Con id="386" src="5" tgt="22" wght="3.2012118458469332" />
        <Con id="387" src="3" tgt="24" wght="5" />
        <Con id="404" src="0" tgt="15" wght="-3.7780958688551314" />
        <Con id="429" src="7" tgt="20" wght="3.0501239813895045" />
        <Con id="433" src="3" tgt="20" wght="4.1350725945085287" />
        <Con id="434" src="3" tgt="23" wght="-4.2889517061672" />
        <Con id="435" src="6" tgt="22" wght="1.6730440926381442" />
        <Con id="441" src="0" tgt="20" wght="-4.1639996173884271" />
        <Con id="480" src="4" tgt="24" wght="-2.9994432547920393" />
        <Con id="510" src="4" tgt="22" wght="1.4569625118747354" />
        <Con id="514" src="5" tgt="25" wght="0.021476806306061795" />
        <Con id="696" src="6" tgt="695" wght="2.4356691493595966" />
        <Con id="697" src="695" tgt="20" wght="4.36473498697913" />
        <Con id="698" src="3" tgt="27" wght="2.8674651589244604" />
        <Con id="706" src="5" tgt="705" wght="-4.41444515599358" />
        <Con id="707" src="705" tgt="15" wght="4.9925327706210139" />
        <Con id="776" src="10" tgt="695" wght="-1.9182314050553111" />
        <Con id="839" src="705" tgt="19" wght="0.47096939098775725" />
        <Con id="1040" src="10" tgt="1039" wght="4.3943980149924755" />
        <Con id="1041" src="1039" tgt="17" wght="5" />
        <Con id="1069" src="12" tgt="15" wght="-4.61284055840224" />
        <Con id="1073" src="13" tgt="20" wght="0.70917452685534954" />
        <Con id="1092" src="8" tgt="24" wght="1.3588076855380271" />
      </Connections>
    </Network>
    <Network id="47017" birthGen="20" fitness="1">
      <Nodes>
        <Node type="bias" id="0" />
        <Node type="in" id="1" />
        <Node type="in" id="2" />
        <Node type="in" id="3" />
        <Node type="in" id="4" />
        <Node type="in" id="5" />
        <Node type="in" id="6" />
        <Node type="in" id="7" />
        <Node type="in" id="8" />
        <Node type="in" id="9" />
        <Node type="in" id="10" />
        <Node type="in" id="11" />
        <Node type="in" id="12" />
        <Node type="in" id="13" />
        <Node type="in" id="14" />
        <Node type="out" id="15" />
        <Node type="out" id="16" />
        <Node type="out" id="17" />
        <Node type="out" id="18" />
        <Node type="out" id="19" />
        <Node type="out" id="20" />
        <Node type="out" id="21" />
        <Node type="out" id="22" />
        <Node type="out" id="23" />
        <Node type="out" id="24" />
        <Node type="out" id="25" />
        <Node type="out" id="26" />
        <Node type="out" id="27" />
        <Node type="hid" id="695" />
        <Node type="hid" id="705" />
        <Node type="hid" id="1039" />
      </Nodes>
      <Connections>
        <Con id="42" src="1" tgt="16" wght="2.567138262268172" />
        <Con id="55" src="2" tgt="16" wght="2.6151840156228414" />
        <Con id="57" src="2" tgt="18" wght="3.8295471761216979" />
        <Con id="67" src="3" tgt="15" wght="3.4339466337572646" />
        <Con id="126" src="7" tgt="22" wght="-2.4206653190776706" />
        <Con id="134" src="8" tgt="17" wght="-1.7724671071611193" />
        <Con id="189" src="12" tgt="20" wght="-1.9730516828046407" />
        <Con id="201" src="13" tgt="19" wght="-1.1899137659549592" />
        <Con id="232" src="1" tgt="23" wght="3.8469217531383038" />
        <Con id="234" src="8" tgt="26" wght="0.20821081707337247" />
        <Con id="238" src="1" tgt="25" wght="-3.3048630027173127" />
        <Con id="241" src="5" tgt="16" wght="-2.7163491338047163" />
        <Con id="242" src="7" tgt="25" wght="2.8087617689743638" />
        <Con id="246" src="9" tgt="16" wght="-2.3439189147367179" />
        <Con id="248" src="10" tgt="26" wght="-1.6226758994162083" />
        <Con id="252" src="0" tgt="26" wght="-0.60356159102619011" />
        <Con id="254" src="10" tgt="24" wght="1.0039202542975545" />
        <Con id="258" src="9" tgt="17" wght="3.4365330025146785" />
        <Con id="260" src="14" tgt="18" wght="-2.4898920241974922" />
        <Con id="264" src="1" tgt="15" wght="3.915901060033566" />
        <Con id="265" src="5" tgt="21" wght="2.0648044216694981" />
        <Con id="279" src="11" tgt="17" wght="0.3750811716244225" />
        <Con id="289" src="4" tgt="17" wght="-0.10595811065286398" />
        <Con id="290" src="1" tgt="17" wght="-3.7942042495582315" />
        <Con id="292" src="6" tgt="21" wght="1.9214913288708066" />
        <Con id="296" src="7" tgt="17" wght="1.3565645367184587" />
        <Con id="308" src="10" tgt="16" wght="0.37833248331660729" />
        <Con id="309" src="2" tgt="17" wght="1.0779469898897032" />
        <Con id="311" src="10" tgt="25" wght="-1.0197323691508966" />
        <Con id="312" src="9" tgt="22" wght="-0.0069162826541606659" />
        <Con id="315" src="11" tgt="21" wght="2.7882543923104923" />
        <Con id="316" src="8" tgt="23" wght="-2.7889902076376818" />
        <Con id="317" src="5" tgt="18" wght="4.1838799188850837" />
        <Con id="319" src="9" tgt="19" wght="5" />
        <Con id="324" src="1" tgt="20" wght="5" />
        <Con id="326" src="14" tgt="17" wght="3.5029317997160097" />
        <Con id="331" src="6" tgt="23" wght="0.35949331466543477" />
        <Con id="337" src="10" tgt="19" wght="-1.5527150855588334" />
        <Con id="347" src="9" tgt="20" wght="0.845190051000089" />
        <Con id="351" src="0" tgt="24" wght="-2.6132606750147698" />
        <Con id="363" src="12" tgt="26" wght="5" />
        <Con id="371" src="3" tgt="16" wght="-0.39538488062824639" />
        <Con id="385" src="4" tgt="26" wght="-4.5456775300022159" />
        <Con id="386" src="5" tgt="22" wght="2.8551625027859266" />
        <Con id="387" src="3" tgt="24" wght="5" />
        <Con id="404" src="0" tgt="15" wght="-3.7780958688551314" />
        <Con id="429" src="7" tgt="20" wght="3.0501239813895045" />
        <Con id="433" src="3" tgt="20" wght="4.1350725945085287" />
        <Con id="434" src="3" tgt="23" wght="-4.2889517061672" />
        <Con id="435" src="6" tgt="22" wght="1.6730440926381442" />
        <Con id="441" src="0" tgt="20" wght="-4.4700784469023347" />
        <Con id="480" src="4" tgt="24" wght="-2.9994432547920393" />
        <Con id="510" src="4" tgt="22" wght="1.4569625118747354" />
        <Con id="514" src="5" tgt="25" wght="0.021476806306061795" />
        <Con id="696" src="6" tgt="695" wght="2.4356691493595966" />
        <Con id="697" src="695" tgt="20" wght="4.36473498697913" />
        <Con id="698" src="3" tgt="27" wght="2.8674651589244604" />
        <Con id="706" src="5" tgt="705" wght="-4.41444515599358" />
        <Con id="707" src="705" tgt="15" wght="4.9925327706210139" />
        <Con id="776" src="10" tgt="695" wght="-1.9182314050553111" />
        <Con id="839" src="705" tgt="19" wght="0.47096939098775725" />
        <Con id="1040" src="10" tgt="1039" wght="4.3943980149924755" />
        <Con id="1041" src="1039" tgt="17" wght="5" />
        <Con id="1069" src="12" tgt="15" wght="-4.61284055840224" />
        <Con id="1073" src="13" tgt="20" wght="0.70917452685534954" />
        <Con id="1092" src="8" tgt="24" wght="1.1063667107373476" />
      </Connections>
    </Network>
    <Network id="47012" birthGen="20" fitness="3.875">
      <Nodes>
        <Node type="bias" id="0" />
        <Node type="in" id="1" />
        <Node type="in" id="2" />
        <Node type="in" id="3" />
        <Node type="in" id="4" />
        <Node type="in" id="5" />
        <Node type="in" id="6" />
        <Node type="in" id="7" />
        <Node type="in" id="8" />
        <Node type="in" id="9" />
        <Node type="in" id="10" />
        <Node type="in" id="11" />
        <Node type="in" id="12" />
        <Node type="in" id="13" />
        <Node type="in" id="14" />
        <Node type="out" id="15" />
        <Node type="out" id="16" />
        <Node type="out" id="17" />
        <Node type="out" id="18" />
        <Node type="out" id="19" />
        <Node type="out" id="20" />
        <Node type="out" id="21" />
        <Node type="out" id="22" />
        <Node type="out" id="23" />
        <Node type="out" id="24" />
        <Node type="out" id="25" />
        <Node type="out" id="26" />
        <Node type="out" id="27" />
        <Node type="hid" id="695" />
        <Node type="hid" id="705" />
        <Node type="hid" id="1039" />
      </Nodes>
      <Connections>
        <Con id="42" src="1" tgt="16" wght="2.567138262268172" />
        <Con id="55" src="2" tgt="16" wght="2.6151840156228414" />
        <Con id="57" src="2" tgt="18" wght="3.8295471761216979" />
        <Con id="67" src="3" tgt="15" wght="3.4339466337572646" />
        <Con id="126" src="7" tgt="22" wght="-2.4206653190776706" />
        <Con id="134" src="8" tgt="17" wght="-1.9086734498026214" />
        <Con id="189" src="12" tgt="20" wght="-1.9730516828046407" />
        <Con id="201" src="13" tgt="19" wght="-1.1899137659549592" />
        <Con id="232" src="1" tgt="23" wght="3.8469217531383038" />
        <Con id="234" src="8" tgt="26" wght="0.20821081707337247" />
        <Con id="238" src="1" tgt="25" wght="-3.3048630027173127" />
        <Con id="241" src="5" tgt="16" wght="-2.7163491338047163" />
        <Con id="242" src="7" tgt="25" wght="2.8087617689743638" />
        <Con id="246" src="9" tgt="16" wght="-2.3439189147367179" />
        <Con id="248" src="10" tgt="26" wght="-1.6226758994162083" />
        <Con id="252" src="0" tgt="26" wght="-0.60561673500818436" />
        <Con id="254" src="10" tgt="24" wght="1.0039202542975545" />
        <Con id="258" src="9" tgt="17" wght="3.4365330025146785" />
        <Con id="260" src="14" tgt="18" wght="-2.4898920241974922" />
        <Con id="264" src="1" tgt="15" wght="3.915901060033566" />
        <Con id="265" src="5" tgt="21" wght="2.0648044216694981" />
        <Con id="279" src="11" tgt="17" wght="0.3750811716244225" />
        <Con id="289" src="4" tgt="17" wght="-0.10595811065286398" />
        <Con id="290" src="1" tgt="17" wght="-3.7942042495582315" />
        <Con id="292" src="6" tgt="21" wght="1.9214913288708066" />
        <Con id="296" src="7" tgt="17" wght="1.3565645367184587" />
        <Con id="308" src="10" tgt="16" wght="0.37833248331660729" />
        <Con id="309" src="2" tgt="17" wght="1.0779469898897032" />
        <Con id="311" src="10" tgt="25" wght="-1.0197323691508966" />
        <Con id="312" src="9" tgt="22" wght="-0.0069162826541606659" />
        <Con id="315" src="11" tgt="21" wght="2.7882543923104923" />
        <Con id="316" src="8" tgt="23" wght="-2.7889902076376818" />
        <Con id="317" src="5" tgt="18" wght="4.1838799188850837" />
        <Con id="319" src="9" tgt="19" wght="5" />
        <Con id="324" src="1" tgt="20" wght="4.3949119653552771" />
        <Con id="326" src="14" tgt="17" wght="3.5029317997160097" />
        <Con id="331" src="6" tgt="23" wght="0.35949331466543477" />
        <Con id="337" src="10" tgt="19" wght="-1.5527150855588334" />
        <Con id="347" src="9" tgt="20" wght="0.845190051000089" />
        <Con id="351" src="0" tgt="24" wght="-2.6132606750147698" />
        <Con id="363" src="12" tgt="26" wght="5" />
        <Con id="371" src="3" tgt="16" wght="-0.39538488062824639" />
        <Con id="385" src="4" tgt="26" wght="-4.5456775300022159" />
        <Con id="386" src="5" tgt="22" wght="2.8551625027859266" />
        <Con id="387" src="3" tgt="24" wght="5" />
        <Con id="404" src="0" tgt="15" wght="-3.7780958688551314" />
        <Con id="429" src="7" tgt="20" wght="3.0501239813895045" />
        <Con id="433" src="3" tgt="20" wght="4.1350725945085287" />
        <Con id="434" src="3" tgt="23" wght="-4.2889517061672" />
        <Con id="435" src="6" tgt="22" wght="1.6730440926381442" />
        <Con id="441" src="0" tgt="20" wght="-4.4700784469023347" />
        <Con id="480" src="4" tgt="24" wght="-2.9994432547920393" />
        <Con id="510" src="4" tgt="22" wght="1.4569625118747354" />
        <Con id="514" src="5" tgt="25" wght="0.021476806306061795" />
        <Con id="696" src="6" tgt="695" wght="2.4356691493595966" />
        <Con id="697" src="695" tgt="20" wght="4.36473498697913" />
        <Con id="698" src="3" tgt="27" wght="2.8674651589244604" />
        <Con id="706" src="5" tgt="705" wght="-4.41444515599358" />
        <Con id="707" src="705" tgt="15" wght="4.9925327706210139" />
        <Con id="776" src="10" tgt="695" wght="-1.9344864524035759" />
        <Con id="839" src="705" tgt="19" wght="0.47096939098775725" />
        <Con id="1040" src="10" tgt="1039" wght="4.3943980149924755" />
        <Con id="1041" src="1039" tgt="17" wght="5" />
        <Con id="1069" src="12" tgt="15" wght="-4.61284055840224" />
        <Con id="1073" src="13" tgt="20" wght="0.70917452685534954" />
        <Con id="1092" src="8" tgt="24" wght="1.1063667107373476" />
      </Connections>
    </Network>
    <Network id="47023" birthGen="20" fitness="0.24609375">
      <Nodes>
        <Node type="bias" id="0" />
        <Node type="in" id="1" />
        <Node type="in" id="2" />
        <Node type="in" id="3" />
        <Node type="in" id="4" />
        <Node type="in" id="5" />
        <Node type="in" id="6" />
        <Node type="in" id="7" />
        <Node type="in" id="8" />
        <Node type="in" id="9" />
        <Node type="in" id="10" />
        <Node type="in" id="11" />
        <Node type="in" id="12" />
        <Node type="in" id="13" />
        <Node type="in" id="14" />
        <Node type="out" id="15" />
        <Node type="out" id="16" />
        <Node type="out" id="17" />
        <Node type="out" id="18" />
        <Node type="out" id="19" />
        <Node type="out" id="20" />
        <Node type="out" id="21" />
        <Node type="out" id="22" />
        <Node type="out" id="23" />
        <Node type="out" id="24" />
        <Node type="out" id="25" />
        <Node type="out" id="26" />
        <Node type="out" id="27" />
        <Node type="hid" id="695" />
        <Node type="hid" id="705" />
        <Node type="hid" id="1039" />
      </Nodes>
      <Connections>
        <Con id="42" src="1" tgt="16" wght="2.567138262268172" />
        <Con id="55" src="2" tgt="16" wght="2.6151840156228414" />
        <Con id="57" src="2" tgt="18" wght="3.8295471761216979" />
        <Con id="67" src="3" tgt="15" wght="3.4339466337572646" />
        <Con id="126" src="7" tgt="22" wght="-2.4206653190776706" />
        <Con id="134" src="8" tgt="17" wght="-1.9086734498026214" />
        <Con id="189" src="12" tgt="20" wght="-1.9730516828046407" />
        <Con id="201" src="13" tgt="19" wght="-1.1899137659549592" />
        <Con id="232" src="1" tgt="23" wght="3.8469217531383038" />
        <Con id="234" src="8" tgt="26" wght="0.20821081707337247" />
        <Con id="238" src="1" tgt="25" wght="-3.3048630027173127" />
        <Con id="241" src="5" tgt="16" wght="-2.7163491338047163" />
        <Con id="242" src="7" tgt="25" wght="2.8087617689743638" />
        <Con id="246" src="9" tgt="16" wght="-2.3439189147367179" />
        <Con id="248" src="10" tgt="26" wght="-1.6226758994162083" />
        <Con id="252" src="0" tgt="26" wght="-0.60356159102619011" />
        <Con id="254" src="10" tgt="24" wght="1.0039202542975545" />
        <Con id="258" src="9" tgt="17" wght="3.4365330025146785" />
        <Con id="260" src="14" tgt="18" wght="-2.4898920241974922" />
        <Con id="264" src="1" tgt="15" wght="3.915901060033566" />
        <Con id="265" src="5" tgt="21" wght="2.0648044216694981" />
        <Con id="279" src="11" tgt="17" wght="0.3750811716244225" />
        <Con id="289" src="4" tgt="17" wght="-0.10595811065286398" />
        <Con id="290" src="1" tgt="17" wght="-3.7942042495582315" />
        <Con id="292" src="6" tgt="21" wght="1.8887825651846579" />
        <Con id="296" src="7" tgt="17" wght="1.3565645367184587" />
        <Con id="308" src="10" tgt="16" wght="0.37833248331660729" />
        <Con id="309" src="2" tgt="17" wght="2.4166987474799138" />
        <Con id="311" src="10" tgt="25" wght="-1.0197323691508966" />
        <Con id="312" src="9" tgt="22" wght="-0.0069162826541606659" />
        <Con id="315" src="11" tgt="21" wght="2.7882543923104923" />
        <Con id="316" src="8" tgt="23" wght="-2.7889902076376818" />
        <Con id="317" src="5" tgt="18" wght="4.1838799188850837" />
        <Con id="319" src="9" tgt="19" wght="5" />
        <Con id="324" src="1" tgt="20" wght="4.3949119653552771" />
        <Con id="326" src="14" tgt="17" wght="3.5029317997160097" />
        <Con id="331" src="6" tgt="23" wght="0.35949331466543477" />
        <Con id="337" src="10" tgt="19" wght="-1.5527150855588334" />
        <Con id="347" src="9" tgt="20" wght="0.845190051000089" />
        <Con id="351" src="0" tgt="24" wght="-2.6132606750147698" />
        <Con id="363" src="12" tgt="26" wght="5" />
        <Con id="371" src="3" tgt="16" wght="-0.39538488062824639" />
        <Con id="385" src="4" tgt="26" wght="-4.5456775300022159" />
        <Con id="386" src="5" tgt="22" wght="3.2012118458469332" />
        <Con id="387" src="3" tgt="24" wght="5" />
        <Con id="404" src="0" tgt="15" wght="-3.7064318014757092" />
        <Con id="429" src="7" tgt="20" wght="3.0501239813895045" />
        <Con id="433" src="3" tgt="20" wght="4.1350725945085287" />
        <Con id="434" src="3" tgt="23" wght="-4.2889517061672" />
        <Con id="435" src="6" tgt="22" wght="1.6730440926381442" />
        <Con id="441" src="0" tgt="20" wght="-4.1639996173884271" />
        <Con id="480" src="4" tgt="24" wght="-2.9994432547920393" />
        <Con id="510" src="4" tgt="22" wght="1.4569625118747354" />
        <Con id="514" src="5" tgt="25" wght="0.021476806306061795" />
        <Con id="696" src="6" tgt="695" wght="2.4356691493595966" />
        <Con id="697" src="695" tgt="20" wght="4.36473498697913" />
        <Con id="698" src="3" tgt="27" wght="2.8674651589244604" />
        <Con id="706" src="5" tgt="705" wght="-4.41444515599358" />
        <Con id="707" src="705" tgt="15" wght="4.9925327706210139" />
        <Con id="776" src="10" tgt="695" wght="-1.9182314050553111" />
        <Con id="839" src="705" tgt="19" wght="0.47096939098775725" />
        <Con id="1040" src="10" tgt="1039" wght="4.3943980149924755" />
        <Con id="1041" src="1039" tgt="17" wght="5" />
        <Con id="1069" src="12" tgt="15" wght="-4.61284055840224" />
        <Con id="1073" src="13" tgt="20" wght="0.70917452685534954" />
        <Con id="1092" src="8" tgt="24" wght="1.1063667107373476" />
      </Connections>
    </Network>
    <Network id="47032" birthGen="20" fitness="0.75">
      <Nodes>
        <Node type="bias" id="0" />
        <Node type="in" id="1" />
        <Node type="in" id="2" />
        <Node type="in" id="3" />
        <Node type="in" id="4" />
        <Node type="in" id="5" />
        <Node type="in" id="6" />
        <Node type="in" id="7" />
        <Node type="in" id="8" />
        <Node type="in" id="9" />
        <Node type="in" id="10" />
        <Node type="in" id="11" />
        <Node type="in" id="12" />
        <Node type="in" id="13" />
        <Node type="in" id="14" />
        <Node type="out" id="15" />
        <Node type="out" id="16" />
        <Node type="out" id="17" />
        <Node type="out" id="18" />
        <Node type="out" id="19" />
        <Node type="out" id="20" />
        <Node type="out" id="21" />
        <Node type="out" id="22" />
        <Node type="out" id="23" />
        <Node type="out" id="24" />
        <Node type="out" id="25" />
        <Node type="out" id="26" />
        <Node type="out" id="27" />
        <Node type="hid" id="695" />
        <Node type="hid" id="705" />
        <Node type="hid" id="1039" />
      </Nodes>
      <Connections>
        <Con id="42" src="1" tgt="16" wght="2.554503341432329" />
        <Con id="55" src="2" tgt="16" wght="2.6151840156228414" />
        <Con id="57" src="2" tgt="18" wght="3.0088750375290032" />
        <Con id="67" src="3" tgt="15" wght="3.4339466337572646" />
        <Con id="126" src="7" tgt="22" wght="-2.4206653190776706" />
        <Con id="134" src="8" tgt="17" wght="0.057896456947686824" />
        <Con id="189" src="12" tgt="20" wght="0.74587907641732043" />
        <Con id="201" src="13" tgt="19" wght="-1.2190747919002725" />
        <Con id="232" src="1" tgt="23" wght="3.8469217531383038" />
        <Con id="234" src="8" tgt="26" wght="0.22939962534617628" />
        <Con id="238" src="1" tgt="25" wght="-4.9859069041482806" />
        <Con id="241" src="5" tgt="16" wght="-2.7163491338047163" />
        <Con id="242" src="7" tgt="25" wght="2.8087617689743638" />
        <Con id="246" src="9" tgt="16" wght="-2.3439189147367179" />
        <Con id="248" src="10" tgt="26" wght="-2.3658628645552713" />
        <Con id="252" src="0" tgt="26" wght="0.77237376577104155" />
        <Con id="254" src="10" tgt="24" wght="-4.5018730141404886" />
        <Con id="258" src="9" tgt="17" wght="3.4365330025146785" />
        <Con id="260" src="14" tgt="18" wght="-2.4898920241974922" />
        <Con id="264" src="1" tgt="15" wght="-1.4616216102132169" />
        <Con id="265" src="5" tgt="21" wght="2.0648044216694981" />
        <Con id="279" src="11" tgt="17" wght="0.3750811716244225" />
        <Con id="289" src="4" tgt="17" wght="-1.2336565191500246" />
        <Con id="290" src="1" tgt="17" wght="-0.68569406612577333" />
        <Con id="292" src="6" tgt="21" wght="1.8974599866896407" />
        <Con id="296" src="7" tgt="17" wght="-3.1550747528672218" />
        <Con id="308" src="10" tgt="16" wght="0.37833248331660729" />
        <Con id="309" src="2" tgt="17" wght="1.0779469898897032" />
        <Con id="311" src="10" tgt="25" wght="-1.6102443785046663" />
        <Con id="312" src="9" tgt="22" wght="-0.00888092603931109" />
        <Con id="315" src="11" tgt="21" wght="4.6973874100275852" />
        <Con id="316" src="8" tgt="23" wght="-4.7870932524713252" />
        <Con id="317" src="5" tgt="18" wght="2.2306373161791715" />
        <Con id="319" src="9" tgt="19" wght="5" />
        <Con id="324" src="1" tgt="20" wght="4.369224783224559" />
        <Con id="326" src="14" tgt="17" wght="3.4672551443318032" />
        <Con id="331" src="6" tgt="23" wght="1.6481907039697163" />
        <Con id="337" src="10" tgt="19" wght="-1.5640405116626219" />
        <Con id="347" src="9" tgt="20" wght="0.845190051000089" />
        <Con id="351" src="0" tgt="24" wght="-2.6132606750147698" />
        <Con id="363" src="12" tgt="26" wght="3.5100582417968171" />
        <Con id="371" src="3" tgt="16" wght="-0.39797437377274036" />
        <Con id="385" src="4" tgt="26" wght="-2.0413587622960065" />
        <Con id="386" src="5" tgt="22" wght="3.0251281213981649" />
        <Con id="387" src="3" tgt="24" wght="5" />
        <Con id="404" src="0" tgt="15" wght="-3.7780958688551314" />
        <Con id="429" src="7" tgt="20" wght="3.5698730635746108" />
        <Con id="433" src="3" tgt="20" wght="3.8877633812540191" />
        <Con id="434" src="3" tgt="23" wght="-4.2889517061672" />
        <Con id="435" src="6" tgt="22" wght="1.7972393480008162" />
        <Con id="441" src="0" tgt="20" wght="-4.4864523481846081" />
        <Con id="480" src="4" tgt="24" wght="-2.9994432547920393" />
        <Con id="510" src="4" tgt="22" wght="0.65364819095012439" />
        <Con id="514" src="5" tgt="25" wght="0.021476806306061795" />
        <Con id="696" src="6" tgt="695" wght="2.4356691493595966" />
        <Con id="697" src="695" tgt="20" wght="3.9109228027742349" />
        <Con id="698" src="3" tgt="27" wght="2.8533963176660566" />
        <Con id="706" src="5" tgt="705" wght="-4.41444515599358" />
        <Con id="707" src="705" tgt="15" wght="4.9925327706210139" />
        <Con id="776" src="10" tgt="695" wght="-1.9182314050553111" />
        <Con id="839" src="705" tgt="19" wght="2.1710397334449061" />
        <Con id="1040" src="10" tgt="1039" wght="-4.4329290511086583" />
        <Con id="1041" src="1039" tgt="17" wght="5" />
        <Con id="1063" src="10" tgt="18" wght="-3.4723014663904905" />
        <Con id="1074" src="11" tgt="24" wght="2.5500898528844118" />
        <Con id="1093" src="695" tgt="16" wght="-3.3223036255427414" />
      </Connections>
    </Network>
    <Network id="47041" birthGen="20" fitness="4.125">
      <Nodes>
        <Node type="bias" id="0" />
        <Node type="in" id="1" />
        <Node type="in" id="2" />
        <Node type="in" id="3" />
        <Node type="in" id="4" />
        <Node type="in" id="5" />
        <Node type="in" id="6" />
        <Node type="in" id="7" />
        <Node type="in" id="8" />
        <Node type="in" id="9" />
        <Node type="in" id="10" />
        <Node type="in" id="11" />
        <Node type="in" id="12" />
        <Node type="in" id="13" />
        <Node type="in" id="14" />
        <Node type="out" id="15" />
        <Node type="out" id="16" />
        <Node type="out" id="17" />
        <Node type="out" id="18" />
        <Node type="out" id="19" />
        <Node type="out" id="20" />
        <Node type="out" id="21" />
        <Node type="out" id="22" />
        <Node type="out" id="23" />
        <Node type="out" id="24" />
        <Node type="out" id="25" />
        <Node type="out" id="26" />
        <Node type="out" id="27" />
        <Node type="hid" id="695" />
        <Node type="hid" id="705" />
      </Nodes>
      <Connections>
        <Con id="42" src="1" tgt="16" wght="2.5703033988049104" />
        <Con id="55" src="2" tgt="16" wght="1.451739675403158" />
        <Con id="57" src="2" tgt="18" wght="3.0164632861510716" />
        <Con id="67" src="3" tgt="15" wght="3.4339466337572646" />
        <Con id="126" src="7" tgt="22" wght="-0.51893869288833527" />
        <Con id="134" src="8" tgt="17" wght="0.071637991555695252" />
        <Con id="189" src="12" tgt="20" wght="0.74587907641732043" />
        <Con id="201" src="13" tgt="19" wght="-1.2190747919002725" />
        <Con id="232" src="1" tgt="23" wght="3.8469217531383038" />
        <Con id="234" src="8" tgt="26" wght="0.22939962534617628" />
        <Con id="238" src="1" tgt="25" wght="-4.9859069041482806" />
        <Con id="241" src="5" tgt="16" wght="-1.7819270950672719" />
        <Con id="242" src="7" tgt="25" wght="4.03449911647415" />
        <Con id="246" src="9" tgt="16" wght="-0.11716533319683337" />
        <Con id="248" src="10" tgt="26" wght="-1.6372361053822828" />
        <Con id="252" src="0" tgt="26" wght="0.76183922001229254" />
        <Con id="254" src="10" tgt="24" wght="-4.4949004912980222" />
        <Con id="258" src="9" tgt="17" wght="3.4365330025146785" />
        <Con id="260" src="14" tgt="18" wght="-3.234318550838148" />
        <Con id="264" src="1" tgt="15" wght="-1.4616216102132169" />
        <Con id="265" src="5" tgt="21" wght="-3.9571271617546651" />
        <Con id="279" src="11" tgt="17" wght="0.3750811716244225" />
        <Con id="289" src="4" tgt="17" wght="-2.9404297403009219" />
        <Con id="290" src="1" tgt="17" wght="-0.69224578533258041" />
        <Con id="292" src="6" tgt="21" wght="1.9214913288708066" />
        <Con id="296" src="7" tgt="17" wght="-3.1550747528672218" />
        <Con id="308" src="10" tgt="16" wght="0.18564684234218209" />
        <Con id="309" src="2" tgt="17" wght="1.15396698659914" />
        <Con id="311" src="10" tgt="25" wght="-1.6102443785046663" />
        <Con id="312" src="9" tgt="22" wght="-2.6175911398604512" />
        <Con id="315" src="11" tgt="21" wght="4.6915590945730532" />
        <Con id="316" src="8" tgt="23" wght="-4.7901291137182849" />
        <Con id="317" src="5" tgt="18" wght="2.2023090775388248" />
        <Con id="319" src="9" tgt="19" wght="3.7099640706647383" />
        <Con id="324" src="1" tgt="20" wght="4.369224783224559" />
        <Con id="326" src="14" tgt="17" wght="3.4672551443318032" />
        <Con id="331" src="6" tgt="23" wght="2.7391362496207994" />
        <Con id="337" src="10" tgt="19" wght="-1.5640405116626219" />
        <Con id="351" src="0" tgt="24" wght="-2.6376293708738623" />
        <Con id="363" src="12" tgt="26" wght="4.6944897804444263" />
        <Con id="365" src="5" tgt="20" wght="-2.9144077189266682" />
        <Con id="371" src="3" tgt="16" wght="4.2280234777456025" />
        <Con id="385" src="4" tgt="26" wght="-2.0413587622960065" />
        <Con id="386" src="5" tgt="22" wght="3.0127932485630105" />
        <Con id="387" src="3" tgt="24" wght="4.5660765664927236" />
        <Con id="404" src="0" tgt="15" wght="-2.5374146830290556" />
        <Con id="429" src="7" tgt="20" wght="3.5698730635746108" />
        <Con id="434" src="3" tgt="23" wght="-4.294698447922042" />
        <Con id="435" src="6" tgt="22" wght="1.7972393480008162" />
        <Con id="441" src="0" tgt="20" wght="-4.4700784469023347" />
        <Con id="476" src="10" tgt="17" wght="-2.4161242998952184" />
        <Con id="480" src="4" tgt="24" wght="-2.6356398560561232" />
        <Con id="510" src="4" tgt="22" wght="0.64639021371246175" />
        <Con id="514" src="5" tgt="25" wght="1.9324687526431514" />
        <Con id="696" src="6" tgt="695" wght="0.87038986850529909" />
        <Con id="697" src="695" tgt="20" wght="3.9109228027742349" />
        <Con id="698" src="3" tgt="27" wght="4.0283066220581532" />
        <Con id="706" src="5" tgt="705" wght="-2.33902045282924" />
        <Con id="707" src="705" tgt="15" wght="4.975870516120886" />
        <Con id="776" src="10" tgt="695" wght="-2.1571954233714652" />
        <Con id="839" src="705" tgt="19" wght="2.1710397334449061" />
      </Connections>
    </Network>
    <Network id="46929" birthGen="19" fitness="1.25">
      <Nodes>
        <Node type="bias" id="0" />
        <Node type="in" id="1" />
        <Node type="in" id="2" />
        <Node type="in" id="3" />
        <Node type="in" id="4" />
        <Node type="in" id="5" />
        <Node type="in" id="6" />
        <Node type="in" id="7" />
        <Node type="in" id="8" />
        <Node type="in" id="9" />
        <Node type="in" id="10" />
        <Node type="in" id="11" />
        <Node type="in" id="12" />
        <Node type="in" id="13" />
        <Node type="in" id="14" />
        <Node type="out" id="15" />
        <Node type="out" id="16" />
        <Node type="out" id="17" />
        <Node type="out" id="18" />
        <Node type="out" id="19" />
        <Node type="out" id="20" />
        <Node type="out" id="21" />
        <Node type="out" id="22" />
        <Node type="out" id="23" />
        <Node type="out" id="24" />
        <Node type="out" id="25" />
        <Node type="out" id="26" />
        <Node type="out" id="27" />
        <Node type="hid" id="695" />
        <Node type="hid" id="705" />
      </Nodes>
      <Connections>
        <Con id="42" src="1" tgt="16" wght="2.5703033988049104" />
        <Con id="55" src="2" tgt="16" wght="1.451739675403158" />
        <Con id="57" src="2" tgt="18" wght="3.0164632861510716" />
        <Con id="67" src="3" tgt="15" wght="3.4339466337572646" />
        <Con id="126" src="7" tgt="22" wght="-0.51893869288833527" />
        <Con id="134" src="8" tgt="17" wght="0.071637991555695252" />
        <Con id="189" src="12" tgt="20" wght="0.74587907641732043" />
        <Con id="201" src="13" tgt="19" wght="-1.2190747919002725" />
        <Con id="232" src="1" tgt="23" wght="3.8469217531383038" />
        <Con id="234" src="8" tgt="26" wght="0.22939962534617628" />
        <Con id="238" src="1" tgt="25" wght="-4.9859069041482806" />
        <Con id="241" src="5" tgt="16" wght="-1.7819270950672719" />
        <Con id="242" src="7" tgt="25" wght="4.03449911647415" />
        <Con id="246" src="9" tgt="16" wght="-0.11716533319683337" />
        <Con id="248" src="10" tgt="26" wght="-1.6372361053822828" />
        <Con id="252" src="0" tgt="26" wght="0.76183922001229254" />
        <Con id="254" src="10" tgt="24" wght="-4.4949004912980222" />
        <Con id="258" src="9" tgt="17" wght="3.4365330025146785" />
        <Con id="260" src="14" tgt="18" wght="-3.234318550838148" />
        <Con id="264" src="1" tgt="15" wght="-1.4616216102132169" />
        <Con id="265" src="5" tgt="21" wght="-3.9571271617546651" />
        <Con id="279" src="11" tgt="17" wght="0.3750811716244225" />
        <Con id="289" src="4" tgt="17" wght="-2.9404297403009219" />
        <Con id="290" src="1" tgt="17" wght="-0.69224578533258041" />
        <Con id="292" src="6" tgt="21" wght="1.9214913288708066" />
        <Con id="296" src="7" tgt="17" wght="-3.1550747528672218" />
        <Con id="308" src="10" tgt="16" wght="0.18564684234218209" />
        <Con id="309" src="2" tgt="17" wght="1.15396698659914" />
        <Con id="311" src="10" tgt="25" wght="-1.6102443785046663" />
        <Con id="312" src="9" tgt="22" wght="-2.6175911398604512" />
        <Con id="315" src="11" tgt="21" wght="4.6915590945730532" />
        <Con id="316" src="8" tgt="23" wght="-4.7870932524713252" />
        <Con id="317" src="5" tgt="18" wght="2.2023090775388248" />
        <Con id="319" src="9" tgt="19" wght="3.7099640706647383" />
        <Con id="324" src="1" tgt="20" wght="4.369224783224559" />
        <Con id="326" src="14" tgt="17" wght="3.4672551443318032" />
        <Con id="331" src="6" tgt="23" wght="2.7391362496207994" />
        <Con id="337" src="10" tgt="19" wght="-1.5640405116626219" />
        <Con id="351" src="0" tgt="24" wght="-2.6376293708738623" />
        <Con id="363" src="12" tgt="26" wght="4.6944897804444263" />
        <Con id="365" src="5" tgt="20" wght="-2.9144077189266682" />
        <Con id="371" src="3" tgt="16" wght="4.2280234777456025" />
        <Con id="385" src="4" tgt="26" wght="-2.0413587622960065" />
        <Con id="386" src="5" tgt="22" wght="3.0127932485630105" />
        <Con id="387" src="3" tgt="24" wght="4.5660765664927236" />
        <Con id="404" src="0" tgt="15" wght="-2.5374146830290556" />
        <Con id="429" src="7" tgt="20" wght="3.5698730635746108" />
        <Con id="434" src="3" tgt="23" wght="-4.294698447922042" />
        <Con id="435" src="6" tgt="22" wght="1.7972393480008162" />
        <Con id="441" src="0" tgt="20" wght="-4.4700784469023347" />
        <Con id="476" src="10" tgt="17" wght="-2.4161242998952184" />
        <Con id="480" src="4" tgt="24" wght="-2.6356398560561232" />
        <Con id="510" src="4" tgt="22" wght="0.65433000632125182" />
        <Con id="514" src="5" tgt="25" wght="1.9324687526431514" />
        <Con id="696" src="6" tgt="695" wght="0.87038986850529909" />
        <Con id="697" src="695" tgt="20" wght="3.9109228027742349" />
        <Con id="698" src="3" tgt="27" wght="4.0283066220581532" />
        <Con id="706" src="5" tgt="705" wght="-2.33902045282924" />
        <Con id="707" src="705" tgt="15" wght="5" />
        <Con id="776" src="10" tgt="695" wght="-2.1571954233714652" />
        <Con id="839" src="705" tgt="19" wght="2.1710397334449061" />
      </Connections>
    </Network>
    <Network id="47046" birthGen="20" fitness="0">
      <Nodes>
        <Node type="bias" id="0" />
        <Node type="in" id="1" />
        <Node type="in" id="2" />
        <Node type="in" id="3" />
        <Node type="in" id="4" />
        <Node type="in" id="5" />
        <Node type="in" id="6" />
        <Node type="in" id="7" />
        <Node type="in" id="8" />
        <Node type="in" id="9" />
        <Node type="in" id="10" />
        <Node type="in" id="11" />
        <Node type="in" id="12" />
        <Node type="in" id="13" />
        <Node type="in" id="14" />
        <Node type="out" id="15" />
        <Node type="out" id="16" />
        <Node type="out" id="17" />
        <Node type="out" id="18" />
        <Node type="out" id="19" />
        <Node type="out" id="20" />
        <Node type="out" id="21" />
        <Node type="out" id="22" />
        <Node type="out" id="23" />
        <Node type="out" id="24" />
        <Node type="out" id="25" />
        <Node type="out" id="26" />
        <Node type="out" id="27" />
        <Node type="hid" id="695" />
        <Node type="hid" id="705" />
      </Nodes>
      <Connections>
        <Con id="42" src="1" tgt="16" wght="2.5703033988049104" />
        <Con id="55" src="2" tgt="16" wght="1.4945169535549185" />
        <Con id="57" src="2" tgt="18" wght="3.3436561703536003" />
        <Con id="67" src="3" tgt="15" wght="3.4339466337572646" />
        <Con id="126" src="7" tgt="22" wght="0.82774899899959564" />
        <Con id="134" src="8" tgt="17" wght="0.071637991555695252" />
        <Con id="189" src="12" tgt="20" wght="0.74587907641732043" />
        <Con id="201" src="13" tgt="19" wght="-1.2190747919002725" />
        <Con id="232" src="1" tgt="23" wght="3.8469217531383038" />
        <Con id="234" src="8" tgt="26" wght="0.22939962534617628" />
        <Con id="238" src="1" tgt="25" wght="-4.9835509951850234" />
        <Con id="241" src="5" tgt="16" wght="-1.7819270950672719" />
        <Con id="242" src="7" tgt="25" wght="2.7110335791953744" />
        <Con id="246" src="9" tgt="16" wght="-0.11716533319683337" />
        <Con id="248" src="10" tgt="26" wght="-1.6226758994162083" />
        <Con id="252" src="0" tgt="26" wght="0.76183922001229254" />
        <Con id="254" src="10" tgt="24" wght="-4.5026585185623613" />
        <Con id="258" src="9" tgt="17" wght="3.2705419836565852" />
        <Con id="260" src="14" tgt="18" wght="-3.2503689967878064" />
        <Con id="264" src="1" tgt="15" wght="-1.4616216102132169" />
        <Con id="265" src="5" tgt="21" wght="-3.9571271617546651" />
        <Con id="279" src="11" tgt="17" wght="0.3750811716244225" />
        <Con id="289" src="4" tgt="17" wght="-3.98746051498151" />
        <Con id="290" src="1" tgt="17" wght="0.76854414514513658" />
        <Con id="292" src="6" tgt="21" wght="1.9535643238883185" />
        <Con id="296" src="7" tgt="17" wght="1.3679567667973924" />
        <Con id="308" src="10" tgt="16" wght="0.18564684234218209" />
        <Con id="309" src="2" tgt="17" wght="-2.3218541918322444" />
        <Con id="311" src="10" tgt="25" wght="-2.3265911563592372" />
        <Con id="312" src="9" tgt="22" wght="-2.8673794449317622" />
        <Con id="315" src="11" tgt="21" wght="3.8305447988123187" />
        <Con id="316" src="8" tgt="23" wght="-4.7870932524713252" />
        <Con id="317" src="5" tgt="18" wght="2.2023090775388248" />
        <Con id="319" src="9" tgt="19" wght="3.6828481406068527" />
        <Con id="324" src="1" tgt="20" wght="4.38564952235771" />
        <Con id="326" src="14" tgt="17" wght="3.4672551443318032" />
        <Con id="331" src="6" tgt="23" wght="1.6508427426054533" />
        <Con id="337" src="10" tgt="19" wght="-1.5640405116626219" />
        <Con id="351" src="0" tgt="24" wght="-2.6377601219691647" />
        <Con id="363" src="12" tgt="26" wght="3.9756378624820878" />
        <Con id="371" src="3" tgt="16" wght="4.2280234777456025" />
        <Con id="374" src="3" tgt="22" wght="-1.1572054147956525" />
        <Con id="385" src="4" tgt="26" wght="-2.0577302314189865" />
        <Con id="386" src="5" tgt="22" wght="3.0127932485630105" />
        <Con id="387" src="3" tgt="24" wght="4.5660765664927236" />
        <Con id="404" src="0" tgt="15" wght="-2.5098913991702285" />
        <Con id="429" src="7" tgt="20" wght="3.5698730635746108" />
        <Con id="434" src="3" tgt="23" wght="-4.294698447922042" />
        <Con id="435" src="6" tgt="22" wght="0.01090652735864639" />
        <Con id="441" src="0" tgt="20" wght="-3.8209070404991508" />
        <Con id="476" src="10" tgt="17" wght="-0.57797776102299459" />
        <Con id="480" src="4" tgt="24" wght="-3.0269723811927371" />
        <Con id="510" src="4" tgt="22" wght="0.67612070616539588" />
        <Con id="514" src="5" tgt="25" wght="1.9324687526431514" />
        <Con id="696" src="6" tgt="695" wght="0.87038986850529909" />
        <Con id="697" src="695" tgt="20" wght="3.9109228027742349" />
        <Con id="698" src="3" tgt="27" wght="-2.1527427993714809" />
        <Con id="706" src="5" tgt="705" wght="-5" />
        <Con id="707" src="705" tgt="15" wght="5" />
        <Con id="776" src="10" tgt="695" wght="2.8278072830289602" />
        <Con id="839" src="705" tgt="19" wght="2.1710397334449061" />
        <Con id="868" src="695" tgt="26" wght="-2.026818305357192" />
      </Connections>
    </Network>
    <Network id="47045" birthGen="20" fitness="0">
      <Nodes>
        <Node type="bias" id="0" />
        <Node type="in" id="1" />
        <Node type="in" id="2" />
        <Node type="in" id="3" />
        <Node type="in" id="4" />
        <Node type="in" id="5" />
        <Node type="in" id="6" />
        <Node type="in" id="7" />
        <Node type="in" id="8" />
        <Node type="in" id="9" />
        <Node type="in" id="10" />
        <Node type="in" id="11" />
        <Node type="in" id="12" />
        <Node type="in" id="13" />
        <Node type="in" id="14" />
        <Node type="out" id="15" />
        <Node type="out" id="16" />
        <Node type="out" id="17" />
        <Node type="out" id="18" />
        <Node type="out" id="19" />
        <Node type="out" id="20" />
        <Node type="out" id="21" />
        <Node type="out" id="22" />
        <Node type="out" id="23" />
        <Node type="out" id="24" />
        <Node type="out" id="25" />
        <Node type="out" id="26" />
        <Node type="out" id="27" />
        <Node type="hid" id="695" />
        <Node type="hid" id="705" />
      </Nodes>
      <Connections>
        <Con id="42" src="1" tgt="16" wght="2.5703033988049104" />
        <Con id="55" src="2" tgt="16" wght="1.4945169535549185" />
        <Con id="57" src="2" tgt="18" wght="3.3436561703536003" />
        <Con id="67" src="3" tgt="15" wght="3.4339466337572646" />
        <Con id="126" src="7" tgt="22" wght="0.82774899899959564" />
        <Con id="134" src="8" tgt="17" wght="0.071637991555695252" />
        <Con id="189" src="12" tgt="20" wght="0.74587907641732043" />
        <Con id="201" src="13" tgt="19" wght="-1.2190747919002725" />
        <Con id="232" src="1" tgt="23" wght="3.8469217531383038" />
        <Con id="234" src="8" tgt="26" wght="0.22939962534617628" />
        <Con id="238" src="1" tgt="25" wght="-4.9835509951850234" />
        <Con id="241" src="5" tgt="16" wght="-1.7819270950672719" />
        <Con id="242" src="7" tgt="25" wght="2.7110335791953744" />
        <Con id="246" src="9" tgt="16" wght="-0.11716533319683337" />
        <Con id="248" src="10" tgt="26" wght="-1.6226758994162083" />
        <Con id="252" src="0" tgt="26" wght="0.76183922001229254" />
        <Con id="254" src="10" tgt="24" wght="-4.5026585185623613" />
        <Con id="258" src="9" tgt="17" wght="3.2705419836565852" />
        <Con id="260" src="14" tgt="18" wght="-3.2503689967878064" />
        <Con id="264" src="1" tgt="15" wght="-1.4616216102132169" />
        <Con id="265" src="5" tgt="21" wght="-3.9571271617546651" />
        <Con id="279" src="11" tgt="17" wght="0.3750811716244225" />
        <Con id="289" src="4" tgt="17" wght="-3.98746051498151" />
        <Con id="290" src="1" tgt="17" wght="0.76854414514513658" />
        <Con id="292" src="6" tgt="21" wght="1.9535643238883185" />
        <Con id="296" src="7" tgt="17" wght="1.3679567667973924" />
        <Con id="308" src="10" tgt="16" wght="0.18564684234218209" />
        <Con id="309" src="2" tgt="17" wght="-2.3218541918322444" />
        <Con id="311" src="10" tgt="25" wght="-2.3265911563592372" />
        <Con id="312" src="9" tgt="22" wght="-2.8388585849879697" />
        <Con id="315" src="11" tgt="21" wght="3.8305447988123187" />
        <Con id="316" src="8" tgt="23" wght="-4.7870932524713252" />
        <Con id="317" src="5" tgt="18" wght="2.2023090775388248" />
        <Con id="319" src="9" tgt="19" wght="3.6828481406068527" />
        <Con id="324" src="1" tgt="20" wght="4.38564952235771" />
        <Con id="326" src="14" tgt="17" wght="3.4672551443318032" />
        <Con id="331" src="6" tgt="23" wght="1.6508427426054533" />
        <Con id="337" src="10" tgt="19" wght="-1.5640405116626219" />
        <Con id="351" src="0" tgt="24" wght="-2.6377601219691647" />
        <Con id="363" src="12" tgt="26" wght="3.5116274447704576" />
        <Con id="371" src="3" tgt="16" wght="4.2280234777456025" />
        <Con id="374" src="3" tgt="22" wght="-1.1572054147956525" />
        <Con id="385" src="4" tgt="26" wght="-2.0577302314189865" />
        <Con id="386" src="5" tgt="22" wght="3.0127932485630105" />
        <Con id="387" src="3" tgt="24" wght="4.5660765664927236" />
        <Con id="404" src="0" tgt="15" wght="-2.5098913991702285" />
        <Con id="429" src="7" tgt="20" wght="3.5698730635746108" />
        <Con id="434" src="3" tgt="23" wght="-4.294698447922042" />
        <Con id="435" src="6" tgt="22" wght="1.7972393480008162" />
        <Con id="441" src="0" tgt="20" wght="-3.8209070404991508" />
        <Con id="476" src="10" tgt="17" wght="-0.57797776102299459" />
        <Con id="480" src="4" tgt="24" wght="-3.0269723811927371" />
        <Con id="510" src="4" tgt="22" wght="0.67612070616539588" />
        <Con id="514" src="5" tgt="25" wght="1.9324687526431514" />
        <Con id="696" src="6" tgt="695" wght="0.87038986850529909" />
        <Con id="697" src="695" tgt="20" wght="3.9109228027742349" />
        <Con id="698" src="3" tgt="27" wght="-2.1527427993714809" />
        <Con id="706" src="5" tgt="705" wght="-5" />
        <Con id="707" src="705" tgt="15" wght="5" />
        <Con id="776" src="10" tgt="695" wght="2.8278072830289602" />
        <Con id="839" src="705" tgt="19" wght="2.1710397334449061" />
        <Con id="868" src="695" tgt="26" wght="-1.2298566801473498" />
      </Connections>
    </Network>
    <Network id="47049" birthGen="20" fitness="1.609375">
      <Nodes>
        <Node type="bias" id="0" />
        <Node type="in" id="1" />
        <Node type="in" id="2" />
        <Node type="in" id="3" />
        <Node type="in" id="4" />
        <Node type="in" id="5" />
        <Node type="in" id="6" />
        <Node type="in" id="7" />
        <Node type="in" id="8" />
        <Node type="in" id="9" />
        <Node type="in" id="10" />
        <Node type="in" id="11" />
        <Node type="in" id="12" />
        <Node type="in" id="13" />
        <Node type="in" id="14" />
        <Node type="out" id="15" />
        <Node type="out" id="16" />
        <Node type="out" id="17" />
        <Node type="out" id="18" />
        <Node type="out" id="19" />
        <Node type="out" id="20" />
        <Node type="out" id="21" />
        <Node type="out" id="22" />
        <Node type="out" id="23" />
        <Node type="out" id="24" />
        <Node type="out" id="25" />
        <Node type="out" id="26" />
        <Node type="out" id="27" />
        <Node type="hid" id="695" />
        <Node type="hid" id="705" />
      </Nodes>
      <Connections>
        <Con id="42" src="1" tgt="16" wght="3.5330110573282543" />
        <Con id="55" src="2" tgt="16" wght="2.6151840156228414" />
        <Con id="57" src="2" tgt="18" wght="3.3287621503763258" />
        <Con id="67" src="3" tgt="15" wght="3.4339466337572646" />
        <Con id="126" src="7" tgt="22" wght="-0.51711267693354213" />
        <Con id="134" src="8" tgt="17" wght="0.071637991555695252" />
        <Con id="189" src="12" tgt="20" wght="-1.0608147796853351" />
        <Con id="201" src="13" tgt="19" wght="-0.61659161661167983" />
        <Con id="232" src="1" tgt="23" wght="3.8469217531383038" />
        <Con id="234" src="8" tgt="26" wght="0.22705037543748233" />
        <Con id="238" src="1" tgt="25" wght="-3.95351492162568" />
        <Con id="241" src="5" tgt="16" wght="-1.9288789020283459" />
        <Con id="242" src="7" tgt="25" wght="4.03449911647415" />
        <Con id="246" src="9" tgt="16" wght="0.10675490051314568" />
        <Con id="248" src="10" tgt="26" wght="0.072146293836888975" />
        <Con id="252" src="0" tgt="26" wght="-0.58518044181206608" />
        <Con id="254" src="10" tgt="24" wght="-4.4592970973705146" />
        <Con id="258" src="9" tgt="17" wght="3.4537839537929353" />
        <Con id="260" src="14" tgt="18" wght="-3.2459822580768729" />
        <Con id="264" src="1" tgt="15" wght="-1.4722959813004843" />
        <Con id="265" src="5" tgt="21" wght="-3.9571271617546651" />
        <Con id="279" src="11" tgt="17" wght="0.3750811716244225" />
        <Con id="289" src="4" tgt="17" wght="-4.5063780828388422" />
        <Con id="290" src="1" tgt="17" wght="-0.69224578533258041" />
        <Con id="292" src="6" tgt="21" wght="2.4925561735320612" />
        <Con id="296" src="7" tgt="17" wght="-1.589600849764166" />
        <Con id="300" src="4" tgt="20" wght="-0.71052471175789833" />
        <Con id="308" src="10" tgt="16" wght="0.15731612010021426" />
        <Con id="309" src="2" tgt="17" wght="2.1229553193454973" />
        <Con id="311" src="10" tgt="25" wght="-1.5920862420740338" />
        <Con id="312" src="9" tgt="22" wght="-2.8724731226272655" />
        <Con id="315" src="11" tgt="21" wght="4.6915590945730532" />
        <Con id="316" src="8" tgt="23" wght="-4.2678254770209652" />
        <Con id="317" src="5" tgt="18" wght="3.5135318574303467" />
        <Con id="319" src="9" tgt="19" wght="3.69033844165425" />
        <Con id="324" src="1" tgt="20" wght="4.3949119653552771" />
        <Con id="326" src="14" tgt="17" wght="3.5062616732501746" />
        <Con id="331" src="6" tgt="23" wght="1.6481907039697163" />
        <Con id="337" src="10" tgt="19" wght="-1.5640405116626219" />
        <Con id="347" src="9" tgt="20" wght="0.86490387343623665" />
        <Con id="351" src="0" tgt="24" wght="-2.6078822328036892" />
        <Con id="363" src="12" tgt="26" wght="3.5701799913101286" />
        <Con id="371" src="3" tgt="16" wght="2.6821544180482197" />
        <Con id="385" src="4" tgt="26" wght="-3.1826023071166105" />
        <Con id="386" src="5" tgt="22" wght="3.0251281213981649" />
        <Con id="387" src="3" tgt="24" wght="3.1594832269487205" />
        <Con id="404" src="0" tgt="15" wght="-2.5384645754646731" />
        <Con id="429" src="7" tgt="20" wght="2.1039165730672691" />
        <Con id="434" src="3" tgt="23" wght="-4.738768128212568" />
        <Con id="435" src="6" tgt="22" wght="1.7972393480008162" />
        <Con id="441" src="0" tgt="20" wght="-4.4659827205096887" />
        <Con id="476" src="10" tgt="17" wght="-2.3794523507772736" />
        <Con id="480" src="4" tgt="24" wght="-3.0335863967595804" />
        <Con id="510" src="4" tgt="22" wght="0.65186901047256929" />
        <Con id="514" src="5" tgt="25" wght="1.9324687526431514" />
        <Con id="696" src="6" tgt="695" wght="2.447001429743854" />
        <Con id="697" src="695" tgt="20" wght="4.3806676073279354" />
        <Con id="698" src="3" tgt="27" wght="3.7364738108590245" />
        <Con id="706" src="5" tgt="705" wght="-4.3097895193620719" />
        <Con id="707" src="705" tgt="15" wght="2.1399022820034435" />
        <Con id="776" src="10" tgt="695" wght="-1.2679948691223553" />
        <Con id="839" src="705" tgt="19" wght="2.1710397334449061" />
      </Connections>
    </Network>
    <Network id="46940" birthGen="19" fitness="3.734375">
      <Nodes>
        <Node type="bias" id="0" />
        <Node type="in" id="1" />
        <Node type="in" id="2" />
        <Node type="in" id="3" />
        <Node type="in" id="4" />
        <Node type="in" id="5" />
        <Node type="in" id="6" />
        <Node type="in" id="7" />
        <Node type="in" id="8" />
        <Node type="in" id="9" />
        <Node type="in" id="10" />
        <Node type="in" id="11" />
        <Node type="in" id="12" />
        <Node type="in" id="13" />
        <Node type="in" id="14" />
        <Node type="out" id="15" />
        <Node type="out" id="16" />
        <Node type="out" id="17" />
        <Node type="out" id="18" />
        <Node type="out" id="19" />
        <Node type="out" id="20" />
        <Node type="out" id="21" />
        <Node type="out" id="22" />
        <Node type="out" id="23" />
        <Node type="out" id="24" />
        <Node type="out" id="25" />
        <Node type="out" id="26" />
        <Node type="out" id="27" />
        <Node type="hid" id="695" />
        <Node type="hid" id="705" />
      </Nodes>
      <Connections>
        <Con id="42" src="1" tgt="16" wght="3.697135190424043" />
        <Con id="55" src="2" tgt="16" wght="2.6151840156228414" />
        <Con id="57" src="2" tgt="18" wght="3.3436561703536003" />
        <Con id="67" src="3" tgt="15" wght="3.4339466337572646" />
        <Con id="126" src="7" tgt="22" wght="-0.51711267693354213" />
        <Con id="134" src="8" tgt="17" wght="-0.3107388837211057" />
        <Con id="189" src="12" tgt="20" wght="-1.0608147796853351" />
        <Con id="201" src="13" tgt="19" wght="-2.9518292506716515" />
        <Con id="232" src="1" tgt="23" wght="3.8469217531383038" />
        <Con id="234" src="8" tgt="26" wght="0.24902580640145222" />
        <Con id="238" src="1" tgt="25" wght="-3.6045145073643408" />
        <Con id="241" src="5" tgt="16" wght="-1.9288789020283459" />
        <Con id="242" src="7" tgt="25" wght="4.03449911647415" />
        <Con id="246" src="9" tgt="16" wght="0.14492559897261192" />
        <Con id="248" src="10" tgt="26" wght="0.072146293836888975" />
        <Con id="252" src="0" tgt="26" wght="-0.58518044181206608" />
        <Con id="254" src="10" tgt="24" wght="-3.4533772020677649" />
        <Con id="258" src="9" tgt="17" wght="3.4517728082320911" />
        <Con id="260" src="14" tgt="18" wght="-3.2459822580768729" />
        <Con id="264" src="1" tgt="15" wght="-1.4722959813004843" />
        <Con id="265" src="5" tgt="21" wght="-3.9571271617546651" />
        <Con id="279" src="11" tgt="17" wght="0.3750811716244225" />
        <Con id="289" src="4" tgt="17" wght="-4.5063780828388422" />
        <Con id="290" src="1" tgt="17" wght="-0.69224578533258041" />
        <Con id="292" src="6" tgt="21" wght="2.4925561735320612" />
        <Con id="296" src="7" tgt="17" wght="-1.589600849764166" />
        <Con id="300" src="4" tgt="20" wght="-0.71052471175789833" />
        <Con id="308" src="10" tgt="16" wght="0.15731612010021426" />
        <Con id="309" src="2" tgt="17" wght="1.1534729527406227" />
        <Con id="311" src="10" tgt="25" wght="-1.5920862420740338" />
        <Con id="312" src="9" tgt="22" wght="-2.8724731226272655" />
        <Con id="315" src="11" tgt="21" wght="4.6915590945730532" />
        <Con id="316" src="8" tgt="23" wght="-4.6644503399290311" />
        <Con id="317" src="5" tgt="18" wght="3.5259282903931473" />
        <Con id="319" src="9" tgt="19" wght="3.69033844165425" />
        <Con id="324" src="1" tgt="20" wght="-1.1394471768289804" />
        <Con id="326" src="14" tgt="17" wght="3.5062616732501746" />
        <Con id="331" src="6" tgt="23" wght="1.6481907039697163" />
        <Con id="337" src="10" tgt="19" wght="-1.5640405116626219" />
        <Con id="347" src="9" tgt="20" wght="0.86490387343623665" />
        <Con id="351" src="0" tgt="24" wght="-2.6078822328036892" />
        <Con id="363" src="12" tgt="26" wght="3.5465464823625825" />
        <Con id="371" src="3" tgt="16" wght="4.2280234777456025" />
        <Con id="385" src="4" tgt="26" wght="-3.1826023071166105" />
        <Con id="386" src="5" tgt="22" wght="3.0251281213981649" />
        <Con id="387" src="3" tgt="24" wght="3.1594832269487205" />
        <Con id="404" src="0" tgt="15" wght="-2.5374146830290556" />
        <Con id="429" src="7" tgt="20" wght="2.1039165730672691" />
        <Con id="434" src="3" tgt="23" wght="-4.738768128212568" />
        <Con id="435" src="6" tgt="22" wght="1.7972393480008162" />
