<?xml version="1.0" encoding="utf-8"?>
<Root>
  <ActivationFunctions>
    <Fn id="0" name="SteepenedSigmoid" prob="1" />
  </ActivationFunctions>
  <Networks>
    <Network id="124714" birthGen="164" fitness="1.25">
      <Nodes>
        <Node type="bias" id="0" />
        <Node type="in" id="1" />
        <Node type="in" id="2" />
        <Node type="in" id="3" />
        <Node type="in" id="4" />
        <Node type="in" id="5" />
        <Node type="in" id="6" />
        <Node type="in" id="7" />
        <Node type="in" id="8" />
        <Node type="in" id="9" />
        <Node type="in" id="10" />
        <Node type="in" id="11" />
        <Node type="in" id="12" />
        <Node type="in" id="13" />
        <Node type="in" id="14" />
        <Node type="out" id="15" />
        <Node type="out" id="16" />
        <Node type="out" id="17" />
        <Node type="out" id="18" />
        <Node type="out" id="19" />
        <Node type="out" id="20" />
        <Node type="out" id="21" />
        <Node type="out" id="22" />
        <Node type="out" id="23" />
        <Node type="out" id="24" />
        <Node type="out" id="25" />
        <Node type="out" id="26" />
        <Node type="out" id="27" />
        <Node type="hid" id="408" />
        <Node type="hid" id="559" />
        <Node type="hid" id="682" />
        <Node type="hid" id="819" />
        <Node type="hid" id="1390" />
        <Node type="hid" id="1747" />
        <Node type="hid" id="1788" />
        <Node type="hid" id="1889" />
        <Node type="hid" id="1927" />
        <Node type="hid" id="2072" />
        <Node type="hid" id="2079" />
        <Node type="hid" id="2131" />
        <Node type="hid" id="2276" />
        <Node type="hid" id="2359" />
        <Node type="hid" id="2394" />
        <Node type="hid" id="2692" />
        <Node type="hid" id="2902" />
        <Node type="hid" id="3166" />
        <Node type="hid" id="3237" />
        <Node type="hid" id="3507" />
        <Node type="hid" id="3606" />
        <Node type="hid" id="3651" />
        <Node type="hid" id="3779" />
        <Node type="hid" id="3809" />
        <Node type="hid" id="3881" />
        <Node type="hid" id="3958" />
        <Node type="hid" id="4023" />
        <Node type="hid" id="4111" />
        <Node type="hid" id="4510" />
        <Node type="hid" id="4525" />
        <Node type="hid" id="4560" />
        <Node type="hid" id="4767" />
        <Node type="hid" id="4772" />
      </Nodes>
      <Connections>
        <Con id="47" src="1" tgt="21" wght="1.1216903617605567" />
        <Con id="89" src="4" tgt="24" wght="0.85483484731185333" />
        <Con id="97" src="5" tgt="19" wght="-0.11997190530383078" />
        <Con id="161" src="10" tgt="18" wght="-3.1294357465880194" />
        <Con id="268" src="8" tgt="19" wght="-0.90287724909888745" />
        <Con id="290" src="9" tgt="16" wght="-2.2962107921191048" />
        <Con id="302" src="2" tgt="23" wght="-1.2388979690149426" />
        <Con id="315" src="12" tgt="20" wght="-2.7718798698916496" />
        <Con id="328" src="3" tgt="15" wght="-5" />
        <Con id="333" src="10" tgt="26" wght="0.99129049400158475" />
        <Con id="337" src="7" tgt="18" wght="-1.0128659568321274" />
        <Con id="345" src="10" tgt="20" wght="3.4304774180054665" />
        <Con id="410" src="408" tgt="20" wght="0.010938418328850485" />
        <Con id="417" src="13" tgt="27" wght="-0.88752112295947083" />
        <Con id="419" src="2" tgt="27" wght="2.3637353256344795" />
        <Con id="457" src="14" tgt="15" wght="3.4191070683300495" />
        <Con id="519" src="6" tgt="19" wght="2.5058197066838015" />
        <Con id="534" src="0" tgt="17" wght="3.021985807495331" />
        <Con id="560" src="1" tgt="559" wght="-2.1269591634614562" />
        <Con id="604" src="8" tgt="18" wght="-5" />
        <Con id="619" src="10" tgt="15" wght="5" />
        <Con id="628" src="12" tgt="18" wght="3.073646080012796" />
        <Con id="667" src="7" tgt="24" wght="3.9790105216322758" />
        <Con id="683" src="559" tgt="682" wght="-2.7635419368743896" />
        <Con id="684" src="682" tgt="26" wght="3.9072778758160842" />
        <Con id="693" src="3" tgt="24" wght="-3.8286954348730542" />
        <Con id="703" src="14" tgt="559" wght="0.60432482571888146" />
        <Con id="726" src="8" tgt="559" wght="0.10054333863045384" />
        <Con id="815" src="3" tgt="21" wght="-3.0659848685373263" />
        <Con id="821" src="819" tgt="19" wght="2.038142791332286" />
        <Con id="845" src="8" tgt="408" wght="-1.4908450066022452" />
        <Con id="852" src="8" tgt="24" wght="4.648045672055142" />
        <Con id="856" src="14" tgt="19" wght="-5" />
        <Con id="872" src="819" tgt="18" wght="-1.7567121041838527" />
        <Con id="929" src="12" tgt="21" wght="-5" />
        <Con id="949" src="6" tgt="25" wght="-0.026480788295679125" />
        <Con id="983" src="682" tgt="23" wght="-3.0614412706372289" />
        <Con id="1056" src="7" tgt="19" wght="-4.0510042075552652" />
        <Con id="1095" src="6" tgt="16" wght="0.86541194468736649" />
        <Con id="1107" src="9" tgt="17" wght="-1.1779724742350763" />
        <Con id="1151" src="4" tgt="21" wght="2.1082682841925009" />
        <Con id="1160" src="14" tgt="17" wght="2.4660553128168776" />
        <Con id="1293" src="8" tgt="682" wght="-3.8896608552650127" />
        <Con id="1373" src="5" tgt="25" wght="3.7658405000498241" />
        <Con id="1391" src="408" tgt="1390" wght="2.72759200542783" />
        <Con id="1392" src="1390" tgt="23" wght="-1.1351657929367334" />
        <Con id="1422" src="408" tgt="559" wght="-3.2978212174821766" />
        <Con id="1427" src="11" tgt="819" wght="-1.0301376274047498" />
        <Con id="1455" src="9" tgt="27" wght="2.7781221200238821" />
        <Con id="1473" src="1390" tgt="682" wght="-0.1811658223734457" />
        <Con id="1475" src="12" tgt="25" wght="1.1735477677666142" />
        <Con id="1479" src="1" tgt="819" wght="4.01169848287391" />
        <Con id="1490" src="3" tgt="20" wght="3.26290495973854" />
        <Con id="1494" src="8" tgt="27" wght="1.9661695823258" />
        <Con id="1495" src="559" tgt="15" wght="-3.3812906898737074" />
        <Con id="1499" src="13" tgt="25" wght="3.7098064791450964" />
        <Con id="1514" src="6" tgt="682" wght="-3.315772233801265" />
        <Con id="1515" src="9" tgt="24" wght="-0.67534558768504582" />
        <Con id="1516" src="819" tgt="15" wght="1.9231902049782656" />
        <Con id="1551" src="13" tgt="16" wght="0.59279437880249253" />
        <Con id="1556" src="11" tgt="15" wght="3.1536910093745774" />
        <Con id="1557" src="6" tgt="23" wght="1.2349930757885352" />
        <Con id="1562" src="8" tgt="23" wght="2.4789321143180132" />
        <Con id="1572" src="4" tgt="408" wght="-0.98600959846462111" />
        <Con id="1574" src="559" tgt="26" wght="2.3058245961643724" />
        <Con id="1577" src="7" tgt="819" wght="3.0606242591759152" />
        <Con id="1579" src="11" tgt="19" wght="1.4178846798645715" />
        <Con id="1581" src="9" tgt="682" wght="2.0354522742128567" />
        <Con id="1582" src="7" tgt="23" wght="-0.010651579320192759" />
        <Con id="1595" src="5" tgt="21" wght="3.5412023753792337" />
        <Con id="1604" src="1" tgt="26" wght="4.0137091235720277" />
        <Con id="1616" src="408" tgt="16" wght="-5" />
        <Con id="1618" src="2" tgt="408" wght="-2.3639252056050024" />
        <Con id="1660" src="819" tgt="24" wght="-2.1784638300956489" />
        <Con id="1661" src="7" tgt="682" wght="-4.9048949151999022" />
        <Con id="1691" src="10" tgt="25" wght="-2.2893946897238493" />
        <Con id="1718" src="11" tgt="20" wght="4.7721938609718038" />
        <Con id="1725" src="7" tgt="408" wght="-0.12892072494616638" />
        <Con id="1741" src="5" tgt="1390" wght="5" />
        <Con id="1744" src="1390" tgt="24" wght="-3.9371559537631398" />
        <Con id="1748" src="13" tgt="1747" wght="5" />
        <Con id="1749" src="1747" tgt="819" wght="-2.1824238790125978" />
        <Con id="1760" src="408" tgt="15" wght="2.9989640042185783" />
        <Con id="1767" src="2" tgt="16" wght="-1.7221086088900881" />
        <Con id="1768" src="819" tgt="25" wght="-3.1617217023826303" />
        <Con id="1789" src="2" tgt="1788" wght="-1.217714178644314" />
        <Con id="1790" src="1788" tgt="22" wght="-1.2779815802359988" />
        <Con id="1822" src="4" tgt="23" wght="-2.565170667501151" />
        <Con id="1832" src="9" tgt="1747" wght="0.18027052888138803" />
        <Con id="1833" src="0" tgt="22" wght="5" />
        <Con id="1840" src="682" tgt="1747" wght="-1.3921732042482617" />
        <Con id="1845" src="9" tgt="408" wght="-2.4110073470310205" />
        <Con id="1865" src="1747" tgt="25" wght="-1.4080203650519252" />
        <Con id="1879" src="1788" tgt="17" wght="-3.76499032362178" />
        <Con id="1890" src="14" tgt="1889" wght="3.2457469351578663" />
        <Con id="1891" src="1889" tgt="408" wght="3.4218473194954075" />
        <Con id="1913" src="1788" tgt="559" wght="1.1948441275118591" />
        <Con id="1928" src="2" tgt="1927" wght="-3.0369855140439261" />
        <Con id="1929" src="1927" tgt="21" wght="2.0050465433026803" />
        <Con id="1942" src="1" tgt="1747" wght="1.0876765676518849" />
        <Con id="1943" src="4" tgt="1747" wght="2.31680458186921" />
        <Con id="1976" src="3" tgt="1788" wght="-3.7411585355253365" />
        <Con id="1992" src="1747" tgt="15" wght="-1.0768501154397434" />
        <Con id="2007" src="1889" tgt="1747" wght="-1.1535631747161719" />
        <Con id="2026" src="1747" tgt="1927" wght="-2.6209518600353938" />
        <Con id="2054" src="1788" tgt="16" wght="0.93987998447962418" />
        <Con id="2074" src="2072" tgt="408" wght="-0.073746965718882229" />
        <Con id="2080" src="2" tgt="2079" wght="0.19161857160394319" />
        <Con id="2081" src="2079" tgt="19" wght="5" />
        <Con id="2095" src="13" tgt="17" wght="-2.2762056272433027" />
        <Con id="2103" src="6" tgt="17" wght="-3.4945368243616479" />
        <Con id="2117" src="7" tgt="1889" wght="-2.3660841097615077" />
        <Con id="2132" src="7" tgt="2131" wght="-1.4371449676690715" />
        <Con id="2157" src="2131" tgt="819" wght="2.476566996616218" />
        <Con id="2226" src="4" tgt="1927" wght="0.8842030199239822" />
        <Con id="2234" src="7" tgt="1927" wght="3.7591941542125515" />
        <Con id="2237" src="2131" tgt="23" wght="-5" />
        <Con id="2277" src="2" tgt="2276" wght="-1.756393258397414" />
        <Con id="2278" src="2276" tgt="18" wght="-5" />
        <Con id="2309" src="8" tgt="1889" wght="-3.9608509066538025" />
        <Con id="2330" src="3" tgt="2079" wght="4.2475260002538562" />
        <Con id="2343" src="2276" tgt="20" wght="-3.8640886312350631" />
        <Con id="2360" src="0" tgt="2359" wght="0.47275344333054081" />
        <Con id="2362" src="2359" tgt="20" wght="-5" />
        <Con id="2381" src="1889" tgt="21" wght="-0.28946148500193736" />
        <Con id="2384" src="2079" tgt="15" wght="0.43432465170166912" />
        <Con id="2386" src="1927" tgt="27" wght="-3.9789650400001992" />
        <Con id="2395" src="6" tgt="2394" wght="2.5587261377733457" />
        <Con id="2396" src="2394" tgt="2072" wght="3.06972630834602" />
        <Con id="2406" src="2072" tgt="20" wght="-1.3734014422578154" />
        <Con id="2420" src="1390" tgt="2359" wght="-4.6448706034991671" />
        <Con id="2421" src="2359" tgt="1747" wght="0.47285104141456935" />
        <Con id="2436" src="2276" tgt="24" wght="-2.3637615226382809" />
        <Con id="2438" src="2276" tgt="17" wght="-1.4527177883637774" />
        <Con id="2445" src="7" tgt="21" wght="1.3020441257797624" />
        <Con id="2472" src="2072" tgt="1889" wght="2.7785513457255711" />
        <Con id="2475" src="1390" tgt="1747" wght="2.5237536834073384" />
        <Con id="2523" src="2079" tgt="2072" wght="-5" />
        <Con id="2527" src="2131" tgt="1747" wght="0.14316972345113754" />
        <Con id="2681" src="5" tgt="2394" wght="-0.3445320762693882" />
        <Con id="2690" src="12" tgt="1788" wght="-5" />
        <Con id="2693" src="7" tgt="2692" wght="3.9400002260046265" />
        <Con id="2694" src="2692" tgt="22" wght="-4.9881096172834" />
        <Con id="2713" src="1788" tgt="2359" wght="-5" />
        <Con id="2761" src="2072" tgt="2359" wght="3.0070109086002241" />
        <Con id="2804" src="2692" tgt="2359" wght="-4.9441896307541473" />
        <Con id="2867" src="2131" tgt="408" wght="-3.239945219233181" />
        <Con id="2904" src="2902" tgt="408" wght="-0.84084296800168923" />
        <Con id="2938" src="2276" tgt="22" wght="4.4846706384861461" />
        <Con id="2966" src="1927" tgt="22" wght="2.1809248916950579" />
        <Con id="3033" src="408" tgt="2692" wght="-1.1530599825340002" />
        <Con id="3060" src="2359" tgt="17" wght="-0.70376993733221149" />
        <Con id="3167" src="13" tgt="3166" wght="-1.9634111995057588" />
        <Con id="3168" src="3166" tgt="2902" wght="-2.3341272223617064" />
        <Con id="3176" src="4" tgt="2394" wght="3.4101862000768079" />
        <Con id="3238" src="559" tgt="3237" wght="1.2587389558291828" />
        <Con id="3239" src="3237" tgt="22" wght="2.1707150178512533" />
        <Con id="3401" src="408" tgt="3237" wght="-2.4585888488218188" />
        <Con id="3425" src="3166" tgt="2692" wght="3.3358884717567472" />
        <Con id="3484" src="2692" tgt="21" wght="1.2194234936117185" />
        <Con id="3508" src="2359" tgt="3507" wght="1.9035705398453102" />
        <Con id="3509" src="3507" tgt="25" wght="5" />
        <Con id="3533" src="14" tgt="24" wght="-5" />
        <Con id="3538" src="6" tgt="18" wght="-4.3317284574732184" />
        <Con id="3548" src="11" tgt="2359" wght="4.8781405473155228" />
        <Con id="3580" src="13" tgt="2692" wght="2.6148960141620212" />
        <Con id="3594" src="5" tgt="2692" wght="0.70068580500843625" />
        <Con id="3607" src="3166" tgt="3606" wght="1.9967061370832431" />
        <Con id="3608" src="3606" tgt="559" wght="3.4506918178194561" />
        <Con id="3612" src="9" tgt="23" wght="-5" />
        <Con id="3631" src="2079" tgt="25" wght="-1.4602022590574406" />
        <Con id="3652" src="1390" tgt="3651" wght="-0.8737338847997812" />
        <Con id="3653" src="3651" tgt="25" wght="3.0239268129990662" />
        <Con id="3659" src="5" tgt="1927" wght="-2.2315076213824541" />
        <Con id="3660" src="2394" tgt="2692" wght="-0.33518258175657367" />
        <Con id="3687" src="3166" tgt="25" wght="-0.097038197091091252" />
        <Con id="3710" src="2359" tgt="18" wght="-1.1731592317931689" />
        <Con id="3721" src="2079" tgt="2692" wght="3.9040113659575582" />
        <Con id="3728" src="1927" tgt="819" wght="2.0113291822569117" />
        <Con id="3742" src="13" tgt="1927" wght="0.21500930424383427" />
        <Con id="3769" src="2079" tgt="17" wght="-0.051349592009271028" />
        <Con id="3774" src="682" tgt="18" wght="1.6989034335756195" />
        <Con id="3780" src="14" tgt="3779" wght="3.4835291354601754" />
        <Con id="3781" src="3779" tgt="682" wght="4.2776975049153547" />
        <Con id="3782" src="4" tgt="20" wght="-4.3845273192719612" />
        <Con id="3811" src="3809" tgt="20" wght="0.8928502649828669" />
        <Con id="3812" src="1" tgt="2902" wght="-5" />
        <Con id="3855" src="3507" tgt="3809" wght="2.59101079440247" />
        <Con id="3867" src="3651" tgt="3606" wght="-5" />
        <Con id="3872" src="13" tgt="20" wght="4.0493450435881346" />
        <Con id="3882" src="13" tgt="3881" wght="1.148071521001919" />
        <Con id="3883" src="3881" tgt="819" wght="2.3492831103535292" />
        <Con id="3904" src="1" tgt="27" wght="-1.9170611604483576" />
        <Con id="3931" src="3881" tgt="2131" wght="1.5745260927101827" />
        <Con id="3933" src="4" tgt="2902" wght="3.4445943788219604" />
        <Con id="3953" src="2276" tgt="2394" wght="0.43368706338093937" />
        <Con id="3959" src="408" tgt="3958" wght="2.1232477741042417" />
        <Con id="3960" src="3958" tgt="22" wght="5" />
        <Con id="4009" src="7" tgt="25" wght="0.24942738469690084" />
        <Con id="4024" src="8" tgt="4023" wght="2.8190983541020826" />
        <Con id="4025" src="4023" tgt="1747" wght="4.9971590632953582" />
        <Con id="4029" src="2359" tgt="4023" wght="-1.6029625155408789" />
        <Con id="4112" src="8" tgt="4111" wght="4.6533701977498456" />
        <Con id="4113" src="4111" tgt="3809" wght="3.0597101664170623" />
        <Con id="4122" src="3958" tgt="559" wght="-5" />
        <Con id="4124" src="7" tgt="3779" wght="1.5772771452540351" />
        <Con id="4129" src="3809" tgt="27" wght="-1.743520336919359" />
        <Con id="4153" src="3881" tgt="17" wght="1.7778670531164273" />
        <Con id="4188" src="408" tgt="21" wght="1.5131801174100294" />
        <Con id="4202" src="3809" tgt="21" wght="-4.5068687340244651" />
        <Con id="4209" src="14" tgt="2359" wght="-0.54019435731257737" />
        <Con id="4226" src="0" tgt="819" wght="2.5209100426984605" />
        <Con id="4240" src="11" tgt="3606" wght="3.9419400511445404" />
        <Con id="4337" src="4023" tgt="19" wght="-0.60776580590754747" />
        <Con id="4367" src="1889" tgt="3507" wght="-3.6304043512791395" />
        <Con id="4465" src="1927" tgt="26" wght="-1.0863924212753773" />
        <Con id="4467" src="11" tgt="21" wght="1.4749925473318561" />
        <Con id="4507" src="12" tgt="3507" wght="-3.042593380903365" />
        <Con id="4511" src="0" tgt="4510" wght="1.6354368442308953" />
        <Con id="4512" src="4510" tgt="2394" wght="5" />
        <Con id="4526" src="2131" tgt="4525" wght="-2.8297835774719715" />
        <Con id="4527" src="4525" tgt="2276" wght="4.98782836031787" />
        <Con id="4531" src="9" tgt="25" wght="-1.2890018482450216" />
        <Con id="4561" src="3" tgt="4560" wght="4.60385057546553" />
        <Con id="4562" src="4560" tgt="22" wght="5" />
        <Con id="4563" src="2276" tgt="16" wght="0.21399287360362856" />
        <Con id="4586" src="4" tgt="2276" wght="-1.1492420074189971" />
        <Con id="4659" src="1788" tgt="26" wght="1.0192551241176571" />
        <Con id="4679" src="408" tgt="3507" wght="-3.411032878793776" />
        <Con id="4761" src="2276" tgt="25" wght="-2.0183560624718666" />
        <Con id="4768" src="2131" tgt="4767" wght="1.360335366099336" />
        <Con id="4769" src="4767" tgt="559" wght="5" />
        <Con id="4773" src="1788" tgt="4772" wght="0.2936615881577942" />
        <Con id="4774" src="4772" tgt="819" wght="5" />
        <Con id="4780" src="8" tgt="17" wght="-4.8612585896626115" />
        <Con id="4787" src="2902" tgt="4767" wght="0.87667342275381088" />
        <Con id="4810" src="2359" tgt="24" wght="2.7570568630471826" />
        <Con id="4838" src="8" tgt="3651" wght="1.5868668025359511" />
      </Connections>
    </Network>
    <Network id="124719" birthGen="164" fitness="1.25">
      <Nodes>
        <Node type="bias" id="0" />
        <Node type="in" id="1" />
        <Node type="in" id="2" />
        <Node type="in" id="3" />
        <Node type="in" id="4" />
        <Node type="in" id="5" />
        <Node type="in" id="6" />
        <Node type="in" id="7" />
        <Node type="in" id="8" />
        <Node type="in" id="9" />
        <Node type="in" id="10" />
        <Node type="in" id="11" />
        <Node type="in" id="12" />
        <Node type="in" id="13" />
        <Node type="in" id="14" />
        <Node type="out" id="15" />
        <Node type="out" id="16" />
        <Node type="out" id="17" />
        <Node type="out" id="18" />
        <Node type="out" id="19" />
        <Node type="out" id="20" />
        <Node type="out" id="21" />
        <Node type="out" id="22" />
        <Node type="out" id="23" />
        <Node type="out" id="24" />
        <Node type="out" id="25" />
        <Node type="out" id="26" />
        <Node type="out" id="27" />
        <Node type="hid" id="408" />
        <Node type="hid" id="559" />
        <Node type="hid" id="682" />
        <Node type="hid" id="819" />
        <Node type="hid" id="1390" />
        <Node type="hid" id="1747" />
        <Node type="hid" id="1788" />
        <Node type="hid" id="1889" />
        <Node type="hid" id="1927" />
        <Node type="hid" id="2072" />
        <Node type="hid" id="2079" />
        <Node type="hid" id="2131" />
        <Node type="hid" id="2276" />
        <Node type="hid" id="2359" />
        <Node type="hid" id="2394" />
        <Node type="hid" id="2692" />
        <Node type="hid" id="2902" />
        <Node type="hid" id="3166" />
        <Node type="hid" id="3237" />
        <Node type="hid" id="3507" />
        <Node type="hid" id="3606" />
        <Node type="hid" id="3651" />
        <Node type="hid" id="3779" />
        <Node type="hid" id="3809" />
        <Node type="hid" id="3881" />
        <Node type="hid" id="3958" />
        <Node type="hid" id="4023" />
        <Node type="hid" id="4111" />
        <Node type="hid" id="4510" />
        <Node type="hid" id="4525" />
        <Node type="hid" id="4560" />
        <Node type="hid" id="4758" />
        <Node type="hid" id="4804" />
        <Node type="hid" id="4831" />
      </Nodes>
      <Connections>
        <Con id="47" src="1" tgt="21" wght="1.1216903617605567" />
        <Con id="89" src="4" tgt="24" wght="0.85483484731185333" />
        <Con id="97" src="5" tgt="19" wght="-2.894463774452698" />
        <Con id="161" src="10" tgt="18" wght="-3.1294357465880194" />
        <Con id="268" src="8" tgt="19" wght="-0.90287724909888745" />
        <Con id="290" src="9" tgt="16" wght="-2.2962107921191048" />
        <Con id="302" src="2" tgt="23" wght="-1.2388979690149426" />
        <Con id="315" src="12" tgt="20" wght="-2.7718798698916496" />
        <Con id="328" src="3" tgt="15" wght="-4.970930420531456" />
        <Con id="333" src="10" tgt="26" wght="0.99129049400158475" />
        <Con id="337" src="7" tgt="18" wght="-1.0128659568321274" />
        <Con id="345" src="10" tgt="20" wght="-0.26770104686549639" />
        <Con id="410" src="408" tgt="20" wght="0.026371848532045154" />
        <Con id="417" src="13" tgt="27" wght="-0.57440454233766136" />
        <Con id="419" src="2" tgt="27" wght="3.8083618485996817" />
        <Con id="457" src="14" tgt="15" wght="0.35461941323907487" />
        <Con id="519" src="6" tgt="19" wght="2.5426854080649366" />
        <Con id="534" src="0" tgt="17" wght="3.0539979151533743" />
        <Con id="560" src="1" tgt="559" wght="-2.1269591634614562" />
        <Con id="604" src="8" tgt="18" wght="3.1981003889814019" />
        <Con id="619" src="10" tgt="15" wght="5" />
        <Con id="628" src="12" tgt="18" wght="1.754792524981321" />
        <Con id="667" src="7" tgt="24" wght="3.962958857644018" />
        <Con id="683" src="559" tgt="682" wght="2.6863228276602849" />
        <Con id="684" src="682" tgt="26" wght="2.7656745322964316" />
        <Con id="693" src="3" tgt="24" wght="-4.7900646394935444" />
        <Con id="703" src="14" tgt="559" wght="-2.8518306370824575" />
        <Con id="726" src="8" tgt="559" wght="-0.64599665012970742" />
        <Con id="815" src="3" tgt="21" wght="-3.4215320363731876" />
        <Con id="821" src="819" tgt="19" wght="2.038142791332286" />
        <Con id="845" src="8" tgt="408" wght="-1.4908450066022452" />
        <Con id="852" src="8" tgt="24" wght="4.648045672055142" />
        <Con id="856" src="14" tgt="19" wght="-4.9920655205487163" />
        <Con id="872" src="819" tgt="18" wght="-1.8278341417068964" />
        <Con id="929" src="12" tgt="21" wght="-5" />
        <Con id="949" src="6" tgt="25" wght="-0.32633505338473784" />
        <Con id="983" src="682" tgt="23" wght="-3.0614412706372289" />
        <Con id="1056" src="7" tgt="19" wght="-3.8510804779946777" />
        <Con id="1095" src="6" tgt="16" wght="0.85176756655685137" />
        <Con id="1107" src="9" tgt="17" wght="0.62436362672642454" />
        <Con id="1151" src="4" tgt="21" wght="2.1370716311010041" />
        <Con id="1160" src="14" tgt="17" wght="3.4244750480821846" />
        <Con id="1293" src="8" tgt="682" wght="-3.8896608552650127" />
        <Con id="1373" src="5" tgt="25" wght="4.14901107376654" />
        <Con id="1391" src="408" tgt="1390" wght="2.2105060055042682" />
        <Con id="1392" src="1390" tgt="23" wght="-1.1521219786318297" />
        <Con id="1422" src="408" tgt="559" wght="-4.8328750780071026" />
        <Con id="1427" src="11" tgt="819" wght="-1.0301376274047498" />
        <Con id="1455" src="9" tgt="27" wght="2.7781221200238821" />
        <Con id="1473" src="1390" tgt="682" wght="-0.1811658223734457" />
        <Con id="1475" src="12" tgt="25" wght="1.1735477677666142" />
        <Con id="1479" src="1" tgt="819" wght="4.1671451783336959" />
        <Con id="1490" src="3" tgt="20" wght="3.9429038500611053" />
        <Con id="1494" src="8" tgt="27" wght="1.9661695823258" />
        <Con id="1495" src="559" tgt="15" wght="-2.0114913965126067" />
        <Con id="1499" src="13" tgt="25" wght="3.7098064791450964" />
        <Con id="1514" src="6" tgt="682" wght="-3.315772233801265" />
        <Con id="1515" src="9" tgt="24" wght="-0.050805183361169792" />
        <Con id="1516" src="819" tgt="15" wght="2.0320451223645617" />
        <Con id="1551" src="13" tgt="16" wght="-1.3771229699327618" />
        <Con id="1556" src="11" tgt="15" wght="3.1536910093745774" />
        <Con id="1557" src="6" tgt="23" wght="1.2827467542250279" />
        <Con id="1562" src="8" tgt="23" wght="1.2531481119994508" />
        <Con id="1572" src="4" tgt="408" wght="-1.0108741598002615" />
        <Con id="1574" src="559" tgt="26" wght="1.9740170950856326" />
        <Con id="1577" src="7" tgt="819" wght="3.0606242591759152" />
        <Con id="1579" src="11" tgt="19" wght="1.4178846798645715" />
        <Con id="1581" src="9" tgt="682" wght="1.4882164330577683" />
        <Con id="1582" src="7" tgt="23" wght="-0.018609357642611572" />
        <Con id="1595" src="5" tgt="21" wght="3.5412023753792337" />
        <Con id="1604" src="1" tgt="26" wght="4.0137091235720277" />
        <Con id="1616" src="408" tgt="16" wght="-0.26724356924824549" />
        <Con id="1618" src="2" tgt="408" wght="-1.031943401726102" />
        <Con id="1660" src="819" tgt="24" wght="-3.6784600257059661" />
        <Con id="1661" src="7" tgt="682" wght="-3.8927550334483385" />
        <Con id="1691" src="10" tgt="25" wght="-2.2893946897238493" />
        <Con id="1718" src="11" tgt="20" wght="4.7430083937424925" />
        <Con id="1725" src="7" tgt="408" wght="-0.14764491024392645" />
        <Con id="1741" src="5" tgt="1390" wght="4.5187608780214124" />
        <Con id="1744" src="1390" tgt="24" wght="-3.4224971954985568" />
        <Con id="1748" src="13" tgt="1747" wght="4.9855877802328941" />
        <Con id="1749" src="1747" tgt="819" wght="-2.1824238790125978" />
        <Con id="1760" src="408" tgt="15" wght="-0.4195402075526915" />
        <Con id="1767" src="2" tgt="16" wght="-2.8781326255251418" />
        <Con id="1768" src="819" tgt="25" wght="-3.7700320225062369" />
        <Con id="1789" src="2" tgt="1788" wght="-1.2272485825242545" />
        <Con id="1790" src="1788" tgt="22" wght="-1.2779815802359988" />
        <Con id="1822" src="4" tgt="23" wght="-2.565170667501151" />
        <Con id="1832" src="9" tgt="1747" wght="0.4088041186310043" />
        <Con id="1833" src="0" tgt="22" wght="4.8389603486863191" />
        <Con id="1840" src="682" tgt="1747" wght="-1.3921732042482617" />
        <Con id="1845" src="9" tgt="408" wght="-2.4110073470310205" />
        <Con id="1864" src="1788" tgt="819" wght="0.2936615881577942" />
        <Con id="1865" src="1747" tgt="25" wght="-2.9866149861931941" />
        <Con id="1879" src="1788" tgt="17" wght="-3.4816527585373906" />
        <Con id="1890" src="14" tgt="1889" wght="4.4419092134137053" />
        <Con id="1891" src="1889" tgt="408" wght="2.3757617456736906" />
        <Con id="1913" src="1788" tgt="559" wght="1.1770845780573203" />
        <Con id="1928" src="2" tgt="1927" wght="4.904880104586482" />
        <Con id="1929" src="1927" tgt="21" wght="1.6507813213646423" />
        <Con id="1942" src="1" tgt="1747" wght="1.9217127934098244" />
        <Con id="1943" src="4" tgt="1747" wght="2.31680458186921" />
        <Con id="1976" src="3" tgt="1788" wght="-2.5317660545350029" />
        <Con id="1992" src="1747" tgt="15" wght="-1.0768501154397434" />
        <Con id="2007" src="1889" tgt="1747" wght="-1.1266699610202078" />
        <Con id="2026" src="1747" tgt="1927" wght="-2.6494396564059648" />
        <Con id="2054" src="1788" tgt="16" wght="-0.48761978162284131" />
        <Con id="2074" src="2072" tgt="408" wght="-0.073746965718882229" />
        <Con id="2080" src="2" tgt="2079" wght="-0.30486148087781384" />
        <Con id="2081" src="2079" tgt="19" wght="5" />
        <Con id="2095" src="13" tgt="17" wght="-2.2762056272433027" />
        <Con id="2103" src="6" tgt="17" wght="-5" />
        <Con id="2117" src="7" tgt="1889" wght="-1.2845448012089151" />
        <Con id="2132" src="7" tgt="2131" wght="-1.4371449676690715" />
        <Con id="2133" src="2131" tgt="559" wght="1.360335366099336" />
        <Con id="2157" src="2131" tgt="819" wght="1.5213548466557025" />
        <Con id="2226" src="4" tgt="1927" wght="0.89295572708570847" />
        <Con id="2234" src="7" tgt="1927" wght="3.7591941542125515" />
        <Con id="2237" src="2131" tgt="23" wght="-5" />
        <Con id="2277" src="2" tgt="2276" wght="-0.079808438960595973" />
        <Con id="2278" src="2276" tgt="18" wght="-3.5699630991599003" />
        <Con id="2309" src="8" tgt="1889" wght="-3.9608509066538025" />
        <Con id="2330" src="3" tgt="2079" wght="-1.0451019401711525" />
        <Con id="2343" src="2276" tgt="20" wght="-2.9075870766293139" />
        <Con id="2360" src="0" tgt="2359" wght="1.3914814407285581" />
        <Con id="2362" src="2359" tgt="20" wght="-4.4385875878106011" />
        <Con id="2381" src="1889" tgt="21" wght="1.3359967965210735" />
        <Con id="2384" src="2079" tgt="15" wght="-0.54676601209719677" />
        <Con id="2386" src="1927" tgt="27" wght="-1.7154481938028658" />
        <Con id="2395" src="6" tgt="2394" wght="-4.400543007068336" />
        <Con id="2396" src="2394" tgt="2072" wght="4.9879763325214643" />
        <Con id="2406" src="2072" tgt="20" wght="-1.3734014422578154" />
        <Con id="2420" src="1390" tgt="2359" wght="-4.9850701058712623" />
        <Con id="2421" src="2359" tgt="1747" wght="0.4213349403671327" />
        <Con id="2436" src="2276" tgt="24" wght="-2.3637615226382809" />
        <Con id="2438" src="2276" tgt="17" wght="-1.4780047796867386" />
        <Con id="2445" src="7" tgt="21" wght="1.3020441257797624" />
        <Con id="2472" src="2072" tgt="1889" wght="2.7681673876082762" />
        <Con id="2475" src="1390" tgt="1747" wght="4.3649481089943132" />
        <Con id="2523" src="2079" tgt="2072" wght="-5" />
        <Con id="2527" src="2131" tgt="1747" wght="0.14316972345113754" />
        <Con id="2681" src="5" tgt="2394" wght="-2.9006786171353163" />
        <Con id="2690" src="12" tgt="1788" wght="-5" />
        <Con id="2693" src="7" tgt="2692" wght="3.7735528396071234" />
        <Con id="2694" src="2692" tgt="22" wght="-4.9881096172834" />
        <Con id="2713" src="1788" tgt="2359" wght="-4.9714084682358859" />
        <Con id="2761" src="2072" tgt="2359" wght="-2.139561572112143" />
        <Con id="2804" src="2692" tgt="2359" wght="-4.9441896307541473" />
        <Con id="2867" src="2131" tgt="408" wght="-3.2628901049355483" />
        <Con id="2904" src="2902" tgt="408" wght="-0.08191148455570918" />
        <Con id="2938" src="2276" tgt="22" wght="5" />
        <Con id="2966" src="1927" tgt="22" wght="2.144134937140096" />
        <Con id="3033" src="408" tgt="2692" wght="-1.1197576767180852" />
        <Con id="3060" src="2359" tgt="17" wght="-0.73237361577804627" />
        <Con id="3167" src="13" tgt="3166" wght="-1.9634111995057588" />
        <Con id="3168" src="3166" tgt="2902" wght="-2.3341272223617064" />
        <Con id="3176" src="4" tgt="2394" wght="3.4181619543776374" />
        <Con id="3238" src="559" tgt="3237" wght="0.2855632920388026" />
        <Con id="3239" src="3237" tgt="22" wght="2.1707150178512533" />
        <Con id="3401" src="408" tgt="3237" wght="-2.4585888488218188" />
        <Con id="3425" src="3166" tgt="2692" wght="3.1653748918324709" />
        <Con id="3484" src="2692" tgt="21" wght="-2.4293025303632021" />
        <Con id="3508" src="2359" tgt="3507" wght="0.11037847552747682" />
        <Con id="3509" src="3507" tgt="25" wght="4.9447429920395969" />
        <Con id="3533" src="14" tgt="24" wght="-4.2645401717150779" />
        <Con id="3538" src="6" tgt="18" wght="-4.3269696571277514" />
        <Con id="3548" src="11" tgt="2359" wght="4.8781405473155228" />
        <Con id="3580" src="13" tgt="2692" wght="2.6148960141620212" />
        <Con id="3594" src="5" tgt="2692" wght="0.70068580500843625" />
        <Con id="3607" src="3166" tgt="3606" wght="2.8168348623807993" />
        <Con id="3612" src="9" tgt="23" wght="-5" />
        <Con id="3631" src="2079" tgt="25" wght="-2.6167347886621024" />
        <Con id="3652" src="1390" tgt="3651" wght="-0.65420549020361363" />
        <Con id="3653" src="3651" tgt="25" wght="1.9863657762910585" />
        <Con id="3659" src="5" tgt="1927" wght="-2.6761542757775691" />
        <Con id="3660" src="2394" tgt="2692" wght="-0.33518258175657367" />
        <Con id="3687" src="3166" tgt="25" wght="-0.97773526340998618" />
        <Con id="3710" src="2359" tgt="18" wght="0.16501918435096741" />
        <Con id="3721" src="2079" tgt="2692" wght="-0.87130101112007086" />
        <Con id="3728" src="1927" tgt="819" wght="2.0113291822569117" />
        <Con id="3742" src="13" tgt="1927" wght="0.21500930424383427" />
        <Con id="3769" src="2079" tgt="17" wght="-0.051349592009271028" />
        <Con id="3774" src="682" tgt="18" wght="1.6989034335756195" />
        <Con id="3780" src="14" tgt="3779" wght="3.4835291354601754" />
        <Con id="3781" src="3779" tgt="682" wght="4.2776975049153547" />
        <Con id="3782" src="4" tgt="20" wght="-4.3845273192719612" />
        <Con id="3811" src="3809" tgt="20" wght="0.37951415630941154" />
        <Con id="3812" src="1" tgt="2902" wght="-4.7914772427524168" />
        <Con id="3855" src="3507" tgt="3809" wght="3.8797987582037674" />
        <Con id="3867" src="3651" tgt="3606" wght="-4.9905198953082159" />
        <Con id="3882" src="13" tgt="3881" wght="1.058793818441059" />
        <Con id="3883" src="3881" tgt="819" wght="2.6537845966301372" />
        <Con id="3904" src="1" tgt="27" wght="-1.8459408801251154" />
        <Con id="3931" src="3881" tgt="2131" wght="1.5745260927101827" />
        <Con id="3933" src="4" tgt="2902" wght="3.6380563583225012" />
        <Con id="3953" src="2276" tgt="2394" wght="0.43368706338093937" />
        <Con id="3959" src="408" tgt="3958" wght="2.1232477741042417" />
        <Con id="3960" src="3958" tgt="22" wght="5" />
        <Con id="4009" src="7" tgt="25" wght="0.24942738469690084" />
        <Con id="4024" src="8" tgt="4023" wght="2.81291207801028" />
        <Con id="4025" src="4023" tgt="1747" wght="4.1333225848517712" />
        <Con id="4029" src="2359" tgt="4023" wght="-2.4395757150750166" />
        <Con id="4112" src="8" tgt="4111" wght="4.6533701977498456" />
        <Con id="4113" src="4111" tgt="3809" wght="5" />
        <Con id="4122" src="3958" tgt="559" wght="-5" />
        <Con id="4124" src="7" tgt="3779" wght="2.7170257763832621" />
        <Con id="4129" src="3809" tgt="27" wght="-2.2637139425623536" />
        <Con id="4153" src="3881" tgt="17" wght="1.7367908234050531" />
        <Con id="4188" src="408" tgt="21" wght="1.5529670144951422" />
        <Con id="4202" src="3809" tgt="21" wght="-4.5068687340244651" />
        <Con id="4209" src="14" tgt="2359" wght="-0.54019435731257737" />
        <Con id="4226" src="0" tgt="819" wght="2.5209100426984605" />
        <Con id="4240" src="11" tgt="3606" wght="3.9264715061584203" />
        <Con id="4367" src="1889" tgt="3507" wght="-3.6304043512791395" />
        <Con id="4465" src="1927" tgt="26" wght="-0.5586602079328884" />
        <Con id="4467" src="11" tgt="21" wght="1.4844640513703371" />
        <Con id="4507" src="12" tgt="3507" wght="-3.690605778247118" />
        <Con id="4511" src="0" tgt="4510" wght="1.6508452324859879" />
        <Con id="4512" src="4510" tgt="2394" wght="5" />
        <Con id="4524" src="3" tgt="1747" wght="-0.86521091870963573" />
        <Con id="4526" src="2131" tgt="4525" wght="-2.8297835774719715" />
        <Con id="4527" src="4525" tgt="2276" wght="5" />
        <Con id="4531" src="9" tgt="25" wght="-1.5033765335087061" />
        <Con id="4561" src="3" tgt="4560" wght="5" />
        <Con id="4562" src="4560" tgt="22" wght="5" />
        <Con id="4563" src="2276" tgt="16" wght="0.25298498042286677" />
        <Con id="4586" src="4" tgt="2276" wght="-1.951532900792514" />
        <Con id="4659" src="1788" tgt="26" wght="1.0192551241176571" />
        <Con id="4679" src="408" tgt="3507" wght="-3.403347797894833" />
        <Con id="4759" src="4023" tgt="4758" wght="-0.60776580590754747" />
        <Con id="4760" src="4758" tgt="19" wght="4.9814506195939376" />
        <Con id="4784" src="3779" tgt="1747" wght="-0.79740620218217373" />
        <Con id="4802" src="12" tgt="2131" wght="0.99761810153722763" />
        <Con id="4805" src="3606" tgt="4804" wght="3.4506918178194561" />
        <Con id="4806" src="4804" tgt="559" wght="-4.1888284916058183" />
        <Con id="4832" src="13" tgt="4831" wght="2.926950918442043" />
        <Con id="4833" src="4831" tgt="20" wght="5" />
        <Con id="4851" src="3651" tgt="1747" wght="-0.57897731196135283" />
        <Con id="4853" src="3166" tgt="15" wght="-3.3853342995337465" />
      </Connections>
    </Network>
    <Network id="124633" birthGen="162" fitness="1">
      <Nodes>
        <Node type="bias" id="0" />
        <Node type="in" id="1" />
        <Node type="in" id="2" />
        <Node type="in" id="3" />
        <Node type="in" id="4" />
        <Node type="in" id="5" />
        <Node type="in" id="6" />
        <Node type="in" id="7" />
        <Node type="in" id="8" />
        <Node type="in" id="9" />
        <Node type="in" id="10" />
        <Node type="in" id="11" />
        <Node type="in" id="12" />
        <Node type="in" id="13" />
        <Node type="in" id="14" />
        <Node type="out" id="15" />
        <Node type="out" id="16" />
        <Node type="out" id="17" />
        <Node type="out" id="18" />
        <Node type="out" id="19" />
        <Node type="out" id="20" />
        <Node type="out" id="21" />
        <Node type="out" id="22" />
        <Node type="out" id="23" />
        <Node type="out" id="24" />
        <Node type="out" id="25" />
        <Node type="out" id="26" />
        <Node type="out" id="27" />
        <Node type="hid" id="408" />
        <Node type="hid" id="559" />
        <Node type="hid" id="682" />
        <Node type="hid" id="819" />
        <Node type="hid" id="1390" />
        <Node type="hid" id="1747" />
        <Node type="hid" id="1788" />
        <Node type="hid" id="1889" />
        <Node type="hid" id="1927" />
        <Node type="hid" id="2072" />
        <Node type="hid" id="2079" />
        <Node type="hid" id="2131" />
        <Node type="hid" id="2276" />
        <Node type="hid" id="2359" />
        <Node type="hid" id="2394" />
        <Node type="hid" id="2692" />
        <Node type="hid" id="2902" />
        <Node type="hid" id="3166" />
        <Node type="hid" id="3237" />
        <Node type="hid" id="3507" />
        <Node type="hid" id="3606" />
        <Node type="hid" id="3651" />
        <Node type="hid" id="3779" />
        <Node type="hid" id="3809" />
        <Node type="hid" id="3881" />
        <Node type="hid" id="3958" />
        <Node type="hid" id="4023" />
        <Node type="hid" id="4111" />
        <Node type="hid" id="4510" />
        <Node type="hid" id="4525" />
        <Node type="hid" id="4568" />
      </Nodes>
      <Connections>
        <Con id="47" src="1" tgt="21" wght="-1.206203419567252" />
        <Con id="89" src="4" tgt="24" wght="2.3817565776277423" />
        <Con id="97" src="5" tgt="19" wght="-0.11997190530383078" />
        <Con id="161" src="10" tgt="18" wght="-3.115193147111027" />
        <Con id="268" src="8" tgt="19" wght="-0.90287724909888745" />
        <Con id="290" src="9" tgt="16" wght="-1.1136023415280474" />
        <Con id="302" src="2" tgt="23" wght="2.366470823746551" />
        <Con id="328" src="3" tgt="15" wght="-5" />
        <Con id="333" src="10" tgt="26" wght="0.5691862816725316" />
        <Con id="337" src="7" tgt="18" wght="1.6750652157825321" />
        <Con id="345" src="10" tgt="20" wght="0.86604156316357406" />
        <Con id="410" src="408" tgt="20" wght="-0.26549259200692177" />
        <Con id="417" src="13" tgt="27" wght="-0.57440454233766136" />
        <Con id="419" src="2" tgt="27" wght="2.3880694728786276" />
        <Con id="457" src="14" tgt="15" wght="2.4386305659661645" />
        <Con id="519" src="6" tgt="19" wght="2.5058197066838015" />
        <Con id="534" src="0" tgt="17" wght="3.0539979151533743" />
        <Con id="560" src="1" tgt="559" wght="-3.0429495320760704" />
        <Con id="604" src="8" tgt="18" wght="-5" />
        <Con id="619" src="10" tgt="15" wght="5" />
        <Con id="628" src="12" tgt="18" wght="3.0043618392452371" />
        <Con id="667" src="7" tgt="24" wght="2.7886826758755374" />
        <Con id="683" src="559" tgt="682" wght="0.91437192390681332" />
        <Con id="684" src="682" tgt="26" wght="4.637039384881569" />
        <Con id="693" src="3" tgt="24" wght="-4.3370845903000825" />
        <Con id="703" src="14" tgt="559" wght="-0.011069432159684478" />
        <Con id="726" src="8" tgt="559" wght="0.72206815745627739" />
        <Con id="815" src="3" tgt="21" wght="-4.3290330386383111" />
        <Con id="821" src="819" tgt="19" wght="5" />
        <Con id="845" src="8" tgt="408" wght="-0.76303278212946213" />
        <Con id="852" src="8" tgt="24" wght="2.4807518077895456" />
        <Con id="856" src="14" tgt="19" wght="-4.3407662277073138" />
        <Con id="872" src="819" tgt="18" wght="-1.43832390872021" />
        <Con id="929" src="12" tgt="21" wght="-3.936938511325895" />
        <Con id="949" src="6" tgt="25" wght="-0.32633505338473784" />
        <Con id="983" src="682" tgt="23" wght="-3.5758226855241309" />
        <Con id="1056" src="7" tgt="19" wght="-4.5499503533232888" />
        <Con id="1095" src="6" tgt="16" wght="0.99326121878866358" />
        <Con id="1107" src="9" tgt="17" wght="0.62436362672642454" />
        <Con id="1151" src="4" tgt="21" wght="3.8228745963472983" />
        <Con id="1160" src="14" tgt="17" wght="3.942431861268048" />
        <Con id="1293" src="8" tgt="682" wght="-3.8896608552650127" />
        <Con id="1373" src="5" tgt="25" wght="4.4710310368942618" />
        <Con id="1391" src="408" tgt="1390" wght="2.3682066637466752" />
        <Con id="1392" src="1390" tgt="23" wght="-1.1351657929367334" />
        <Con id="1422" src="408" tgt="559" wght="-3.6371723301511549" />
        <Con id="1427" src="11" tgt="819" wght="2.0288270153105259" />
        <Con id="1455" src="9" tgt="27" wght="2.7940008625953414" />
        <Con id="1473" src="1390" tgt="682" wght="-0.1811658223734457" />
        <Con id="1475" src="12" tgt="25" wght="1.5098085805577979" />
        <Con id="1479" src="1" tgt="819" wght="5" />
        <Con id="1490" src="3" tgt="20" wght="3.2205613756082538" />
        <Con id="1494" src="8" tgt="27" wght="2.4862533858232005" />
        <Con id="1495" src="559" tgt="15" wght="-1.7350367056954679" />
        <Con id="1499" src="13" tgt="25" wght="5" />
        <Con id="1514" src="6" tgt="682" wght="-4.5477033872157335" />
        <Con id="1515" src="9" tgt="24" wght="-0.69428291479183568" />
        <Con id="1516" src="819" tgt="15" wght="1.9209300739169177" />
        <Con id="1534" src="3" tgt="22" wght="4.9815459789713108" />
        <Con id="1551" src="13" tgt="16" wght="-0.91317383638293492" />
        <Con id="1556" src="11" tgt="15" wght="2.1086064031319096" />
        <Con id="1557" src="6" tgt="23" wght="1.2402226896301849" />
        <Con id="1562" src="8" tgt="23" wght="1.2531481119994508" />
        <Con id="1572" src="4" tgt="408" wght="-0.99595084912978638" />
        <Con id="1574" src="559" tgt="26" wght="1.3205757439805204" />
        <Con id="1577" src="7" tgt="819" wght="3.0724909534211284" />
        <Con id="1579" src="11" tgt="19" wght="1.4457665190445004" />
        <Con id="1581" src="9" tgt="682" wght="0.72437718800489748" />
        <Con id="1582" src="7" tgt="23" wght="0.40076986022899419" />
        <Con id="1595" src="5" tgt="21" wght="3.7218391946806233" />
        <Con id="1604" src="1" tgt="26" wght="4.50497942826084" />
        <Con id="1616" src="408" tgt="16" wght="-0.26163179320401975" />
        <Con id="1618" src="2" tgt="408" wght="-0.6922497999595365" />
        <Con id="1660" src="819" tgt="24" wght="-1.6898334339697878" />
        <Con id="1661" src="7" tgt="682" wght="-0.18970379879140647" />
        <Con id="1691" src="10" tgt="25" wght="2.9391175834462047" />
        <Con id="1718" src="11" tgt="20" wght="2.401098331787372" />
        <Con id="1725" src="7" tgt="408" wght="2.5912039389494339" />
        <Con id="1741" src="5" tgt="1390" wght="5" />
        <Con id="1744" src="1390" tgt="24" wght="-3.236980623402153" />
        <Con id="1748" src="13" tgt="1747" wght="5" />
        <Con id="1749" src="1747" tgt="819" wght="-3.0451281377967243" />
        <Con id="1760" src="408" tgt="15" wght="-0.4195402075526915" />
        <Con id="1767" src="2" tgt="16" wght="-0.77179450839475" />
        <Con id="1768" src="819" tgt="25" wght="-3.75357847962446" />
        <Con id="1789" src="2" tgt="1788" wght="0.29402249810757242" />
        <Con id="1790" src="1788" tgt="22" wght="-1.2839103780367094" />
        <Con id="1822" src="4" tgt="23" wght="-2.5530717290921321" />
        <Con id="1832" src="9" tgt="1747" wght="0.023784934212859373" />
        <Con id="1833" src="0" tgt="22" wght="4.8389603486863191" />
        <Con id="1840" src="682" tgt="1747" wght="-1.3961967904036008" />
        <Con id="1845" src="9" tgt="408" wght="-2.3900560139302" />
        <Con id="1864" src="1788" tgt="819" wght="0.2614355546941281" />
        <Con id="1865" src="1747" tgt="25" wght="-1.3900162209122005" />
        <Con id="1879" src="1788" tgt="17" wght="0.16386618372052908" />
        <Con id="1890" src="14" tgt="1889" wght="4.9179619597271085" />
        <Con id="1891" src="1889" tgt="408" wght="2.0840183195646418" />
        <Con id="1913" src="1788" tgt="559" wght="0.019814929725876396" />
        <Con id="1928" src="2" tgt="1927" wght="-2.0803166301832547" />
        <Con id="1929" src="1927" tgt="21" wght="1.9806529880279222" />
        <Con id="1942" src="1" tgt="1747" wght="4.9912542989477515" />
        <Con id="1943" src="4" tgt="1747" wght="-3.6415395978838205" />
        <Con id="1976" src="3" tgt="1788" wght="-4.0764708887616354" />
        <Con id="1992" src="1747" tgt="15" wght="-1.0990527133547938" />
        <Con id="2007" src="1889" tgt="1747" wght="-1.1535631747161719" />
        <Con id="2026" src="1747" tgt="1927" wght="-3.9226307445461783" />
        <Con id="2054" src="1788" tgt="16" wght="2.6450389487064663" />
        <Con id="2074" src="2072" tgt="408" wght="-0.060638754426485343" />
        <Con id="2080" src="2" tgt="2079" wght="-0.75494779811265711" />
        <Con id="2081" src="2079" tgt="19" wght="5" />
        <Con id="2095" src="13" tgt="17" wght="-2.5687880465211657" />
        <Con id="2103" src="6" tgt="17" wght="-1.8027307963007149" />
        <Con id="2117" src="7" tgt="1889" wght="-1.2861456248395546" />
        <Con id="2132" src="7" tgt="2131" wght="-1.4371449676690715" />
        <Con id="2133" src="2131" tgt="559" wght="2.4510134371890024" />
        <Con id="2157" src="2131" tgt="819" wght="2.4406780069693923" />
        <Con id="2226" src="4" tgt="1927" wght="1.3381332514097382" />
        <Con id="2234" src="7" tgt="1927" wght="2.7852163319664633" />
        <Con id="2237" src="2131" tgt="23" wght="-4.7268896324608045" />
        <Con id="2277" src="2" tgt="2276" wght="-1.7191330127164506" />
        <Con id="2278" src="2276" tgt="18" wght="-5" />
        <Con id="2309" src="8" tgt="1889" wght="-3.9682420410587973" />
        <Con id="2330" src="3" tgt="2079" wght="-1.0286151409030864" />
        <Con id="2343" src="2276" tgt="20" wght="1.6790625919716149" />
        <Con id="2360" src="0" tgt="2359" wght="1.4091335591593197" />
        <Con id="2362" src="2359" tgt="20" wght="-4.9690642338025039" />
        <Con id="2381" src="1889" tgt="21" wght="-0.98664456180900406" />
        <Con id="2384" src="2079" tgt="15" wght="-2.4279280168954069" />
        <Con id="2386" src="1927" tgt="27" wght="-1.7154481938028658" />
        <Con id="2395" src="6" tgt="2394" wght="2.5587261377733457" />
        <Con id="2396" src="2394" tgt="2072" wght="5" />
        <Con id="2406" src="2072" tgt="20" wght="-1.3697711424902081" />
        <Con id="2420" src="1390" tgt="2359" wght="-4.962665744963795" />
        <Con id="2421" src="2359" tgt="1747" wght="0.18422730276720212" />
        <Con id="2436" src="2276" tgt="24" wght="-2.3618346046750887" />
        <Con id="2438" src="2276" tgt="17" wght="-2.60094518261634" />
        <Con id="2445" src="7" tgt="21" wght="4.2535368558410234" />
        <Con id="2472" src="2072" tgt="1889" wght="2.7785513457255711" />
        <Con id="2475" src="1390" tgt="1747" wght="2.5237536834073384" />
        <Con id="2523" src="2079" tgt="2072" wght="-5" />
        <Con id="2527" src="2131" tgt="1747" wght="0.14316972345113754" />
        <Con id="2681" src="5" tgt="2394" wght="-0.63403794906650635" />
        <Con id="2690" src="12" tgt="1788" wght="-4.9837951079829024" />
        <Con id="2693" src="7" tgt="2692" wght="3.9400002260046265" />
        <Con id="2694" src="2692" tgt="22" wght="-5" />
        <Con id="2713" src="1788" tgt="2359" wght="-5" />
        <Con id="2761" src="2072" tgt="2359" wght="2.9967199203359307" />
        <Con id="2804" src="2692" tgt="2359" wght="-5" />
        <Con id="2867" src="2131" tgt="408" wght="-4.0980150538770053" />
        <Con id="2904" src="2902" tgt="408" wght="-0.77131468403648284" />
        <Con id="2938" src="2276" tgt="22" wght="-1.3160622766338852" />
        <Con id="2966" src="1927" tgt="22" wght="4.5810503746597719" />
        <Con id="3033" src="408" tgt="2692" wght="-2.9299598059402592" />
        <Con id="3060" src="2359" tgt="17" wght="-0.73237361577804627" />
        <Con id="3167" src="13" tgt="3166" wght="-0.59373201039820422" />
        <Con id="3168" src="3166" tgt="2902" wght="-4.8205301258713007" />
        <Con id="3176" src="4" tgt="2394" wght="-2.17752477619797" />
        <Con id="3238" src="559" tgt="3237" wght="-2.6814399426802993" />
        <Con id="3239" src="3237" tgt="22" wght="0.27390561517176926" />
        <Con id="3401" src="408" tgt="3237" wght="-2.4585888488218188" />
        <Con id="3425" src="3166" tgt="2692" wght="2.8956492492033159" />
        <Con id="3484" src="2692" tgt="21" wght="0.99353530618362162" />
        <Con id="3508" src="2359" tgt="3507" wght="3.1950006507370317" />
        <Con id="3509" src="3507" tgt="25" wght="4.9447429920395969" />
        <Con id="3533" src="14" tgt="24" wght="-4.5101589936601805" />
        <Con id="3538" src="6" tgt="18" wght="-3.6031644407472623" />
        <Con id="3548" src="11" tgt="2359" wght="4.8861923458064869" />
        <Con id="3580" src="13" tgt="2692" wght="2.6224643208835641" />
        <Con id="3594" src="5" tgt="2692" wght="0.7110159398334075" />
        <Con id="3607" src="3166" tgt="3606" wght="2.8168348623807993" />
        <Con id="3608" src="3606" tgt="559" wght="4.4713888850556405" />
        <Con id="3612" src="9" tgt="23" wght="-4.4219583957796509" />
        <Con id="3631" src="2079" tgt="25" wght="-2.6167347886621024" />
        <Con id="3652" src="1390" tgt="3651" wght="-0.97913165287799608" />
        <Con id="3653" src="3651" tgt="25" wght="3.0239268129990662" />
        <Con id="3659" src="5" tgt="1927" wght="-0.042009508195421708" />
        <Con id="3660" src="2394" tgt="2692" wght="0.014574006613496573" />
        <Con id="3687" src="3166" tgt="25" wght="-0.06341400992258614" />
        <Con id="3710" src="2359" tgt="18" wght="0.12349671113134442" />
        <Con id="3721" src="2079" tgt="2692" wght="-0.87130101112007086" />
        <Con id="3728" src="1927" tgt="819" wght="2.2858556639028498" />
        <Con id="3742" src="13" tgt="1927" wght="0.22655890798076128" />
        <Con id="3769" src="2079" tgt="17" wght="0.62230491684389333" />
        <Con id="3774" src="682" tgt="18" wght="1.7682841305046297" />
        <Con id="3780" src="14" tgt="3779" wght="4.5467230456814285" />
        <Con id="3781" src="3779" tgt="682" wght="4.2951828008517623" />
        <Con id="3782" src="4" tgt="20" wght="-3.1411183147487907" />
        <Con id="3811" src="3809" tgt="20" wght="-0.062931881287330835" />
        <Con id="3812" src="1" tgt="2902" wght="-4.7914772427524168" />
        <Con id="3855" src="3507" tgt="3809" wght="3.0574016403255833" />
        <Con id="3867" src="3651" tgt="3606" wght="-5" />
        <Con id="3872" src="13" tgt="20" wght="2.8154049334065046" />
        <Con id="3882" src="13" tgt="3881" wght="0.52257609764537383" />
        <Con id="3883" src="3881" tgt="819" wght="2.9605989896290739" />
        <Con id="3904" src="1" tgt="27" wght="-4.8779129695571584" />
        <Con id="3931" src="3881" tgt="2131" wght="1.5796123258769512" />
        <Con id="3933" src="4" tgt="2902" wght="3.6298274729249123" />
        <Con id="3953" src="2276" tgt="2394" wght="0.43368706338093937" />
        <Con id="3959" src="408" tgt="3958" wght="1.6970311128564146" />
        <Con id="3960" src="3958" tgt="22" wght="4.8292175732528309" />
        <Con id="4009" src="7" tgt="25" wght="2.6489898784064256" />
        <Con id="4024" src="8" tgt="4023" wght="2.8081136457368383" />
        <Con id="4025" src="4023" tgt="1747" wght="5" />
        <Con id="4029" src="2359" tgt="4023" wght="-2.443693685046143" />
        <Con id="4112" src="8" tgt="4111" wght="5" />
        <Con id="4113" src="4111" tgt="3809" wght="5" />
        <Con id="4122" src="3958" tgt="559" wght="-5" />
        <Con id="4124" src="7" tgt="3779" wght="2.9732486493197574" />
        <Con id="4129" src="3809" tgt="27" wght="-4.8048342542619267" />
        <Con id="4153" src="3881" tgt="17" wght="1.7210892065372898" />
        <Con id="4188" src="408" tgt="21" wght="3.391912215207137" />
        <Con id="4202" src="3809" tgt="21" wght="-4.4844484886841522" />
        <Con id="4209" src="14" tgt="2359" wght="-0.3698631032477192" />
        <Con id="4226" src="0" tgt="819" wght="1.4167945402911584" />
        <Con id="4240" src="11" tgt="3606" wght="3.785896042632432" />
        <Con id="4337" src="4023" tgt="19" wght="-0.60776580590754747" />
        <Con id="4367" src="1889" tgt="3507" wght="-3.6304043512791395" />
        <Con id="4465" src="1927" tgt="26" wght="-1.0370943960529433" />
        <Con id="4467" src="11" tgt="21" wght="2.9477872972373467" />
        <Con id="4511" src="0" tgt="4510" wght="0.46000117011217057" />
        <Con id="4512" src="4510" tgt="2394" wght="5" />
        <Con id="4526" src="2131" tgt="4525" wght="-2.4826023344495893" />
        <Con id="4527" src="4525" tgt="2276" wght="4.5109997880201336" />
        <Con id="4531" src="9" tgt="25" wght="-1.5216260543093085" />
        <Con id="4554" src="9" tgt="4111" wght="-3.3053621771020358" />
        <Con id="4569" src="12" tgt="4568" wght="2.7504878398030996" />
        <Con id="4570" src="4568" tgt="20" wght="4.776262316136024" />
        <Con id="4588" src="2276" tgt="1889" wght="-2.8620464215055108" />
        <Con id="4591" src="4510" tgt="3809" wght="-3.627125412706862" />
        <Con id="4650" src="819" tgt="4568" wght="-4.7701194789260626" />
        <Con id="4788" src="2072" tgt="3809" wght="-0.26258653495460749" />
        <Con id="4839" src="9" tgt="3237" wght="-0.23256839718669653" />
      </Connections>
    </Network>
    <Network id="124733" birthGen="164" fitness="1.25">
      <Nodes>
        <Node type="bias" id="0" />
        <Node type="in" id="1" />
        <Node type="in" id="2" />
        <Node type="in" id="3" />
        <Node type="in" id="4" />
        <Node type="in" id="5" />
        <Node type="in" id="6" />
        <Node type="in" id="7" />
        <Node type="in" id="8" />
        <Node type="in" id="9" />
        <Node type="in" id="10" />
        <Node type="in" id="11" />
        <Node type="in" id="12" />
        <Node type="in" id="13" />
        <Node type="in" id="14" />
        <Node type="out" id="15" />
        <Node type="out" id="16" />
        <Node type="out" id="17" />
        <Node type="out" id="18" />
        <Node type="out" id="19" />
        <Node type="out" id="20" />
        <Node type="out" id="21" />
        <Node type="out" id="22" />
        <Node type="out" id="23" />
        <Node type="out" id="24" />
        <Node type="out" id="25" />
        <Node type="out" id="26" />
        <Node type="out" id="27" />
        <Node type="hid" id="408" />
        <Node type="hid" id="559" />
        <Node type="hid" id="682" />
        <Node type="hid" id="819" />
        <Node type="hid" id="1390" />
        <Node type="hid" id="1747" />
        <Node type="hid" id="1788" />
        <Node type="hid" id="1889" />
        <Node type="hid" id="1927" />
        <Node type="hid" id="2072" />
        <Node type="hid" id="2079" />
        <Node type="hid" id="2131" />
        <Node type="hid" id="2276" />
        <Node type="hid" id="2359" />
        <Node type="hid" id="2394" />
        <Node type="hid" id="2692" />
        <Node type="hid" id="2902" />
        <Node type="hid" id="3166" />
        <Node type="hid" id="3237" />
        <Node type="hid" id="3507" />
        <Node type="hid" id="3606" />
        <Node type="hid" id="3651" />
        <Node type="hid" id="3779" />
        <Node type="hid" id="3809" />
        <Node type="hid" id="3881" />
        <Node type="hid" id="3958" />
        <Node type="hid" id="4023" />
        <Node type="hid" id="4111" />
        <Node type="hid" id="4510" />
        <Node type="hid" id="4525" />
      </Nodes>
      <Connections>
        <Con id="47" src="1" tgt="21" wght="-0.54886718819381386" />
        <Con id="89" src="4" tgt="24" wght="-2.0727599691599607" />
        <Con id="97" src="5" tgt="19" wght="-0.096058493175531723" />
        <Con id="161" src="10" tgt="18" wght="-3.1294357465880194" />
        <Con id="268" src="8" tgt="19" wght="-2.8047516078954846" />
        <Con id="290" src="9" tgt="16" wght="-1.157074709102575" />
        <Con id="302" src="2" tgt="23" wght="0.44517686910348853" />
        <Con id="315" src="12" tgt="20" wght="-2.7718798698916496" />
        <Con id="328" src="3" tgt="15" wght="-5" />
        <Con id="333" src="10" tgt="26" wght="0.34060719874624223" />
        <Con id="337" src="7" tgt="18" wght="-0.99478043852955433" />
        <Con id="345" src="10" tgt="20" wght="-1.4013947198110996" />
        <Con id="410" src="408" tgt="20" wght="1.6506782997425931" />
        <Con id="417" src="13" tgt="27" wght="1.0234958159315175" />
        <Con id="419" src="2" tgt="27" wght="2.7173939761820622" />
        <Con id="457" src="14" tgt="15" wght="2.2736517451591354" />
        <Con id="519" src="6" tgt="19" wght="2.5058197066838015" />
        <Con id="534" src="0" tgt="17" wght="3.0477464762101114" />
        <Con id="560" src="1" tgt="559" wght="-2.1283217144932371" />
        <Con id="604" src="8" tgt="18" wght="-4.9612110274726255" />
        <Con id="619" src="10" tgt="15" wght="5" />
        <Con id="628" src="12" tgt="18" wght="3.0069410043206397" />
        <Con id="667" src="7" tgt="24" wght="4.7675927530459781" />
        <Con id="683" src="559" tgt="682" wght="1.8805335415527225" />
        <Con id="684" src="682" tgt="26" wght="2.7656745322964316" />
        <Con id="693" src="3" tgt="24" wght="-4.3370845903000825" />
        <Con id="703" src="14" tgt="559" wght="-0.47267148427413708" />
        <Con id="726" src="8" tgt="559" wght="-0.37948171078832832" />
        <Con id="815" src="3" tgt="21" wght="-3.4862392449849366" />
        <Con id="821" src="819" tgt="19" wght="4.0637601539492607" />
        <Con id="845" src="8" tgt="408" wght="1.218009334170955" />
        <Con id="852" src="8" tgt="24" wght="0.87986883241683245" />
        <Con id="856" src="14" tgt="19" wght="-5" />
        <Con id="872" src="819" tgt="18" wght="-1.7450726440101563" />
        <Con id="929" src="12" tgt="21" wght="-5" />
        <Con id="949" src="6" tgt="25" wght="-0.53430092508293958" />
        <Con id="983" src="682" tgt="23" wght="-3.0538421073800368" />
        <Con id="1056" src="7" tgt="19" wght="-4.3151493544044195" />
        <Con id="1095" src="6" tgt="16" wght="2.4442183946164775" />
        <Con id="1107" src="9" tgt="17" wght="0.62436362672642454" />
        <Con id="1151" src="4" tgt="21" wght="3.5136961554608725" />
        <Con id="1160" src="14" tgt="17" wght="4.20607573133854" />
        <Con id="1293" src="8" tgt="682" wght="-3.8770306330765139" />
        <Con id="1373" src="5" tgt="25" wght="4.5618465945194551" />
        <Con id="1391" src="408" tgt="1390" wght="2.3682066637466752" />
        <Con id="1392" src="1390" tgt="23" wght="-1.1026078574661673" />
        <Con id="1422" src="408" tgt="559" wght="-4.8328750780071026" />
        <Con id="1427" src="11" tgt="819" wght="-0.22097903291628379" />
        <Con id="1455" src="9" tgt="27" wght="2.8513978594883547" />
        <Con id="1473" src="1390" tgt="682" wght="-2.0096156780103018" />
        <Con id="1475" src="12" tgt="25" wght="1.1735477677666142" />
        <Con id="1479" src="1" tgt="819" wght="3.3978236559778452" />
        <Con id="1490" src="3" tgt="20" wght="-2.9362219478935003" />
        <Con id="1494" src="8" tgt="27" wght="0.92308345815617443" />
        <Con id="1495" src="559" tgt="15" wght="-1.1422429558541327" />
        <Con id="1499" src="13" tgt="25" wght="3.0839759180053234" />
        <Con id="1514" src="6" tgt="682" wght="-4.0376742757348882" />
        <Con id="1515" src="9" tgt="24" wght="-0.69428291479183568" />
        <Con id="1516" src="819" tgt="15" wght="1.2703719704560859" />
        <Con id="1534" src="3" tgt="22" wght="4.9910748336125481" />
        <Con id="1551" src="13" tgt="16" wght="-0.91207846790274472" />
        <Con id="1556" src="11" tgt="15" wght="2.1214817427213593" />
        <Con id="1557" src="6" tgt="23" wght="1.2783454928180797" />
        <Con id="1562" src="8" tgt="23" wght="1.2531481119994508" />
        <Con id="1572" src="4" tgt="408" wght="-0.99595084912978638" />
        <Con id="1574" src="559" tgt="26" wght="-1.9293279811244537" />
        <Con id="1577" src="7" tgt="819" wght="3.2083284305353157" />
        <Con id="1579" src="11" tgt="19" wght="0.4536636421832172" />
        <Con id="1581" src="9" tgt="682" wght="3.3039437276037762" />
        <Con id="1582" src="7" tgt="23" wght="0.1639365307929003" />
        <Con id="1595" src="5" tgt="21" wght="1.820987177919799" />
        <Con id="1604" src="1" tgt="26" wght="4.9342316061639639" />
        <Con id="1616" src="408" tgt="16" wght="-0.26163179320401975" />
        <Con id="1618" src="2" tgt="408" wght="1.2487140576565432" />
        <Con id="1660" src="819" tgt="24" wght="-3.609092035330832" />
        <Con id="1661" src="7" tgt="682" wght="-0.1581816548682895" />
        <Con id="1691" src="10" tgt="25" wght="-0.77900763591812128" />
        <Con id="1718" src="11" tgt="20" wght="3.3754743100885176" />
        <Con id="1725" src="7" tgt="408" wght="3.0398576325674331" />
        <Con id="1741" src="5" tgt="1390" wght="5" />
        <Con id="1744" src="1390" tgt="24" wght="-5" />
        <Con id="1748" src="13" tgt="1747" wght="3.4956730333494654" />
        <Con id="1749" src="1747" tgt="819" wght="-1.9108719488472174" />
        <Con id="1760" src="408" tgt="15" wght="-0.42317751038749096" />
        <Con id="1767" src="2" tgt="16" wght="-2.9105377476662397" />
        <Con id="1768" src="819" tgt="25" wght="-3.7784435005215511" />
        <Con id="1789" src="2" tgt="1788" wght="-1.2028717792058046" />
        <Con id="1790" src="1788" tgt="22" wght="-0.76936682657958289" />
        <Con id="1822" src="4" tgt="23" wght="1.0028720859607754" />
        <Con id="1832" src="9" tgt="1747" wght="0.042126829639372643" />
        <Con id="1833" src="0" tgt="22" wght="4.8389603486863191" />
        <Con id="1840" src="682" tgt="1747" wght="-2.7597946497027963" />
        <Con id="1845" src="9" tgt="408" wght="-2.0701865467944929" />
        <Con id="1864" src="1788" tgt="819" wght="0.32940705066543946" />
        <Con id="1865" src="1747" tgt="25" wght="0.44858508862404967" />
        <Con id="1879" src="1788" tgt="17" wght="-3.7627119573071695" />
        <Con id="1890" src="14" tgt="1889" wght="4.8794863045736232" />
        <Con id="1891" src="1889" tgt="408" wght="2.1020212962786413" />
        <Con id="1913" src="1788" tgt="559" wght="1.1948441275118591" />
        <Con id="1928" src="2" tgt="1927" wght="-3.0369855140439261" />
        <Con id="1929" src="1927" tgt="21" wght="4.7355790762230754" />
        <Con id="1942" src="1" tgt="1747" wght="4.9912542989477515" />
        <Con id="1943" src="4" tgt="1747" wght="1.5932352785048314" />
        <Con id="1976" src="3" tgt="1788" wght="-2.9566330310918456" />
        <Con id="1992" src="1747" tgt="15" wght="-1.0898439952758185" />
        <Con id="2007" src="1889" tgt="1747" wght="-1.1535631747161719" />
        <Con id="2026" src="1747" tgt="1927" wght="-2.6124078271509692" />
        <Con id="2054" src="1788" tgt="16" wght="2.6854636203297981" />
        <Con id="2074" src="2072" tgt="408" wght="-0.073746965718882229" />
        <Con id="2080" src="2" tgt="2079" wght="-0.30200848651161766" />
        <Con id="2081" src="2079" tgt="19" wght="3.309914852689853" />
        <Con id="2095" src="13" tgt="17" wght="1.8852284224703908" />
        <Con id="2103" src="6" tgt="17" wght="-1.8027307963007149" />
        <Con id="2117" src="7" tgt="1889" wght="-1.2845448012089151" />
        <Con id="2132" src="7" tgt="2131" wght="-2.5130819567222273" />
        <Con id="2133" src="2131" tgt="559" wght="0.80706585764445538" />
        <Con id="2157" src="2131" tgt="819" wght="2.4068914763603582" />
        <Con id="2226" src="4" tgt="1927" wght="-3.8670280820736136" />
        <Con id="2234" src="7" tgt="1927" wght="1.265435211317695" />
        <Con id="2237" src="2131" tgt="23" wght="-4.7199147922913456" />
        <Con id="2277" src="2" tgt="2276" wght="-2.9136040363987492" />
        <Con id="2278" src="2276" tgt="18" wght="-4.6861961431398571" />
        <Con id="2309" src="8" tgt="1889" wght="1.5763476211577654" />
        <Con id="2330" src="3" tgt="2079" wght="0.82060960353795342" />
        <Con id="2343" src="2276" tgt="20" wght="-0.37366787758098208" />
        <Con id="2360" src="0" tgt="2359" wght="3.8994722920402456" />
        <Con id="2362" src="2359" tgt="20" wght="-4.98290948091034" />
        <Con id="2381" src="1889" tgt="21" wght="-0.56763788385792024" />
        <Con id="2384" src="2079" tgt="15" wght="-0.70573185752129763" />
        <Con id="2386" src="1927" tgt="27" wght="-1.6821424260302174" />
        <Con id="2395" src="6" tgt="2394" wght="3.9706991003402861" />
        <Con id="2396" src="2394" tgt="2072" wght="5" />
        <Con id="2406" src="2072" tgt="20" wght="-1.3691135414143676" />
        <Con id="2420" src="1390" tgt="2359" wght="-4.9835332424568044" />
        <Con id="2421" src="2359" tgt="1747" wght="0.18193517874680867" />
        <Con id="2436" src="2276" tgt="24" wght="-1.8011739005382692" />
        <Con id="2438" src="2276" tgt="17" wght="-2.4232502846842943" />
        <Con id="2445" src="7" tgt="21" wght="2.2829778729435786" />
        <Con id="2472" src="2072" tgt="1889" wght="2.7785513457255711" />
        <Con id="2475" src="1390" tgt="1747" wght="-0.47199130008159762" />
        <Con id="2523" src="2079" tgt="2072" wght="-5" />
        <Con id="2527" src="2131" tgt="1747" wght="4.6669553665316315" />
        <Con id="2681" src="5" tgt="2394" wght="-0.3445320762693882" />
        <Con id="2690" src="12" tgt="1788" wght="-1.319663440336255" />
        <Con id="2693" src="7" tgt="2692" wght="3.7921234633742258" />
        <Con id="2694" src="2692" tgt="22" wght="-5" />
        <Con id="2713" src="1788" tgt="2359" wght="-5" />
        <Con id="2761" src="2072" tgt="2359" wght="0.47154764644801617" />
        <Con id="2804" src="2692" tgt="2359" wght="0.51067353740918064" />
        <Con id="2867" src="2131" tgt="408" wght="-3.9467426212503263" />
        <Con id="2904" src="2902" tgt="408" wght="-1.7521724311048632" />
        <Con id="2938" src="2276" tgt="22" wght="5" />
        <Con id="2966" src="1927" tgt="22" wght="3.7691684387075424" />
        <Con id="3033" src="408" tgt="2692" wght="-2.44311026239585" />
        <Con id="3060" src="2359" tgt="17" wght="1.3911978991648335" />
        <Con id="3167" src="13" tgt="3166" wght="-1.9634111995057588" />
        <Con id="3168" src="3166" tgt="2902" wght="-4.8205301258713007" />
        <Con id="3176" src="4" tgt="2394" wght="-0.48131371382623911" />
        <Con id="3238" src="559" tgt="3237" wght="0.74061712144880187" />
        <Con id="3239" src="3237" tgt="22" wght="2.2703713783994317" />
        <Con id="3401" src="408" tgt="3237" wght="-2.4658952880669744" />
        <Con id="3425" src="3166" tgt="2692" wght="2.81524324463715" />
        <Con id="3484" src="2692" tgt="21" wght="1.2194234936117185" />
        <Con id="3508" src="2359" tgt="3507" wght="1.5884788472748435" />
        <Con id="3509" src="3507" tgt="25" wght="5" />
        <Con id="3533" src="14" tgt="24" wght="-5" />
        <Con id="3538" src="6" tgt="18" wght="-4.3317284574732184" />
        <Con id="3548" src="11" tgt="2359" wght="5" />
        <Con id="3580" src="13" tgt="2692" wght="1.4552417481320541" />
        <Con id="3594" src="5" tgt="2692" wght="-3.5245372480833534" />
        <Con id="3607" src="3166" tgt="3606" wght="2.8168348623807993" />
        <Con id="3608" src="3606" tgt="559" wght="3.4506918178194561" />
        <Con id="3612" src="9" tgt="23" wght="-5" />
        <Con id="3631" src="2079" tgt="25" wght="-3.0246808076404124" />
        <Con id="3652" src="1390" tgt="3651" wght="-0.66160888370732318" />
        <Con id="3653" src="3651" tgt="25" wght="3.02579309194872" />
        <Con id="3659" src="5" tgt="1927" wght="-2.557741932623621" />
        <Con id="3660" src="2394" tgt="2692" wght="-0.33518258175657367" />
        <Con id="3687" src="3166" tgt="25" wght="-0.073507136480507107" />
        <Con id="3710" src="2359" tgt="18" wght="0.16501918435096741" />
        <Con id="3721" src="2079" tgt="2692" wght="-0.87130101112007086" />
        <Con id="3728" src="1927" tgt="819" wght="2.0113291822569117" />
        <Con id="3742" src="13" tgt="1927" wght="1.4932336565107107" />
        <Con id="3769" src="2079" tgt="17" wght="-0.037231858935198453" />
        <Con id="3774" src="682" tgt="18" wght="1.676156429229515" />
        <Con id="3780" src="14" tgt="3779" wght="3.9465657039447124" />
        <Con id="3781" src="3779" tgt="682" wght="4.4193300426341979" />
        <Con id="3782" src="4" tgt="20" wght="-4.2507029316697134" />
        <Con id="3811" src="3809" tgt="20" wght="0.31132543427851816" />
        <Con id="3812" src="1" tgt="2902" wght="-4.7914772427524168" />
        <Con id="3855" src="3507" tgt="3809" wght="4.328303108101113" />
        <Con id="3867" src="3651" tgt="3606" wght="-5" />
        <Con id="3872" src="13" tgt="20" wght="2.79924857824215" />
        <Con id="3882" src="13" tgt="3881" wght="1.0490183467168472" />
        <Con id="3883" src="3881" tgt="819" wght="2.4661409415109925" />
        <Con id="3904" src="1" tgt="27" wght="-0.98469617792375519" />
        <Con id="3931" src="3881" tgt="2131" wght="1.5796123258769512" />
        <Con id="3933" src="4" tgt="2902" wght="2.4256579886769565" />
        <Con id="3953" src="2276" tgt="2394" wght="1.3764576142336922" />
        <Con id="3959" src="408" tgt="3958" wght="2.6267895756113608" />
        <Con id="3960" src="3958" tgt="22" wght="3.8868199822520522" />
        <Con id="4009" src="7" tgt="25" wght="3.315898698492918" />
        <Con id="4024" src="8" tgt="4023" wght="2.7745396392339985" />
        <Con id="4025" src="4023" tgt="1747" wght="4.9971590632953582" />
        <Con id="4029" src="2359" tgt="4023" wght="-2.4389291083019065" />
        <Con id="4112" src="8" tgt="4111" wght="3.3588701508786087" />
        <Con id="4113" src="4111" tgt="3809" wght="5" />
        <Con id="4122" src="3958" tgt="559" wght="-5" />
        <Con id="4124" src="7" tgt="3779" wght="1.8100271580914979" />
        <Con id="4129" src="3809" tgt="27" wght="-2.2637139425623536" />
        <Con id="4153" src="3881" tgt="17" wght="0.0024129809292157134" />
        <Con id="4188" src="408" tgt="21" wght="0.19695173862528836" />
        <Con id="4202" src="3809" tgt="21" wght="-0.71140476502478123" />
        <Con id="4209" src="14" tgt="2359" wght="1.4056573528796434" />
        <Con id="4226" src="0" tgt="819" wght="1.4337603397330974" />
        <Con id="4240" src="11" tgt="3606" wght="4.3591751627107342" />
        <Con id="4337" src="4023" tgt="19" wght="-0.59191370429818579" />
        <Con id="4367" src="1889" tgt="3507" wght="-4.5948082722074046" />
        <Con id="4465" src="1927" tgt="26" wght="-2.3696662415847589" />
        <Con id="4467" src="11" tgt="21" wght="1.6844739952429906" />
        <Con id="4511" src="0" tgt="4510" wght="3.43623606870694" />
        <Con id="4512" src="4510" tgt="2394" wght="5" />
        <Con id="4526" src="2131" tgt="4525" wght="-1.5557252630877696" />
        <Con id="4527" src="4525" tgt="2276" wght="5" />
        <Con id="4583" src="2072" tgt="15" wght="-3.5553929209709167" />
        <Con id="4675" src="3507" tgt="18" wght="3.2693457277491689" />
        <Con id="4707" src="2394" tgt="3507" wght="-2.910506346168181" />
        <Con id="4722" src="3507" tgt="15" wght="-4.481869461357638" />
        <Con id="4731" src="3809" tgt="3237" wght="-2.6400156365707517" />
        <Con id="4736" src="2072" tgt="3651" wght="3.3386348467320204" />
        <Con id="4739" src="2131" tgt="2276" wght="4.4519556313753128" />
        <Con id="4752" src="3606" tgt="26" wght="2.2914687064450718" />
        <Con id="4781" src="11" tgt="3237" wght="-0.11012206698275429" />
        <Con id="4859" src="2" tgt="3507" wght="1.1625398276373744" />
      </Connections>
    </Network>
    <Network id="124775" birthGen="165" fitness="0.75">
      <Nodes>
        <Node type="bias" id="0" />
        <Node type="in" id="1" />
        <Node type="in" id="2" />
        <Node type="in" id="3" />
        <Node type="in" id="4" />
        <Node type="in" id="5" />
        <Node type="in" id="6" />
        <Node type="in" id="7" />
        <Node type="in" id="8" />
        <Node type="in" id="9" />
        <Node type="in" id="10" />
        <Node type="in" id="11" />
        <Node type="in" id="12" />
        <Node type="in" id="13" />
        <Node type="in" id="14" />
        <Node type="out" id="15" />
        <Node type="out" id="16" />
        <Node type="out" id="17" />
        <Node type="out" id="18" />
        <Node type="out" id="19" />
        <Node type="out" id="20" />
        <Node type="out" id="21" />
        <Node type="out" id="22" />
        <Node type="out" id="23" />
        <Node type="out" id="24" />
        <Node type="out" id="25" />
        <Node type="out" id="26" />
        <Node type="out" id="27" />
        <Node type="hid" id="408" />
        <Node type="hid" id="559" />
        <Node type="hid" id="682" />
        <Node type="hid" id="819" />
        <Node type="hid" id="1390" />
        <Node type="hid" id="1747" />
        <Node type="hid" id="1788" />
        <Node type="hid" id="1889" />
        <Node type="hid" id="1927" />
        <Node type="hid" id="2072" />
        <Node type="hid" id="2079" />
        <Node type="hid" id="2131" />
        <Node type="hid" id="2276" />
        <Node type="hid" id="2359" />
        <Node type="hid" id="2394" />
        <Node type="hid" id="2692" />
        <Node type="hid" id="2902" />
        <Node type="hid" id="3166" />
        <Node type="hid" id="3237" />
        <Node type="hid" id="3507" />
        <Node type="hid" id="3606" />
        <Node type="hid" id="3651" />
        <Node type="hid" id="3779" />
        <Node type="hid" id="3809" />
        <Node type="hid" id="3881" />
        <Node type="hid" id="3958" />
        <Node type="hid" id="4023" />
        <Node type="hid" id="4111" />
        <Node type="hid" id="4510" />
        <Node type="hid" id="4525" />
        <Node type="hid" id="4568" />
        <Node type="hid" id="4641" />
        <Node type="hid" id="4789" />
      </Nodes>
      <Connections>
        <Con id="47" src="1" tgt="21" wght="-0.28610460135396243" />
        <Con id="89" src="4" tgt="24" wght="4.178335990454217" />
        <Con id="97" src="5" tgt="19" wght="-0.11997190530383078" />
        <Con id="161" src="10" tgt="18" wght="1.7677909648045897" />
        <Con id="268" src="8" tgt="19" wght="-0.90287724909888745" />
        <Con id="290" src="9" tgt="16" wght="-1.5997418019513894" />
        <Con id="302" src="2" tgt="23" wght="1.9104452658344717" />
        <Con id="328" src="3" tgt="15" wght="-4.9656192604238107" />
        <Con id="333" src="10" tgt="26" wght="0.39461977748329474" />
        <Con id="337" src="7" tgt="18" wght="0.43057453012229008" />
        <Con id="345" src="10" tgt="20" wght="-0.26382382970120449" />
        <Con id="410" src="408" tgt="20" wght="-0.26549259200692177" />
        <Con id="417" src="13" tgt="27" wght="-2.0274835464491647" />
        <Con id="419" src="2" tgt="27" wght="0.5647457453768705" />
        <Con id="457" src="14" tgt="15" wght="1.2138066689170408" />
        <Con id="519" src="6" tgt="19" wght="2.2144527755888079" />
        <Con id="534" src="0" tgt="17" wght="3.8624423907901777" />
        <Con id="560" src="1" tgt="559" wght="-2.140514603546547" />
        <Con id="604" src="8" tgt="18" wght="-4.41815233456972" />
        <Con id="619" src="10" tgt="15" wght="5" />
        <Con id="628" src="12" tgt="18" wght="1.2726923175713432" />
        <Con id="667" src="7" tgt="24" wght="4.2481130405401366" />
        <Con id="683" src="559" tgt="682" wght="2.920826249755919" />
        <Con id="693" src="3" tgt="24" wght="-4.3370845903000825" />
        <Con id="703" src="14" tgt="559" wght="-1.1467718220557126" />
        <Con id="726" src="8" tgt="559" wght="-0.37329923068938" />
        <Con id="815" src="3" tgt="21" wght="-1.3931860355660319" />
        <Con id="821" src="819" tgt="19" wght="4.0637601539492607" />
        <Con id="845" src="8" tgt="408" wght="-1.6401648285392627" />
        <Con id="852" src="8" tgt="24" wght="4.648045672055142" />
        <Con id="856" src="14" tgt="19" wght="-5" />
        <Con id="872" src="819" tgt="18" wght="-1.7567121041838527" />
        <Con id="929" src="12" tgt="21" wght="-4.9613862480392337" />
        <Con id="949" src="6" tgt="25" wght="0.3183481721374542" />
        <Con id="983" src="682" tgt="23" wght="-2.865373377379242" />
        <Con id="1056" src="7" tgt="19" wght="-4.5499503533232888" />
        <Con id="1095" src="6" tgt="16" wght="0.049841552972793579" />
        <Con id="1107" src="9" tgt="17" wght="0.07394020066714424" />
        <Con id="1151" src="4" tgt="21" wght="0.30907687731087208" />
        <Con id="1160" src="14" tgt="17" wght="3.8333619973209103" />
        <Con id="1293" src="8" tgt="682" wght="-5" />
        <Con id="1373" src="5" tgt="25" wght="4.7570789352304059" />
        <Con id="1391" src="408" tgt="1390" wght="2.3682066637466752" />
        <Con id="1392" src="1390" tgt="23" wght="-0.40865603601579248" />
        <Con id="1422" src="408" tgt="559" wght="-4.4770056919317627" />
        <Con id="1427" src="11" tgt="819" wght="-1.1546350596472621" />
        <Con id="1455" src="9" tgt="27" wght="2.828855626965145" />
        <Con id="1473" src="1390" tgt="682" wght="-0.83517619106296548" />
        <Con id="1475" src="12" tgt="25" wght="1.1735477677666142" />
        <Con id="1479" src="1" tgt="819" wght="4.791623745739277" />
        <Con id="1490" src="3" tgt="20" wght="3.2556283368856236" />
        <Con id="1494" src="8" tgt="27" wght="1.9661695823258" />
        <Con id="1495" src="559" tgt="15" wght="-2.061503855417778" />
        <Con id="1499" src="13" tgt="25" wght="3.7345479728165176" />
        <Con id="1514" src="6" tgt="682" wght="-0.37059546511478758" />
        <Con id="1515" src="9" tgt="24" wght="-0.53509260184423924" />
        <Con id="1516" src="819" tgt="15" wght="0.8650421725423757" />
        <Con id="1534" src="3" tgt="22" wght="5" />
        <Con id="1551" src="13" tgt="16" wght="-0.68401815918984277" />
        <Con id="1556" src="11" tgt="15" wght="3.4386332121633725" />
        <Con id="1557" src="6" tgt="23" wght="1.2402226896301849" />
        <Con id="1562" src="8" tgt="23" wght="1.3456528130434351" />
        <Con id="1572" src="4" tgt="408" wght="0.32768679327913408" />
        <Con id="1574" src="559" tgt="26" wght="1.4411294135828832" />
        <Con id="1577" src="7" tgt="819" wght="4.0490501336834939" />
        <Con id="1579" src="11" tgt="19" wght="1.4178846798645715" />
        <Con id="1581" src="9" tgt="682" wght="2.1633218042552471" />
        <Con id="1582" src="7" tgt="23" wght="0.84710976049798681" />
        <Con id="1595" src="5" tgt="21" wght="3.7218391946806233" />
        <Con id="1604" src="1" tgt="26" wght="4.5017308388479131" />
        <Con id="1616" src="408" tgt="16" wght="-0.26163179320401975" />
        <Con id="1618" src="2" tgt="408" wght="-0.67795939743518829" />
        <Con id="1660" src="819" tgt="24" wght="-3.5079283137284936" />
        <Con id="1661" src="7" tgt="682" wght="-0.18970379879140647" />
        <Con id="1691" src="10" tgt="25" wght="-0.95708057957547332" />
        <Con id="1718" src="11" tgt="20" wght="3.8347757803213725" />
        <Con id="1725" src="7" tgt="408" wght="4.9074657669290875" />
        <Con id="1741" src="5" tgt="1390" wght="5" />
        <Con id="1744" src="1390" tgt="24" wght="-3.9615782828623947" />
        <Con id="1748" src="13" tgt="1747" wght="4.2727103315892716" />
        <Con id="1749" src="1747" tgt="819" wght="-1.9167729425630118" />
        <Con id="1760" src="408" tgt="15" wght="1.6498135516211958" />
        <Con id="1767" src="2" tgt="16" wght="-0.78291986484733556" />
        <Con id="1768" src="819" tgt="25" wght="-1.7853573650736354" />
        <Con id="1789" src="2" tgt="1788" wght="-1.4757106632532973" />
        <Con id="1790" src="1788" tgt="22" wght="-1.7697270675289476" />
        <Con id="1822" src="4" tgt="23" wght="-5" />
        <Con id="1832" src="9" tgt="1747" wght="0.064738158432321058" />
        <Con id="1833" src="0" tgt="22" wght="4.8389603486863191" />
        <Con id="1840" src="682" tgt="1747" wght="-1.412957065443823" />
        <Con id="1845" src="9" tgt="408" wght="-2.5464009715647036" />
        <Con id="1864" src="1788" tgt="819" wght="0.2936615881577942" />
        <Con id="1865" src="1747" tgt="25" wght="-1.4080203650519252" />
        <Con id="1879" src="1788" tgt="17" wght="-3.7627119573071695" />
        <Con id="1890" src="14" tgt="1889" wght="4.8472074116352539" />
        <Con id="1891" src="1889" tgt="408" wght="2.2859672604716224" />
        <Con id="1913" src="1788" tgt="559" wght="2.4557115854707545" />
        <Con id="1928" src="2" tgt="1927" wght="-3.0475328311268437" />
        <Con id="1929" src="1927" tgt="21" wght="2.5174247287213802" />
        <Con id="1942" src="1" tgt="1747" wght="4.9912542989477515" />
        <Con id="1943" src="4" tgt="1747" wght="1.7207832915773795" />
        <Con id="1976" src="3" tgt="1788" wght="-2.409496254107486" />
        <Con id="1992" src="1747" tgt="15" wght="-1.0768501154397434" />
        <Con id="2007" src="1889" tgt="1747" wght="-2.5339287680484759" />
        <Con id="2026" src="1747" tgt="1927" wght="-1.1538061420168375" />
        <Con id="2054" src="1788" tgt="16" wght="-4.5702079031616449" />
        <Con id="2074" src="2072" tgt="408" wght="0.09540531598709226" />
        <Con id="2080" src="2" tgt="2079" wght="-0.27138138697090797" />
        <Con id="2081" src="2079" tgt="19" wght="3.7780846120143097" />
        <Con id="2095" src="13" tgt="17" wght="-0.22191101685637207" />
        <Con id="2103" src="6" tgt="17" wght="-1.8027307963007149" />
        <Con id="2117" src="7" tgt="1889" wght="2.9652563761919737" />
        <Con id="2132" src="7" tgt="2131" wght="-1.4371449676690715" />
        <Con id="2133" src="2131" tgt="559" wght="1.360335366099336" />
        <Con id="2157" src="2131" tgt="819" wght="2.4406780069693923" />
        <Con id="2226" src="4" tgt="1927" wght="0.8971916233093733" />
        <Con id="2234" src="7" tgt="1927" wght="3.7530980827924143" />
        <Con id="2237" src="2131" tgt="23" wght="-5" />
        <Con id="2277" src="2" tgt="2276" wght="-1.756393258397414" />
        <Con id="2278" src="2276" tgt="18" wght="-4.9553503496580049" />
        <Con id="2309" src="8" tgt="1889" wght="-3.9568001674474" />
        <Con id="2330" src="3" tgt="2079" wght="-2.2231717613055975" />
        <Con id="2343" src="2276" tgt="20" wght="1.6790625919716149" />
        <Con id="2360" src="0" tgt="2359" wght="1.3981797886929759" />
        <Con id="2362" src="2359" tgt="20" wght="-5" />
        <Con id="2381" src="1889" tgt="21" wght="-2.295454964334195" />
        <Con id="2384" src="2079" tgt="15" wght="-0.68316575806460478" />
        <Con id="2386" src="1927" tgt="27" wght="-3.5992419784101521" />
        <Con id="2395" src="6" tgt="2394" wght="2.3147393130183573" />
        <Con id="2396" src="2394" tgt="2072" wght="-1.3805965101346374" />
        <Con id="2406" src="2072" tgt="20" wght="-1.3697711424902081" />
        <Con id="2420" src="1390" tgt="2359" wght="-4.9851864097659888" />
        <Con id="2421" src="2359" tgt="1747" wght="1.2900203408491062" />
        <Con id="2436" src="2276" tgt="24" wght="-2.3637615226382809" />
        <Con id="2438" src="2276" tgt="17" wght="-2.5802382987652" />
        <Con id="2445" src="7" tgt="21" wght="0.9283355084721836" />
        <Con id="2472" src="2072" tgt="1889" wght="2.0177420349893809" />
        <Con id="2475" src="1390" tgt="1747" wght="2.5237536834073384" />
        <Con id="2523" src="2079" tgt="2072" wght="-5" />
        <Con id="2527" src="2131" tgt="1747" wght="-0.900896584995473" />
        <Con id="2681" src="5" tgt="2394" wght="-1.2416403100912978" />
        <Con id="2690" src="12" tgt="1788" wght="-5" />
        <Con id="2693" src="7" tgt="2692" wght="3.9400002260046265" />
        <Con id="2694" src="2692" tgt="22" wght="-5" />
        <Con id="2713" src="1788" tgt="2359" wght="-5" />
        <Con id="2804" src="2692" tgt="2359" wght="-4.74212825037826" />
        <Con id="2867" src="2131" tgt="408" wght="-2.7491310892096656" />
        <Con id="2904" src="2902" tgt="408" wght="-2.9326732979874963" />
        <Con id="2938" src="2276" tgt="22" wght="4.9441341260937355" />
        <Con id="2966" src="1927" tgt="22" wght="3.0007509747520089" />
        <Con id="3033" src="408" tgt="2692" wght="-2.1104093143462279" />
        <Con id="3060" src="2359" tgt="17" wght="-0.72926764753046469" />
        <Con id="3167" src="13" tgt="3166" wght="-1.9774025741601866" />
        <Con id="3168" src="3166" tgt="2902" wght="-5" />
        <Con id="3176" src="4" tgt="2394" wght="4.583843495714758" />
        <Con id="3238" src="559" tgt="3237" wght="2.8494488217183074" />
        <Con id="3239" src="3237" tgt="22" wght="0.27390561517176926" />
        <Con id="3401" src="408" tgt="3237" wght="-2.1086259861401042" />
        <Con id="3425" src="3166" tgt="2692" wght="3.3870706039032648" />
        <Con id="3484" src="2692" tgt="21" wght="1.2194234936117185" />
        <Con id="3508" src="2359" tgt="3507" wght="3.1821238253593664" />
        <Con id="3509" src="3507" tgt="25" wght="5" />
        <Con id="3533" src="14" tgt="24" wght="-4.9049630420904586" />
        <Con id="3538" src="6" tgt="18" wght="-2.6997640205079128" />
        <Con id="3548" src="11" tgt="2359" wght="4.8861923458064869" />
        <Con id="3580" src="13" tgt="2692" wght="2.6224643208835641" />
        <Con id="3594" src="5" tgt="2692" wght="1.1894932180473106" />
        <Con id="3607" src="3166" tgt="3606" wght="2.8168348623807993" />
        <Con id="3608" src="3606" tgt="559" wght="4.3437722398662952" />
        <Con id="3612" src="9" tgt="23" wght="-5" />
        <Con id="3631" src="2079" tgt="25" wght="-2.3373362556218367" />
        <Con id="3652" src="1390" tgt="3651" wght="-0.65513439389145289" />
        <Con id="3653" src="3651" tgt="25" wght="5" />
        <Con id="3659" src="5" tgt="1927" wght="-1.1887216296975069" />
        <Con id="3660" src="2394" tgt="2692" wght="0.03721287490260039" />
        <Con id="3687" src="3166" tgt="25" wght="-0.79285842902266457" />
        <Con id="3710" src="2359" tgt="18" wght="0.53641488370931856" />
        <Con id="3721" src="2079" tgt="2692" wght="-0.87130101112007086" />
        <Con id="3728" src="1927" tgt="819" wght="2.0432977337678375" />
        <Con id="3742" src="13" tgt="1927" wght="0.27064864369967467" />
        <Con id="3769" src="2079" tgt="17" wght="-0.029999048640998591" />
        <Con id="3774" src="682" tgt="18" wght="1.6132907922133384" />
        <Con id="3780" src="14" tgt="3779" wght="4.5272731051543964" />
        <Con id="3781" src="3779" tgt="682" wght="4.2951828008517623" />
        <Con id="3782" src="4" tgt="20" wght="-4.9955823385154225" />
        <Con id="3811" src="3809" tgt="20" wght="0.34316280856728554" />
        <Con id="3812" src="1" tgt="2902" wght="-4.7914772427524168" />
        <Con id="3855" src="3507" tgt="3809" wght="3.5763292868272183" />
        <Con id="3867" src="3651" tgt="3606" wght="-5" />
        <Con id="3872" src="13" tgt="20" wght="2.80239166131727" />
        <Con id="3882" src="13" tgt="3881" wght="1.0548054720970876" />
        <Con id="3883" src="3881" tgt="819" wght="2.9605989896290739" />
        <Con id="3904" src="1" tgt="27" wght="-4.1717545857613967" />
        <Con id="3931" src="3881" tgt="2131" wght="3.754253137374775" />
        <Con id="3933" src="4" tgt="2902" wght="4.3509555095806718" />
        <Con id="3953" src="2276" tgt="2394" wght="0.43368706338093937" />
        <Con id="3959" src="408" tgt="3958" wght="2.4143569617245908" />
        <Con id="3960" src="3958" tgt="22" wght="4.5547562863529008" />
        <Con id="4009" src="7" tgt="25" wght="2.7623861453359053" />
        <Con id="4024" src="8" tgt="4023" wght="4.9193489655993261" />
        <Con id="4025" src="4023" tgt="1747" wght="-4.8047135956585407" />
        <Con id="4029" src="2359" tgt="4023" wght="-2.4345908182976559" />
        <Con id="4112" src="8" tgt="4111" wght="3.3588701508786087" />
        <Con id="4113" src="4111" tgt="3809" wght="5" />
        <Con id="4122" src="3958" tgt="559" wght="-4.8840996159465631" />
        <Con id="4124" src="7" tgt="3779" wght="0.53006001584027906" />
        <Con id="4129" src="3809" tgt="27" wght="-1.1266347506812673" />
        <Con id="4153" src="3881" tgt="17" wght="1.0098739360357041" />
        <Con id="4188" src="408" tgt="21" wght="1.5004269969665038" />
        <Con id="4202" src="3809" tgt="21" wght="-4.9814169331261757" />
        <Con id="4209" src="14" tgt="2359" wght="-2.7741857019086815" />
        <Con id="4226" src="0" tgt="819" wght="0.48557288787763841" />
        <Con id="4240" src="11" tgt="3606" wght="-0.25546828284859657" />
        <Con id="4337" src="4023" tgt="19" wght="-0.60776580590754747" />
        <Con id="4367" src="1889" tgt="3507" wght="-3.6304043512791395" />
        <Con id="4465" src="1927" tgt="26" wght="-1.6690381431327168" />
        <Con id="4467" src="11" tgt="21" wght="1.7423640860783369" />
        <Con id="4511" src="0" tgt="4510" wght="0.65801466331074887" />
        <Con id="4512" src="4510" tgt="2394" wght="0.54546116385608912" />
        <Con id="4526" src="2131" tgt="4525" wght="-2.8139457727654178" />
        <Con id="4527" src="4525" tgt="2276" wght="4.4031261932104826" />
        <Con id="4531" src="9" tgt="25" wght="-0.23497114568528302" />
        <Con id="4554" src="9" tgt="4111" wght="-4.0649895624541825" />
        <Con id="4569" src="12" tgt="4568" wght="-2.7854025973798113" />
        <Con id="4570" src="4568" tgt="20" wght="5" />
        <Con id="4642" src="2072" tgt="4641" wght="3.0018875181590956" />
        <Con id="4643" src="4641" tgt="2359" wght="5" />
        <Con id="4645" src="1390" tgt="27" wght="-4.28545492628916" />
        <Con id="4705" src="2902" tgt="19" wght="2.1237640781328082" />
        <Con id="4790" src="682" tgt="4789" wght="2.7900801052501847" />
        <Con id="4791" src="4789" tgt="26" wght="5" />
        <Con id="4864" src="7" tgt="2072" wght="-3.9171419199556112" />
        <Con id="4876" src="1889" tgt="4111" wght="4.58289694506675" />
      </Connections>
    </Network>
    <Network id="124776" birthGen="165" fitness="0.5">
      <Nodes>
        <Node type="bias" id="0" />
        <Node type="in" id="1" />
        <Node type="in" id="2" />
        <Node type="in" id="3" />
        <Node type="in" id="4" />
        <Node type="in" id="5" />
        <Node type="in" id="6" />
        <Node type="in" id="7" />
        <Node type="in" id="8" />
        <Node type="in" id="9" />
        <Node type="in" id="10" />
        <Node type="in" id="11" />
        <Node type="in" id="12" />
        <Node type="in" id="13" />
        <Node type="in" id="14" />
        <Node type="out" id="15" />
        <Node type="out" id="16" />
        <Node type="out" id="17" />
        <Node type="out" id="18" />
        <Node type="out" id="19" />
        <Node type="out" id="20" />
        <Node type="out" id="21" />
        <Node type="out" id="22" />
        <Node type="out" id="23" />
        <Node type="out" id="24" />
        <Node type="out" id="25" />
        <Node type="out" id="26" />
        <Node type="out" id="27" />
        <Node type="hid" id="408" />
        <Node type="hid" id="559" />
        <Node type="hid" id="682" />
        <Node type="hid" id="819" />
        <Node type="hid" id="1390" />
        <Node type="hid" id="1747" />
        <Node type="hid" id="1788" />
        <Node type="hid" id="1889" />
        <Node type="hid" id="1927" />
        <Node type="hid" id="2072" />
        <Node type="hid" id="2079" />
        <Node type="hid" id="2131" />
        <Node type="hid" id="2276" />
        <Node type="hid" id="2359" />
        <Node type="hid" id="2394" />
        <Node type="hid" id="2692" />
        <Node type="hid" id="2902" />
        <Node type="hid" id="3166" />
        <Node type="hid" id="3237" />
        <Node type="hid" id="3507" />
        <Node type="hid" id="3606" />
        <Node type="hid" id="3651" />
        <Node type="hid" id="3779" />
        <Node type="hid" id="3809" />
        <Node type="hid" id="3881" />
        <Node type="hid" id="3958" />
        <Node type="hid" id="4023" />
        <Node type="hid" id="4111" />
        <Node type="hid" id="4510" />
        <Node type="hid" id="4525" />
        <Node type="hid" id="4568" />
        <Node type="hid" id="4641" />
        <Node type="hid" id="4789" />
      </Nodes>
      <Connections>
        <Con id="47" src="1" tgt="21" wght="-0.28610460135396243" />
        <Con id="89" src="4" tgt="24" wght="4.178335990454217" />
        <Con id="97" src="5" tgt="19" wght="-0.11997190530383078" />
        <Con id="161" src="10" tgt="18" wght="1.7677909648045897" />
        <Con id="268" src="8" tgt="19" wght="-0.90287724909888745" />
        <Con id="290" src="9" tgt="16" wght="-1.5997418019513894" />
        <Con id="302" src="2" tgt="23" wght="1.9104452658344717" />
        <Con id="328" src="3" tgt="15" wght="-4.9656192604238107" />
        <Con id="333" src="10" tgt="26" wght="0.39461977748329474" />
        <Con id="337" src="7" tgt="18" wght="0.43057453012229008" />
        <Con id="345" src="10" tgt="20" wght="-0.26382382970120449" />
        <Con id="410" src="408" tgt="20" wght="-0.26549259200692177" />
        <Con id="417" src="13" tgt="27" wght="-2.0274835464491647" />
        <Con id="419" src="2" tgt="27" wght="0.5647457453768705" />
        <Con id="457" src="14" tgt="15" wght="1.2138066689170408" />
        <Con id="519" src="6" tgt="19" wght="2.2144527755888079" />
        <Con id="534" src="0" tgt="17" wght="3.8624423907901777" />
        <Con id="560" src="1" tgt="559" wght="-2.140514603546547" />
        <Con id="604" src="8" tgt="18" wght="-4.41815233456972" />
        <Con id="619" src="10" tgt="15" wght="5" />
        <Con id="628" src="12" tgt="18" wght="1.2726923175713432" />
        <Con id="667" src="7" tgt="24" wght="4.2481130405401366" />
        <Con id="683" src="559" tgt="682" wght="2.920826249755919" />
        <Con id="693" src="3" tgt="24" wght="-4.3370845903000825" />
        <Con id="703" src="14" tgt="559" wght="-1.1467718220557126" />
        <Con id="726" src="8" tgt="559" wght="-0.37329923068938" />
        <Con id="815" src="3" tgt="21" wght="-1.3931860355660319" />
        <Con id="821" src="819" tgt="19" wght="4.0637601539492607" />
        <Con id="845" src="8" tgt="408" wght="-1.6401648285392627" />
        <Con id="852" src="8" tgt="24" wght="4.648045672055142" />
        <Con id="856" src="14" tgt="19" wght="-5" />
        <Con id="872" src="819" tgt="18" wght="-1.7567121041838527" />
        <Con id="929" src="12" tgt="21" wght="-4.9613862480392337" />
        <Con id="949" src="6" tgt="25" wght="0.3183481721374542" />
        <Con id="983" src="682" tgt="23" wght="-2.865373377379242" />
        <Con id="1056" src="7" tgt="19" wght="-4.5499503533232888" />
        <Con id="1095" src="6" tgt="16" wght="0.049841552972793579" />
        <Con id="1107" src="9" tgt="17" wght="0.07394020066714424" />
        <Con id="1151" src="4" tgt="21" wght="0.30907687731087208" />
        <Con id="1160" src="14" tgt="17" wght="3.8333619973209103" />
        <Con id="1293" src="8" tgt="682" wght="-5" />
        <Con id="1373" src="5" tgt="25" wght="4.7570789352304059" />
        <Con id="1391" src="408" tgt="1390" wght="2.3682066637466752" />
        <Con id="1392" src="1390" tgt="23" wght="-0.40865603601579248" />
        <Con id="1422" src="408" tgt="559" wght="-4.4770056919317627" />
        <Con id="1427" src="11" tgt="819" wght="-1.1546350596472621" />
        <Con id="1455" src="9" tgt="27" wght="2.828855626965145" />
